-5.155594537013890033e-01 2.616549079092281183e+00 -1.250214535485090650e+00 1.153914979521870947e+02 5.372981196296959183e+01 -5.499810350175348503e+02
-5.337291200641747224e-01 2.648435308495912022e+00 -1.264292851386177752e+00 1.151561505130682974e+02 5.094286083156751488e+01 -5.486325467418287190e+02
-4.703527802537710301e-01 2.592269307620537866e+00 -1.257980122390716105e+00 1.168280572093683531e+02 5.205069697307018828e+01 -5.484999245519575197e+02
-5.378079457869553437e-01 2.648457043087657503e+00 -1.262521722913105826e+00 1.142153227496169023e+02 5.156316417544488218e+01 -5.474502771552459990e+02
-5.311160566615242828e-01 2.618934202105535736e+00 -1.253131383105078100e+00 1.154923888128991791e+02 5.216193065403575702e+01 -5.470850117556859686e+02
-5.483187299611254062e-01 2.668626302962048946e+00 -1.276168751406369317e+00 1.140092714858872114e+02 5.256375518564149729e+01 -5.463375699602996747e+02
-4.801976411265869160e-01 2.614553336105633452e+00 -1.261314436846747711e+00 1.138321374185325112e+02 5.280680173879198946e+01 -5.461022055876884451e+02
-4.823586610178738354e-01 2.613769370157531746e+00 -1.255476399983866287e+00 1.143110812834330545e+02 5.314091791687576460e+01 -5.458915805288316960e+02
-5.581655483977101539e-01 2.660880855239390108e+00 -1.268319915634971373e+00 1.148173920389287446e+02 5.193112434335560579e+01 -5.458139204516744485e+02
-5.379186349116960031e-01 2.654091957204091301e+00 -1.269653503096468405e+00 1.144765634664526175e+02 5.389663348925458308e+01 -5.457543173198116619e+02
-5.673641826900279739e-01 2.674910758431967128e+00 -1.279765153453845450e+00 1.147418326545592748e+02 5.272486503370970468e+01 -5.454943212492066777e+02
-5.125074707862680157e-01 2.623035556955596537e+00 -1.251346352920394089e+00 1.144010499445650311e+02 5.273962250597611501e+01 -5.452944310302398208e+02
-5.494999157076581042e-01 2.656533412795644367e+00 -1.270323163418315637e+00 1.135811786076177015e+02 5.287886543777929660e+01 -5.452773939002664747e+02
-5.174495022904164188e-01 2.618091209201302672e+00 -1.260128270234438297e+00 1.158153871046599193e+02 5.048188765306505843e+01 -5.452679879677048120e+02
-5.403342640692336829e-01 2.649048915658169800e+00 -1.280569699763411506e+00 1.156833664132455510e+02 5.136561312418794500e+01 -5.452038273539286592e+02
-4.971827840487170747e-01 2.625969106946188791e+00 -1.273988345158140412e+00 1.165009590501396843e+02 5.078634033224420818e+01 -5.451284794296896052e+02
-4.897212556571721720e-01 2.601011778062562563e+00 -1.261651008417217668e+00 1.162226603565167977e+02 5.202216280158489781e+01 -5.450358890661514124e+02
-5.202665185561521355e-01 2.628618556860019329e+00 -1.270740598595680559e+00 1.144558726292154915e+02 5.277280352649549400e+01 -5.450348256155247100e+02
-5.357233182952185757e-01 2.641492592406145423e+00 -1.265194608177491631e+00 1.151822438196340670e+02 5.072460680281321288e+01 -5.450006559173137930e+02
-5.325364760118933560e-01 2.640167239295949653e+00 -1.259476295948452673e+00 1.134545957501453444e+02 5.291618645320897940e+01 -5.449759581703239064e+02
-5.326690986886486456e-01 2.660338495155698535e+00 -1.283135610810462346e+00 1.162251949339137553e+02 5.137844644692165730e+01 -5.449649686796760761e+02
-4.989309283912604087e-01 2.623829056902240442e+00 -1.270216529658946492e+00 1.167346909074077814e+02 5.072739112057692523e+01 -5.448787865335618790e+02
-5.400053914511442343e-01 2.644359783206400305e+00 -1.277636942051404212e+00 1.158922173887457063e+02 5.136181980924752111e+01 -5.448729096839310841e+02
-5.343745375957551502e-01 2.631992957437550906e+00 -1.267820697894152637e+00 1.158064568760627964e+02 5.077404533083708316e+01 -5.447933211864710756e+02
-5.470498424152072658e-01 2.654227302064743110e+00 -1.269846303876748017e+00 1.156646251574276505e+02 5.115467938855664443e+01 -5.447770083093778339e+02
-5.410916239888390322e-01 2.662791908593642454e+00 -1.275306731203701638e+00 1.154546619013622433e+02 5.167310342601905404e+01 -5.447162582925451488e+02
-5.350573489757728396e-01 2.630954024457050622e+00 -1.255090075515441939e+00 1.143397934611340787e+02 5.221130465319464520e+01 -5.446812748162740263e+02
-5.571782347550495729e-01 2.667131563568490460e+00 -1.274960722006109215e+00 1.148675230060081276e+02 5.313169622230122968e+01 -5.446642024566457394e+02
-5.197831554001055565e-01 2.641145747834630075e+00 -1.264646632563579232e+00 1.139370891364032019e+02 5.363629067350038326e+01 -5.446555673958209809e+02
-5.233023444737519014e-01 2.624175288198159706e+00 -1.267802904886279336e+00 1.164025524668879825e+02 5.141901102668464318e+01 -5.445749940119383155e+02
-4.889796323568251779e-01 2.603187100183778746e+00 -1.257888016137364673e+00 1.163642213865346378e+02 5.075393571097481527e+01 -5.444946503202841086e+02
-5.083447685131403659e-01 2.626951023854820377e+00 -1.270831743467791597e+00 1.167071888650022373e+02 5.225340633579693872e+01 -5.444001296356161674e+02
-5.402730669978925704e-01 2.657680233004025450e+00 -1.282069326573452628e+00 1.163662929803638946e+02 5.093973199182514122e+01 -5.443650777267677086e+02
-5.329122785680162622e-01 2.642692325117288465e+00 -1.266075612003640494e+00 1.160925768449026378e+02 5.141447882919172230e+01 -5.443584676080669169e+02
-5.016001377502341541e-01 2.620935444502755729e+00 -1.262777489763702299e+00 1.146656683070379046e+02 5.077832169741262192e+01 -5.443362210231188101e+02
-4.619906334166188344e-01 2.584349623342134361e+00 -1.249685681714520769e+00 1.146328669859441334e+02 5.208849372104904774e+01 -5.443321535090381076e+02
-5.123788806768878601e-01 2.620426326700329156e+00 -1.268722032458337701e+00 1.165146031391128076e+02 5.107573305684763909e+01 -5.443274711654803468e+02
-4.824476782849034251e-01 2.598773203344233895e+00 -1.254874070965414923e+00 1.152629986392369119e+02 5.350536040064966414e+01 -5.442525655005167664e+02
-5.120944794013162493e-01 2.613830302899261326e+00 -1.254226451892624716e+00 1.134355857578958791e+02 5.318869182729656586e+01 -5.441691269703178477e+02
-4.742280816985307013e-01 2.590193780883596641e+00 -1.253637227377407903e+00 1.145818539767649895e+02 5.258394142046196862e+01 -5.440993668294396457e+02
-4.772269819136187863e-01 2.605889020587091043e+00 -1.262976676152486988e+00 1.159378471779244819e+02 5.249508713835382423e+01 -5.440893841110447511e+02
-5.184597414308207419e-01 2.640487139000717853e+00 -1.265204044073673373e+00 1.136588829284611819e+02 5.281457805289596763e+01 -5.440756858999141059e+02
-5.188480989307615587e-01 2.639245442271229258e+00 -1.270845951245007655e+00 1.141091657426548238e+02 5.350521045504382300e+01 -5.440386285842832876e+02
-4.973769128945466633e-01 2.615833698010610497e+00 -1.260851267277517174e+00 1.160561685260362879e+02 5.052518511520506195e+01 -5.440094273433077205e+02
-4.650067545311280526e-01 2.597209395335964732e+00 -1.257041519216870462e+00 1.153822035832308046e+02 5.183598253431171088e+01 -5.440004514214326719e+02
-5.067417061239858356e-01 2.618350875884059015e+00 -1.269031306644974322e+00 1.162973522510047246e+02 5.090950433587988755e+01 -5.439855125453192386e+02
-4.833468579443387370e-01 2.601766676139653178e+00 -1.262524242506005479e+00 1.160880906727103223e+02 5.124555829962883990e+01 -5.439717785731650110e+02
-4.969128741417172535e-01 2.608487144068956098e+00 -1.250518647571901454e+00 1.133644016240915704e+02 5.283171816177096503e+01 -5.439481775169952016e+02
-4.980508252673150338e-01 2.631673009025122134e+00 -1.273360372186597367e+00 1.157206282987415307e+02 5.241168120591865431e+01 -5.439053025068576517e+02
-4.715373218142211442e-01 2.590398699953695427e+00 -1.253869673314076394e+00 1.156312785345047018e+02 5.124317548293390701e+01 -5.438778594102527677e+02
-5.383372851918242219e-01 2.658162753066303008e+00 -1.281689066422594614e+00 1.157640619434924929e+02 5.267820896123450325e+01 -5.438593150886381409e+02
-5.331449417915292699e-01 2.639004497266604687e+00 -1.271333582004861462e+00 1.159252045462506686e+02 5.305990491521984609e+01 -5.438358655390564991e+02
-4.798189542050543821e-01 2.587271205004940455e+00 -1.249070505493855343e+00 1.150970767825012899e+02 5.180248177311972313e+01 -5.438040340149826761e+02
-5.199081444720690115e-01 2.613037851126179145e+00 -1.251965787047852885e+00 1.144581682889652967e+02 5.218474324682358656e+01 -5.437996425406616936e+02
-5.074178792911840929e-01 2.610028729497367639e+00 -1.252062266025694370e+00 1.155698217671664736e+02 5.279659291161109991e+01 -5.437456331064568076e+02
-4.931227337644097375e-01 2.610484904935998163e+00 -1.252197833958647699e+00 1.151296722576945086e+02 5.304228802378202090e+01 -5.437230475063394124e+02
-4.978204914405157666e-01 2.629535788820648534e+00 -1.264152809357804941e+00 1.146791422032983405e+02 5.236126513818408057e+01 -5.436773375704344744e+02
-4.952341910254158819e-01 2.623050999196027799e+00 -1.262338210289876805e+00 1.157124997891030489e+02 5.239182840947580644e+01 -5.436581889222018162e+02
-4.897749114406373394e-01 2.603562473328408178e+00 -1.248324332397404923e+00 1.140647431884680856e+02 5.198783995722499185e+01 -5.436456405895518174e+02
-5.264238262247928901e-01 2.635053102875682729e+00 -1.259719192468864435e+00 1.154001719569170774e+02 5.208368278069693247e+01 -5.435261068352990605e+02
-4.848868776070434095e-01 2.612176281639196240e+00 -1.262983905163792997e+00 1.143145630065764351e+02 5.306569757285720357e+01 -5.435071619754875201e+02
-5.319687809341324680e-01 2.639296695938735837e+00 -1.268087813218030213e+00 1.151921750550931733e+02 5.073592071827854966e+01 -5.434909063642886622e+02
-5.552789791345205117e-01 2.657095874468981211e+00 -1.273181285817410746e+00 1.155935052729224566e+02 5.162537241114958420e+01 -5.434479643233083834e+02
-4.953604140253133892e-01 2.605827720780732992e+00 -1.259535634630554846e+00 1.162867472777332551e+02 5.104670614815921681e+01 -5.434348371861016176e+02
-4.863419315469990067e-01 2.608436686038020369e+00 -1.252849192221403563e+00 1.149698876319268663e+02 5.161664250938082432e+01 -5.434209006961424393e+02
-4.774920066997072610e-01 2.591125223444608050e+00 -1.249164332731018234e+00 1.147967524960879189e+02 5.145462435570669868e+01 -5.434191243454088180e+02
-4.940093126453888317e-01 2.612711468785557045e+00 -1.263579598401997295e+00 1.148129357893918296e+02 5.114521652707230714e+01 -5.433785657997461840e+02
-4.860654694623818273e-01 2.615320577145826331e+00 -1.260655855536112036e+00 1.157531208441032362e+02 5.200219526508180934e+01 -5.433736754933253223e+02
-5.390698342938904375e-01 2.651698456180252350e+00 -1.279165940683736125e+00 1.164132814103837177e+02 5.172673457527756113e+01 -5.433596730192715540e+02
-5.387726208564993513e-01 2.648437169944613867e+00 -1.271221612762262865e+00 1.158405186416058399e+02 5.084094868641437870e+01 -5.433500595932573560e+02
-5.347904992533321078e-01 2.649928436819503297e+00 -1.279481281536134496e+00 1.150118529912884071e+02 5.233829779130044813e+01 -5.433455634212245968e+02
-5.104970607901186952e-01 2.613383298297223600e+00 -1.256134244583938298e+00 1.136910476560482408e+02 5.293807150951894869e+01 -5.433199065784747290e+02
-5.312207560083095359e-01 2.643373284739106932e+00 -1.273225266922528576e+00 1.143505665891543259e+02 5.329205722560848812e+01 -5.433149143270320565e+02
-4.855970403269438407e-01 2.597531764365307527e+00 -1.250326692237766935e+00 1.143161358256524096e+02 5.357563770230393629e+01 -5.432853931368483700e+02
-4.921586807771927141e-01 2.611316525024670820e+00 -1.258690841888348899e+00 1.162845601434173801e+02 5.159408113710532007e+01 -5.432840767223241301e+02
-5.306945684355524051e-01 2.654643466483387559e+00 -1.277529916518829189e+00 1.145720846220616806e+02 5.198269491347383564e+01 -5.432802859015902186e+02
-5.237218739077977858e-01 2.638777427334758396e+00 -1.271601428858398108e+00 1.166454252488227326e+02 5.148749191939117509e+01 -5.432297030014892698e+02
-4.816304632711254641e-01 2.602614018797557716e+00 -1.261758634003251167e+00 1.151691861792569682e+02 5.153119511204289438e+01 -5.432000003549256917e+02
-4.841669838739690590e-01 2.598151048761223603e+00 -1.250452251501869227e+00 1.141785184576972938e+02 5.179672667579043832e+01 -5.431321729225770696e+02
-5.159800791802284792e-01 2.620955718579132121e+00 -1.260149214984748411e+00 1.139357345722512207e+02 5.200577355559505577e+01 -5.431289873110334838e+02
-4.985192285461534922e-01 2.609635857771615441e+00 -1.248954560379186063e+00 1.138176096452399406e+02 5.308427517639447046e+01 -5.431273591897333972e+02
-5.142641060086035054e-01 2.623448220381729978e+00 -1.263272360393538740e+00 1.154414843393134618e+02 5.337285543520354736e+01 -5.431058482050761995e+02
-4.892688662906170549e-01 2.617006509984776130e+00 -1.261881681097627883e+00 1.142368887914564084e+02 5.191105510104497966e+01 -5.430969203558637446e+02
-5.135666734031261171e-01 2.619058210018970545e+00 -1.251451939370383570e+00 1.145558330987384892e+02 5.237355843803203470e+01 -5.430519122047151086e+02
-5.303188043890179060e-01 2.644528648464026688e+00 -1.264880924218648950e+00 1.151044774648450755e+02 5.171114475918412268e+01 -5.430501946947611032e+02
-4.793235182050210597e-01 2.600408541154274999e+00 -1.248784881477804198e+00 1.144232323126287554e+02 5.266818649333228564e+01 -5.430309632090910554e+02
-5.155134486932091420e-01 2.637397791612486664e+00 -1.271468737815036221e+00 1.164370082220202818e+02 5.121456316845987544e+01 -5.430272466669109690e+02
-4.794187960584288533e-01 2.604757887536391703e+00 -1.258900797681167916e+00 1.157543046966850397e+02 5.264803926661369360e+01 -5.430062556201332882e+02
-5.316773813892048395e-01 2.637478286324959509e+00 -1.262593764993603429e+00 1.153230515097994129e+02 5.127686783003642290e+01 -5.429924968017037372e+02
-5.058628064241581512e-01 2.607960381114922122e+00 -1.251642125231813729e+00 1.137975053876745193e+02 5.325433779118782240e+01 -5.429549051229280394e+02
-4.918546608068794512e-01 2.623657583093614853e+00 -1.267860917562305012e+00 1.154293362002900949e+02 5.266989741188911012e+01 -5.429468226670053355e+02
-5.178433528858299439e-01 2.644880569520823954e+00 -1.269922214754656942e+00 1.149473937572220450e+02 5.184668208457642891e+01 -5.429203075000743866e+02
-5.482401691278759870e-01 2.650356865951118746e+00 -1.270258681702920889e+00 1.142277545832011043e+02 5.278032885868580593e+01 -5.428929043973809030e+02
-5.513589007710457679e-01 2.650221561910694135e+00 -1.270694023007597373e+00 1.147140482659819440e+02 5.270807231605755305e+01 -5.428437698838924916e+02
-5.276280001698161470e-01 2.632928711501200336e+00 -1.270454354409414677e+00 1.162627209988176133e+02 5.116188935072108279e+01 -5.428209035959063158e+02
-4.892144629212147322e-01 2.604601294868187811e+00 -1.250567827349466477e+00 1.146724216944917458e+02 5.158246813763636851e+01 -5.427880936738124547e+02
-5.391292406215413280e-01 2.652048159878674927e+00 -1.275300486930215804e+00 1.146888958581955080e+02 5.153701970907022201e+01 -5.427753602397302757e+02
-4.890679417144934149e-01 2.617166935941984907e+00 -1.259717986777562082e+00 1.153840333527428186e+02 5.221402392974252393e+01 -5.427324070223033914e+02
-4.831567103858844803e-01 2.614207275468104719e+00 -1.264546012180159273e+00 1.147278157179277827e+02 5.227469324664326678e+01 -5.427289353445588631e+02
-4.952106849886490636e-01 2.617720618494701057e+00 -1.255920859826447078e+00 1.140483341809303823e+02 5.309287202985512977e+01 -5.427249114287324119e+02
-5.046712082904072361e-01 2.623462890259043334e+00 -1.271271082779487749e+00 1.163474455249216533e+02 5.185744217236700138e+01 -5.427176226274629016e+02
-5.185811322633178122e-01 2.638799695653201827e+00 -1.263102133252146153e+00 1.147745739686176876e+02 5.241458727485019153e+01 -5.427141859702254578e+02
-5.400778363359872714e-01 2.639515289548999721e+00 -1.266191160914310387e+00 1.155392409835296519e+02 5.280997652859025493e+01 -5.426353867128691491e+02
-5.458611044796271017e-01 2.650559944859807615e+00 -1.276184352930388677e+00 1.154295740982362730e+02 5.240740049030583236e+01 -5.426107746678447938e+02
-4.967718372791587456e-01 2.625991176091548862e+00 -1.265186364366758909e+00 1.143362067010943122e+02 5.220244652119046691e+01 -5.425723532107367646e+02
-4.948580229600771929e-01 2.597193947621132093e+00 -1.246961442223150307e+00 1.145227954847723737e+02 5.241338017378788550e+01 -5.425577041323620051e+02
-5.339354612356093099e-01 2.650546613540062157e+00 -1.279501187517079863e+00 1.155427607486340378e+02 5.247733457375227317e+01 -5.425506615804665671e+02
-4.781174611065193147e-01 2.598071009396076825e+00 -1.251485578994888215e+00 1.141093267023536839e+02 5.309523578296574442e+01 -5.425423024633693103e+02
-5.031189148796837429e-01 2.618254494411344169e+00 -1.259605055076388425e+00 1.146858661467922929e+02 5.334521762643979059e+01 -5.425394820921460450e+02
-5.082742126781401026e-01 2.618884813577103454e+00 -1.258289349892076636e+00 1.154063071707777084e+02 5.092870998266027982e+01 -5.425183957951373941e+02
-5.022223941132217817e-01 2.625839406489680616e+00 -1.272564233893408669e+00 1.154404584182581885e+02 5.149422782937611487e+01 -5.424984808036786035e+02
-5.382686769672968552e-01 2.647889674430282003e+00 -1.273930990612912595e+00 1.144425156930182652e+02 5.291955237710195092e+01 -5.424945272846089210e+02
-5.382686769672968552e-01 2.647889674430282003e+00 -1.273930990612912595e+00 1.144425156930182652e+02 5.291955237710195092e+01 -5.424945272846089210e+02
-5.275969494079193467e-01 2.624631307016684900e+00 -1.260630673914486799e+00 1.143072404193787150e+02 5.249254161558724263e+01 -5.424784542581784308e+02
-4.929069475256167010e-01 2.613928138587966910e+00 -1.256737796872114288e+00 1.154178305401377145e+02 5.142925912408571776e+01 -5.424563876955342039e+02
-4.929069475256167010e-01 2.613928138587966910e+00 -1.256737796872114288e+00 1.154178305401377145e+02 5.142925912408571776e+01 -5.424563876955342039e+02
-5.187897497652027567e-01 2.628799872828106565e+00 -1.268927519574264196e+00 1.164974847928638582e+02 5.132144993511715825e+01 -5.424475244569937331e+02
-5.352614069710188716e-01 2.634004283612245700e+00 -1.265979950742758930e+00 1.158163027964128844e+02 5.235639624597789066e+01 -5.424475179568649992e+02
-4.967631662342100185e-01 2.615349109303918951e+00 -1.265029803649402318e+00 1.148439415794700409e+02 5.139730802167514412e+01 -5.424410568665501842e+02
-5.113962215180647419e-01 2.631889301700728545e+00 -1.265754090764932727e+00 1.145383448022949153e+02 5.131774416271878181e+01 -5.424375073280652941e+02
-5.112294885567685299e-01 2.639530882393146705e+00 -1.275730187237827273e+00 1.153887116458064810e+02 5.146712733760989522e+01 -5.424350183770690137e+02
-5.239835737331999255e-01 2.624414031303023531e+00 -1.260958246349912493e+00 1.158907106841458159e+02 5.235865495001036152e+01 -5.424108214295993093e+02
-4.929099145084201439e-01 2.598932324586431530e+00 -1.252079250893263662e+00 1.153081755602497509e+02 5.144398296398438220e+01 -5.423973290935565501e+02
-5.061854429308745296e-01 2.627824163232262311e+00 -1.265158604603897174e+00 1.158617032056787650e+02 5.075825857492961291e+01 -5.423917023016634857e+02
-5.125778262531408558e-01 2.610582470329201321e+00 -1.253532719358211089e+00 1.143475206160153448e+02 5.302620653167505793e+01 -5.423701242854371003e+02
-4.789215048759114524e-01 2.592492140384331289e+00 -1.249175490018574308e+00 1.148431705469775750e+02 5.297880914180859691e+01 -5.423422560895080551e+02
-5.002921306010215119e-01 2.615968974000352887e+00 -1.256403054843787892e+00 1.155277748939750495e+02 5.139044726848300115e+01 -5.423347183905399334e+02
-5.202533280355838841e-01 2.631684226516363356e+00 -1.273599238137917311e+00 1.157228514172772691e+02 5.199030177784317175e+01 -5.423341169507067434e+02
-4.998872909541614007e-01 2.604628707991172298e+00 -1.256618312183655384e+00 1.157555461245841570e+02 5.145849630460986646e+01 -5.423078972932343049e+02
-4.805405538649427655e-01 2.606236490062030953e+00 -1.257335560606094305e+00 1.149788692770997329e+02 5.144387755822404529e+01 -5.423036506827646690e+02
-4.828536178518216815e-01 2.595760834662873773e+00 -1.253329962217060611e+00 1.147537189145881911e+02 5.299150842249653692e+01 -5.422979114961914320e+02
-5.012236647865035977e-01 2.632625626243649375e+00 -1.271268623024927713e+00 1.153816592596164128e+02 5.227845430941036398e+01 -5.422231541204602081e+02
-5.076002911722792277e-01 2.616887178236122047e+00 -1.263027869038525708e+00 1.155532575616103514e+02 5.086540177987561151e+01 -5.422201041911671382e+02
-4.979393894837409462e-01 2.615472005627543783e+00 -1.258922477784926386e+00 1.139531904914846905e+02 5.205166298465988461e+01 -5.422194910764935685e+02
-5.036990438678561333e-01 2.615549604179314258e+00 -1.263724268301781528e+00 1.144291406269340285e+02 5.239582552461777709e+01 -5.422137203180723191e+02
-5.378080884754359303e-01 2.639097496877490734e+00 -1.269819878368060984e+00 1.153981669132496393e+02 5.278743233567820425e+01 -5.421880582718941923e+02
-5.378080884754359303e-01 2.639097496877490734e+00 -1.269819878368060984e+00 1.153981669132496393e+02 5.278743233567820425e+01 -5.421880582718941923e+02
-4.785038409643682655e-01 2.604248388482027110e+00 -1.257482256171013724e+00 1.148389421368419647e+02 5.298917683816492286e+01 -5.421836633406578585e+02
-5.015310409442417239e-01 2.614761415784741416e+00 -1.263681669018294151e+00 1.162664197687262515e+02 5.110114531642676639e+01 -5.421801035547281344e+02
-5.049176611093324496e-01 2.623971097387536755e+00 -1.265580506668751326e+00 1.152198606778054142e+02 5.082963601952022259e+01 -5.421783058465038039e+02
-5.250206450328089858e-01 2.639615207101477790e+00 -1.269055337037854336e+00 1.143341048715640369e+02 5.163243665735356558e+01 -5.421694398035846234e+02
-5.285711104835630891e-01 2.638678776646032009e+00 -1.264479215181609995e+00 1.137220329888683921e+02 5.294021501501424609e+01 -5.421639066923194150e+02
-5.029509267515805959e-01 2.605377107522769631e+00 -1.256468845924522348e+00 1.156689561728773015e+02 5.185743071686937355e+01 -5.421568645231758410e+02
-5.029509267515805959e-01 2.605377107522769631e+00 -1.256468845924522348e+00 1.156689561728773015e+02 5.185743071686937355e+01 -5.421568645231758410e+02
-5.056402685231047300e-01 2.612149670255441425e+00 -1.250623416011351630e+00 1.146144015902272173e+02 5.298039795792615791e+01 -5.421166099098422819e+02
-5.346354167101301513e-01 2.638654947209491120e+00 -1.261145268468122360e+00 1.140845110202261736e+02 5.307045343099466095e+01 -5.421112064103824650e+02
-5.282626555255038880e-01 2.645965937840300430e+00 -1.277917637271499096e+00 1.155995758158472029e+02 5.248745258731526064e+01 -5.420999341615072353e+02
-5.016210579606230624e-01 2.632250414598007460e+00 -1.269337501718260874e+00 1.154233899473636171e+02 5.180936108592368328e+01 -5.420954116204269440e+02
-5.128198067871032606e-01 2.612267130242079460e+00 -1.259067392013927034e+00 1.149945454533183806e+02 5.214269425704836181e+01 -5.420954006908325482e+02
-5.155588651066400629e-01 2.617810547315926328e+00 -1.252124046219513787e+00 1.144345523512542684e+02 5.238335454978948746e+01 -5.420928601205760060e+02
-5.390853261359351833e-01 2.639015023588783038e+00 -1.265395460647249060e+00 1.152497087287476489e+02 5.149762942342269412e+01 -5.420905711093531636e+02
-5.152373632219306998e-01 2.642086621286241499e+00 -1.269527533687488052e+00 1.147949604097123455e+02 5.209867186483955948e+01 -5.420797400156031927e+02
-5.216760785667586831e-01 2.641274959522516674e+00 -1.272669621648478966e+00 1.154939428371256014e+02 5.310005991680799298e+01 -5.420768114204654466e+02
-4.980933615464646635e-01 2.619529187334368903e+00 -1.268136237512470288e+00 1.159934169313253705e+02 5.241756064546430594e+01 -5.420541328870283451e+02
-5.207380931222003184e-01 2.637133724785416078e+00 -1.274084904028184972e+00 1.152644591663897984e+02 5.287788761797281722e+01 -5.420529131786299786e+02
-5.343242164536645689e-01 2.641092800450871803e+00 -1.272275720588230463e+00 1.150091958521189071e+02 5.296605382778889748e+01 -5.420112499943004423e+02
-5.212323676309944531e-01 2.647225708783564890e+00 -1.277734488638360588e+00 1.156070662880642885e+02 5.213435437469544809e+01 -5.419577250087266975e+02
-5.165544585926662435e-01 2.628686613056871124e+00 -1.257254532602704700e+00 1.145649003942561848e+02 5.288127018570816062e+01 -5.419540979110520311e+02
-5.165544585926662435e-01 2.628686613056871124e+00 -1.257254532602704700e+00 1.145649003942561848e+02 5.288127018570816062e+01 -5.419540979110520311e+02
-5.214513228859374294e-01 2.639040896136530812e+00 -1.270010964217759053e+00 1.158108418455755668e+02 5.079194133408057610e+01 -5.419457698382850594e+02
-5.317125619693712224e-01 2.632321763924735158e+00 -1.260584884248807214e+00 1.154145075704049077e+02 5.219086034212986647e+01 -5.419036951263474293e+02
-5.082183929550661006e-01 2.632368280557105145e+00 -1.273152716405098417e+00 1.152848598510134366e+02 5.267235081638506244e+01 -5.418963778899502586e+02
-5.082183929550661006e-01 2.632368280557105145e+00 -1.273152716405098417e+00 1.152848598510134366e+02 5.267235081638506244e+01 -5.418963778899502586e+02
-5.054149008211963334e-01 2.623106618310486748e+00 -1.256968713463987974e+00 1.148552947197101020e+02 5.267565928449698731e+01 -5.418763924245504313e+02
-5.054149008211963334e-01 2.623106618310486748e+00 -1.256968713463987974e+00 1.148552947197101020e+02 5.267565928449698731e+01 -5.418763924245504313e+02
-5.019676363486675896e-01 2.615148570345918522e+00 -1.258363508879599024e+00 1.151569830235072516e+02 5.100346625275662404e+01 -5.418744432623277589e+02
-5.240421189412511893e-01 2.626688518342593870e+00 -1.262722434585454856e+00 1.160138299337404817e+02 5.176091591169799244e+01 -5.418737857789878944e+02
-5.505155731110065176e-01 2.655383921233514410e+00 -1.271999685848641981e+00 1.152684715261422639e+02 5.219709069883825237e+01 -5.418656479657919363e+02
-5.234830877519538461e-01 2.645671465005506651e+00 -1.272999068059293748e+00 1.146644402952022119e+02 5.305969813559750037e+01 -5.418270365941111777e+02
-5.212404216671266965e-01 2.635474408403764013e+00 -1.265829001766035411e+00 1.158118806352130861e+02 5.264705060168466844e+01 -5.418225581292620063e+02
-5.011469531237269237e-01 2.627743674319890754e+00 -1.269254762090172406e+00 1.159968575862168052e+02 5.206080856000232870e+01 -5.417732097938553579e+02
-5.011469531237269237e-01 2.627743674319890754e+00 -1.269254762090172406e+00 1.159968575862168052e+02 5.206080856000232870e+01 -5.417732097938553579e+02
-5.344347793869106411e-01 2.650305124540647483e+00 -1.274971637421372428e+00 1.149938050653921096e+02 5.143658253451923201e+01 -5.417401230715536258e+02
-5.160013601205548639e-01 2.641002536429728487e+00 -1.270363141276676267e+00 1.153914335155155015e+02 5.262663267322793104e+01 -5.417382295884691530e+02
-5.215427063185931189e-01 2.641932291149757805e+00 -1.268337659279314522e+00 1.155593252965379207e+02 5.167898812099141992e+01 -5.417267008946424767e+02
-5.354002117914813397e-01 2.637930194542207563e+00 -1.265641759392883259e+00 1.141960331335804426e+02 5.300090231969997490e+01 -5.417208001109621591e+02
-5.183612170796321195e-01 2.623328927579390957e+00 -1.260128308419766086e+00 1.140663801187434672e+02 5.214326784933155068e+01 -5.417126999954977009e+02
-4.864375371234341827e-01 2.605216017881680557e+00 -1.253240193130696234e+00 1.146388152425045348e+02 5.171050823906870164e+01 -5.417065686899377397e+02
-4.980604205870129420e-01 2.612872515651003980e+00 -1.265248572402497551e+00 1.159304055749914966e+02 5.202437838312431495e+01 -5.416978811427842402e+02
-5.349570791897146904e-01 2.636179820128010665e+00 -1.265544085448001788e+00 1.142870434651428582e+02 5.259947699065219240e+01 -5.416789702647282638e+02
-5.432156154997498376e-01 2.648924469939398119e+00 -1.272480192427718038e+00 1.148244552805994374e+02 5.288742248544008362e+01 -5.416494059360787787e+02
-4.950946682051320380e-01 2.606405937872983802e+00 -1.257443705044212656e+00 1.146999805948279203e+02 5.321561600726403185e+01 -5.416319959088734777e+02
-4.950946682051320380e-01 2.606405937872983802e+00 -1.257443705044212656e+00 1.146999805948279203e+02 5.321561600726403185e+01 -5.416319959088734777e+02
-5.060368067888108001e-01 2.625629162632654889e+00 -1.269815106622491641e+00 1.162130184875156260e+02 5.078003660119233587e+01 -5.416114746338431587e+02
-5.060368067888108001e-01 2.625629162632654889e+00 -1.269815106622491641e+00 1.162130184875156260e+02 5.078003660119233587e+01 -5.416114746338431587e+02
-4.923447787360224481e-01 2.617284833610419081e+00 -1.263112572101571018e+00 1.158877892816101962e+02 5.154162272748729379e+01 -5.416080302556955530e+02
-5.074490385464187625e-01 2.636014718764725373e+00 -1.271666068573759745e+00 1.152913050523560088e+02 5.245705535267353525e+01 -5.415746321986322300e+02
-5.074490385464187625e-01 2.636014718764725373e+00 -1.271666068573759745e+00 1.152913050523560088e+02 5.245705535267353525e+01 -5.415746321986322300e+02
-4.864176009497684916e-01 2.608986035289947658e+00 -1.255737041322708691e+00 1.150825408193694130e+02 5.277438283696196208e+01 -5.415742145020099088e+02
-5.124816424720890495e-01 2.624873889578324349e+00 -1.264244354128607917e+00 1.162112518459230444e+02 5.135312581840102553e+01 -5.415640537955623586e+02
-5.321983498201969809e-01 2.640363719138665743e+00 -1.266114365029823219e+00 1.157786582642960980e+02 5.197820064364341874e+01 -5.415557444398294820e+02
-5.146234052110578716e-01 2.619276501852467298e+00 -1.257844584274500299e+00 1.142861791920909553e+02 5.185513753544054794e+01 -5.415464670562093943e+02
-5.146234052110578716e-01 2.619276501852467298e+00 -1.257844584274500299e+00 1.142861791920909553e+02 5.185513753544054794e+01 -5.415464670562093943e+02
-5.165982266848807569e-01 2.642003087377957637e+00 -1.269808563460193440e+00 1.151863197271269428e+02 5.237168140453027831e+01 -5.415459365356816761e+02
-5.095369248887156033e-01 2.636878983943801824e+00 -1.269046446379702431e+00 1.149200079404209731e+02 5.263448445004212317e+01 -5.415295037317594051e+02
-5.369667796282939776e-01 2.642781480340445910e+00 -1.264313381325088415e+00 1.147455767336842740e+02 5.300227847206741671e+01 -5.415101533039929791e+02
-5.369667796282939776e-01 2.642781480340445910e+00 -1.264313381325088415e+00 1.147455767336842740e+02 5.300227847206741671e+01 -5.415101533039929791e+02
-5.148350640998167194e-01 2.637413019596498653e+00 -1.267357230539936097e+00 1.142485866382043582e+02 5.231292948595501002e+01 -5.415098492487417161e+02
-4.957198241015579043e-01 2.607809694135043266e+00 -1.260974006058575014e+00 1.153006073047579463e+02 5.147793194834832775e+01 -5.415098297934669063e+02
-4.818508177422664573e-01 2.610439795203223667e+00 -1.261791630232791839e+00 1.152626829533543003e+02 5.216378020157935680e+01 -5.415054757921976716e+02
-4.818508177422664573e-01 2.610439795203223667e+00 -1.261791630232791839e+00 1.152626829533543003e+02 5.216378020157935680e+01 -5.415054757921976716e+02
-5.091606553252274736e-01 2.623221912747463858e+00 -1.261973679007216020e+00 1.142132025388675629e+02 5.177139689086857288e+01 -5.415015272207324415e+02
-5.074582855337439469e-01 2.627376384713961510e+00 -1.267387566714914371e+00 1.142861590898341717e+02 5.285750488975219241e+01 -5.414705503540014888e+02
-5.183752808227675146e-01 2.621579487971186229e+00 -1.258094361618144141e+00 1.156111631975349212e+02 5.182588778168695853e+01 -5.414611890294256682e+02
-5.183752808227675146e-01 2.621579487971186229e+00 -1.258094361618144141e+00 1.156111631975349212e+02 5.182588778168695853e+01 -5.414611890294256682e+02
-4.843293373407817626e-01 2.608873432636779732e+00 -1.261597060079502342e+00 1.156199297319135724e+02 5.146573090702167974e+01 -5.414296301967776799e+02
-4.939465194849521623e-01 2.622164173540656229e+00 -1.264362865967282090e+00 1.148121012045011753e+02 5.190587211898835562e+01 -5.414185428927852399e+02
-4.864665369519922677e-01 2.611730797829126427e+00 -1.264281917331336658e+00 1.156129211187569865e+02 5.218233525280328422e+01 -5.413954675389683189e+02
-4.901646050002437249e-01 2.615595733862911665e+00 -1.260712449385735567e+00 1.154427782857549971e+02 5.161610309970993171e+01 -5.413880483703917434e+02
-5.363658508875790432e-01 2.646981284161447068e+00 -1.271887498729340038e+00 1.144058304855587380e+02 5.287049589315131470e+01 -5.413875183591835594e+02
-4.840732714466957631e-01 2.595496676532821123e+00 -1.249445486825446316e+00 1.148684363616228410e+02 5.258756923352859758e+01 -5.413843566744341160e+02
-4.840732714466957631e-01 2.595496676532821123e+00 -1.249445486825446316e+00 1.148684363616228410e+02 5.258756923352859758e+01 -5.413843566744341160e+02
-5.202138485679839164e-01 2.629347867967589014e+00 -1.267410096058400271e+00 1.151909174410886578e+02 5.316732159913036071e+01 -5.413762238309641361e+02
-5.155793334270653006e-01 2.632201917725895068e+00 -1.263911355874268949e+00 1.156793108277699247e+02 5.160464685570005372e+01 -5.413730001561028757e+02
-5.155793334270653006e-01 2.632201917725895068e+00 -1.263911355874268949e+00 1.156793108277699247e+02 5.160464685570005372e+01 -5.413730001561028757e+02
-5.260937433813541730e-01 2.638951633144378750e+00 -1.271754909452147864e+00 1.151704019956985121e+02 5.121738084832011850e+01 -5.413609806268943885e+02
-5.086720721687054692e-01 2.630571962318828394e+00 -1.264424906527075620e+00 1.143385389088658428e+02 5.196462183674319135e+01 -5.413565127387382745e+02
-5.159856230506818520e-01 2.627830332754198750e+00 -1.259977328964761334e+00 1.140352138581219208e+02 5.213725577281834944e+01 -5.413556753462771667e+02
-5.196940175632143166e-01 2.622954713915981895e+00 -1.259500938349528809e+00 1.152528966490465336e+02 5.137596070096705603e+01 -5.413303082096356320e+02
-5.144011149833751517e-01 2.625161456455772591e+00 -1.260717793861881653e+00 1.154847255400398325e+02 5.123391098509443964e+01 -5.413261205895698822e+02
-5.395458719175767470e-01 2.638655465626611907e+00 -1.266188130419412694e+00 1.151243998379813149e+02 5.255921428593026690e+01 -5.413156338056900267e+02
-5.395458719175767470e-01 2.638655465626611907e+00 -1.266188130419412694e+00 1.151243998379813149e+02 5.255921428593026690e+01 -5.413156338056900267e+02
-4.913239344881690229e-01 2.614687565377673106e+00 -1.264945293580795216e+00 1.159771496317853519e+02 5.166303399248241135e+01 -5.413040454624530184e+02
-4.926173901323487314e-01 2.616158702252287416e+00 -1.265851149376268303e+00 1.159619248691827096e+02 5.161098464875669833e+01 -5.412720601689037494e+02
-5.030708266804042594e-01 2.615915114813325282e+00 -1.256279964549645634e+00 1.155439836329518073e+02 5.224553766467695937e+01 -5.412410176182222585e+02
-5.226110480627195187e-01 2.642860606779039223e+00 -1.267358920566751479e+00 1.145851509414619329e+02 5.272028943708394877e+01 -5.412302706997152200e+02
-4.846930006257323953e-01 2.597975975517202052e+00 -1.251622925424209498e+00 1.150653377733904961e+02 5.178814567562329785e+01 -5.412294461277201663e+02
-5.056074659943021743e-01 2.618592411756738070e+00 -1.256247922865838973e+00 1.140392062561679012e+02 5.223790018857067707e+01 -5.412152137329037487e+02
-5.056074659943021743e-01 2.618592411756738070e+00 -1.256247922865838973e+00 1.140392062561679012e+02 5.223790018857067707e+01 -5.412152137329037487e+02
-5.209848213555270391e-01 2.628756069618916058e+00 -1.263380110968875591e+00 1.153718583246972003e+02 5.112050307866837784e+01 -5.412043913162719946e+02
-5.209848213555270391e-01 2.628756069618916058e+00 -1.263380110968875591e+00 1.153718583246972003e+02 5.112050307866837784e+01 -5.412043913162719946e+02
-5.091867729021792854e-01 2.624979641710750045e+00 -1.265149048857994174e+00 1.159501183757155474e+02 5.258464078924271234e+01 -5.412036441142258809e+02
-5.182222672185581303e-01 2.628725816454852371e+00 -1.258191195217887248e+00 1.140973199476405711e+02 5.297573295430257190e+01 -5.411818867583442625e+02
-5.278921505898175326e-01 2.634701830532724109e+00 -1.265601709838804823e+00 1.156708916535037019e+02 5.271882237756184963e+01 -5.411809691792586818e+02
-5.357231151416677051e-01 2.652776322077545323e+00 -1.271938810898610051e+00 1.149952930779295599e+02 5.246317869441162429e+01 -5.411722390777350711e+02
-5.357231151416677051e-01 2.652776322077545323e+00 -1.271938810898610051e+00 1.149952930779295599e+02 5.246317869441162429e+01 -5.411722390777350711e+02
-5.173644939749202365e-01 2.619786703058319066e+00 -1.263272847557137091e+00 1.151358451019308120e+02 5.206442898196337410e+01 -5.411635589641479100e+02
-5.126825099436889133e-01 2.635109649180177538e+00 -1.268088225145639569e+00 1.153770883303452877e+02 5.282463812417046256e+01 -5.411510846066743170e+02
-5.180076368739126025e-01 2.623891146250857176e+00 -1.263197860941328798e+00 1.160078313510678214e+02 5.158357194122015699e+01 -5.411492710871027612e+02
-5.180076368739126025e-01 2.623891146250857176e+00 -1.263197860941328798e+00 1.160078313510678214e+02 5.158357194122015699e+01 -5.411492710871027612e+02
-5.317432642709079005e-01 2.644812366662181891e+00 -1.269639911018274780e+00 1.157828699593140982e+02 5.212987653716987779e+01 -5.411456117230966356e+02
-5.151198953542444059e-01 2.626032722477674497e+00 -1.256705209898269615e+00 1.143055968873255352e+02 5.267462189977274534e+01 -5.411431196862536126e+02
-5.199911949661313315e-01 2.636076207101882396e+00 -1.267894407992205430e+00 1.144689956287822241e+02 5.169550399063228951e+01 -5.411404075693204732e+02
-5.039871987293249589e-01 2.609951436597997443e+00 -1.259550890168494419e+00 1.151423700880107788e+02 5.262639993339445255e+01 -5.411381134981236301e+02
-5.039871987293249589e-01 2.609951436597997443e+00 -1.259550890168494419e+00 1.151423700880107788e+02 5.262639993339445255e+01 -5.411381134981236301e+02
-5.451421946649697148e-01 2.654314810373984201e+00 -1.271645443526699282e+00 1.149331948636222052e+02 5.236502094590017009e+01 -5.411268183607049878e+02
-5.114005105980314880e-01 2.626435345247957631e+00 -1.262574908832025500e+00 1.145246559956923562e+02 5.150661308722183662e+01 -5.411265033443091852e+02
-5.114005105980314880e-01 2.626435345247957631e+00 -1.262574908832025500e+00 1.145246559956923562e+02 5.150661308722183662e+01 -5.411265033443091852e+02
-4.971966662890778821e-01 2.605226399217476896e+00 -1.257966036044349423e+00 1.149913724641991735e+02 5.217321870243196713e+01 -5.411084411818507078e+02
-5.014221460469698854e-01 2.623274358001984385e+00 -1.266280699468519622e+00 1.156594662185534901e+02 5.110145071247711712e+01 -5.410957268219751768e+02
-5.371435105245296882e-01 2.652571671033572276e+00 -1.275642772436162531e+00 1.157126171346221213e+02 5.213700951415265195e+01 -5.410817854933216040e+02
-4.934077997775556668e-01 2.610418458816947673e+00 -1.262481248627132402e+00 1.159726866535457219e+02 5.165295882892743862e+01 -5.410796322084581789e+02
-5.201322276006186129e-01 2.626360819289727644e+00 -1.258710922689780354e+00 1.153869500384915909e+02 5.218870139313168011e+01 -5.410788099509550193e+02
-4.898469421974782634e-01 2.608049945578513551e+00 -1.258167883809506726e+00 1.142944708273488459e+02 5.248033701492110481e+01 -5.410619805672483835e+02
-4.898469421974782634e-01 2.608049945578513551e+00 -1.258167883809506726e+00 1.142944708273488459e+02 5.248033701492110481e+01 -5.410619805672483835e+02
-5.403227617949433181e-01 2.653312431222187850e+00 -1.271812099490896131e+00 1.148561783123810613e+02 5.265604259576420532e+01 -5.410426959077624360e+02
-5.177918905595007004e-01 2.633260369141596335e+00 -1.263956859051869053e+00 1.152951966976037568e+02 5.290852222927085791e+01 -5.410022736669960750e+02
-5.017246899017422379e-01 2.607656411234723137e+00 -1.255394831475992845e+00 1.155978579845161960e+02 5.206355322691032939e+01 -5.409949954546655135e+02
-5.183328950615351260e-01 2.621841265637264495e+00 -1.261758168058861429e+00 1.144258140737837692e+02 5.244123375460969783e+01 -5.409883329989087315e+02
-5.082098457813666315e-01 2.632057368231619066e+00 -1.270618521728990480e+00 1.157202745871609579e+02 5.130781805225950620e+01 -5.409881430754749090e+02
-5.158724047280323077e-01 2.634799176236298557e+00 -1.269280706821286131e+00 1.144256981017800712e+02 5.297291465169806202e+01 -5.409834465261319565e+02
-5.311292820276491966e-01 2.632955991387714967e+00 -1.265585975914417460e+00 1.151826671589795268e+02 5.160618734271230323e+01 -5.409813754935828456e+02
-5.311292820276491966e-01 2.632955991387714967e+00 -1.265585975914417460e+00 1.151826671589795268e+02 5.160618734271230323e+01 -5.409813754935828456e+02
-4.825470789037460406e-01 2.603526949289746817e+00 -1.254617884998920019e+00 1.149457844092965502e+02 5.270230635186382528e+01 -5.409798682373805150e+02
-4.951492176316119043e-01 2.617497753268082761e+00 -1.258001929178306000e+00 1.148179553994522166e+02 5.209158693635589543e+01 -5.409715490629052965e+02
-4.951492176316119043e-01 2.617497753268082761e+00 -1.258001929178306000e+00 1.148179553994522166e+02 5.209158693635589543e+01 -5.409715490629052965e+02
-4.958200360996460887e-01 2.612747746108603053e+00 -1.255535144716327878e+00 1.153242620797271627e+02 5.217622736711041398e+01 -5.409656970418481023e+02
-4.958200360996460887e-01 2.612747746108603053e+00 -1.255535144716327878e+00 1.153242620797271627e+02 5.217622736711041398e+01 -5.409656970418481023e+02
-5.240943810530795943e-01 2.622747676479306289e+00 -1.259942210134040508e+00 1.151344444923268782e+02 5.238632598482661251e+01 -5.409279015792191103e+02
-5.263937778229408337e-01 2.637753176633411467e+00 -1.272142949932789868e+00 1.160693336122482719e+02 5.156421273692330942e+01 -5.409137730660756915e+02
-5.263937778229408337e-01 2.637753176633411467e+00 -1.272142949932789868e+00 1.160693336122482719e+02 5.156421273692330942e+01 -5.409137730660756915e+02
-5.327373509951778274e-01 2.644555022313431980e+00 -1.266432854498787286e+00 1.151136063891264882e+02 5.235571884290158096e+01 -5.409136740861952148e+02
-5.327373509951778274e-01 2.644555022313431980e+00 -1.266432854498787286e+00 1.151136063891264882e+02 5.235571884290158096e+01 -5.409136740861952148e+02
-5.004894872793226313e-01 2.627342058917792489e+00 -1.265230106118570674e+00 1.150255885633931712e+02 5.243462175972103978e+01 -5.409120397797084934e+02
-5.356136451803159559e-01 2.651856351478824703e+00 -1.276353338763122736e+00 1.151267359394012431e+02 5.195764366388769417e+01 -5.408992942270143658e+02
-5.356136451803159559e-01 2.651856351478824703e+00 -1.276353338763122736e+00 1.151267359394012431e+02 5.195764366388769417e+01 -5.408992942270143658e+02
-5.171838806797417476e-01 2.635936995272015526e+00 -1.264620655114458536e+00 1.150704168680285733e+02 5.183805299998985561e+01 -5.408937731842781886e+02
-5.171838806797417476e-01 2.635936995272015526e+00 -1.264620655114458536e+00 1.150704168680285733e+02 5.183805299998985561e+01 -5.408937731842781886e+02
-5.135938181996131391e-01 2.620901093463460452e+00 -1.256048801471225218e+00 1.146231828912144124e+02 5.313808485278519811e+01 -5.408674554588285446e+02
-4.982355607365391847e-01 2.615405860038338304e+00 -1.261330236235549407e+00 1.148715032930255546e+02 5.138798999855146121e+01 -5.408649587085750454e+02
-4.982355607365391847e-01 2.615405860038338304e+00 -1.261330236235549407e+00 1.148715032930255546e+02 5.138798999855146121e+01 -5.408649587085750454e+02
-5.117056646798499031e-01 2.625134598904756089e+00 -1.260914421266051022e+00 1.153551426917867815e+02 5.292823358133117040e+01 -5.408605996567041529e+02
-5.331043692405561529e-01 2.638659078647119571e+00 -1.269229521565424790e+00 1.146517412486003167e+02 5.261786881065984289e+01 -5.408586837041052604e+02
-5.214617477656116051e-01 2.621228361637190751e+00 -1.260695689925281471e+00 1.150265034456948143e+02 5.209124192744474158e+01 -5.408332518937982059e+02
-5.386179306954552715e-01 2.640565228327542702e+00 -1.268769033767621401e+00 1.153472553749753189e+02 5.226703199173701364e+01 -5.408331835201431659e+02
-5.091192093994267864e-01 2.629814556919312984e+00 -1.264211832064184193e+00 1.142545360926457505e+02 5.226420133394449863e+01 -5.408151124962985250e+02
-5.091192093994267864e-01 2.629814556919312984e+00 -1.264211832064184193e+00 1.142545360926457505e+02 5.226420133394449863e+01 -5.408151124962985250e+02
-4.959913961608624078e-01 2.618636013431067333e+00 -1.263841456448342448e+00 1.144733644865993654e+02 5.254181013229853647e+01 -5.408055343527986452e+02
-4.959913961608624078e-01 2.618636013431067333e+00 -1.263841456448342448e+00 1.144733644865993654e+02 5.254181013229853647e+01 -5.408055343527986452e+02
-4.988127259116161838e-01 2.611437691653508253e+00 -1.260734455535027720e+00 1.153959017372488915e+02 5.281375513317308901e+01 -5.408021848541411600e+02
-5.126720424849260382e-01 2.629155872466829358e+00 -1.262740074784916899e+00 1.151885626300449701e+02 5.142562186873058749e+01 -5.407993120533196816e+02
-5.233737752867266835e-01 2.627619334467367729e+00 -1.259667637332191781e+00 1.143668589003351030e+02 5.319919724976915631e+01 -5.407936092412472817e+02
-5.233737752867266835e-01 2.627619334467367729e+00 -1.259667637332191781e+00 1.143668589003351030e+02 5.319919724976915631e+01 -5.407936092412472817e+02
-5.024390948773547194e-01 2.617896792769607739e+00 -1.266385568335774536e+00 1.155543495420784410e+02 5.236524855361847131e+01 -5.407811460616779868e+02
-5.338760508949977890e-01 2.639817854370509309e+00 -1.265444327448857820e+00 1.144109024914424140e+02 5.305697378562027211e+01 -5.407807883098529373e+02
-5.338760508949977890e-01 2.639817854370509309e+00 -1.265444327448857820e+00 1.144109024914424140e+02 5.305697378562027211e+01 -5.407807883098529373e+02
-5.093787587248135296e-01 2.615049687239366705e+00 -1.256578798612144610e+00 1.145025841376707945e+02 5.187757605101620584e+01 -5.407800784982933919e+02
-5.282436654604270032e-01 2.635985028800549745e+00 -1.264460828686921445e+00 1.144969821854859333e+02 5.183110610564673948e+01 -5.407741474873193965e+02
-5.294538870575582479e-01 2.644910973507153873e+00 -1.269701871532912918e+00 1.145986244313128566e+02 5.304446365594790791e+01 -5.407713473945600526e+02
-5.237984165462901132e-01 2.626364167262629223e+00 -1.258424346146043149e+00 1.151003103695868361e+02 5.218834689804509708e+01 -5.407631950846298423e+02
-5.185394214555705261e-01 2.632940372858780798e+00 -1.261861894495081238e+00 1.151295663926788109e+02 5.239792011211807221e+01 -5.407599071871078422e+02
-5.185394214555705261e-01 2.632940372858780798e+00 -1.261861894495081238e+00 1.151295663926788109e+02 5.239792011211807221e+01 -5.407599071871078422e+02
-5.213540481275131810e-01 2.624002456415656326e+00 -1.258561960466855645e+00 1.145902134829023993e+02 5.311468981205490536e+01 -5.407496913557179141e+02
-5.213540481275131810e-01 2.624002456415656326e+00 -1.258561960466855645e+00 1.145902134829023993e+02 5.311468981205490536e+01 -5.407496913557179141e+02
-4.991852883431562304e-01 2.617009276299163023e+00 -1.261523363530107744e+00 1.153832122038572834e+02 5.118222480654571882e+01 -5.407459950436494864e+02
-5.090073138930462093e-01 2.623874488862353527e+00 -1.266694953798235268e+00 1.148164924298746996e+02 5.292449603450552331e+01 -5.407454108290578461e+02
-5.151031822584215547e-01 2.634544464954555298e+00 -1.270784770685912335e+00 1.147726751675244259e+02 5.282679637099616343e+01 -5.407407100823105566e+02
-5.145982576676599862e-01 2.627191497960224886e+00 -1.259726339009572982e+00 1.150889566644943329e+02 5.175729371525375200e+01 -5.407336712069129590e+02
-5.145982576676599862e-01 2.627191497960224886e+00 -1.259726339009572982e+00 1.150889566644943329e+02 5.175729371525375200e+01 -5.407336712069129590e+02
-4.950412230347893683e-01 2.607269365777890702e+00 -1.252368288710078659e+00 1.148514756568673647e+02 5.198656518017395456e+01 -5.407313327799558920e+02
-4.950412230347893683e-01 2.607269365777890702e+00 -1.252368288710078659e+00 1.148514756568673647e+02 5.198656518017395456e+01 -5.407313327799558920e+02
-5.280728678512618401e-01 2.638060512772697486e+00 -1.262567006377120826e+00 1.144299449636984605e+02 5.250233195640356598e+01 -5.407289872657445358e+02
-5.344058324287095374e-01 2.638207277759512692e+00 -1.264578225685466961e+00 1.146506047107211401e+02 5.299585955921705249e+01 -5.407185535758080732e+02
-4.994816603551335277e-01 2.623378057605279867e+00 -1.266154661010358673e+00 1.157755585629464434e+02 5.157278992386102345e+01 -5.407077798861703286e+02
-5.247297850716314827e-01 2.638833856197009275e+00 -1.265527795749608941e+00 1.141623576085965652e+02 5.286591298084823620e+01 -5.406993376618906950e+02
-5.217441252661121354e-01 2.623396843271293744e+00 -1.263509855301462537e+00 1.152760329098045275e+02 5.225831972804539305e+01 -5.406978800927550992e+02
-5.217441252661121354e-01 2.623396843271293744e+00 -1.263509855301462537e+00 1.152760329098045275e+02 5.225831972804539305e+01 -5.406978800927550992e+02
-4.963858019546396605e-01 2.613032505143478179e+00 -1.255999595931712065e+00 1.145405572893094330e+02 5.186894288591074087e+01 -5.406926540121875178e+02
-5.123446541775296126e-01 2.633114881988944944e+00 -1.265265046107965752e+00 1.144922318227034168e+02 5.202971893795020719e+01 -5.406690965549449857e+02
-4.954110659304165054e-01 2.607663838651501642e+00 -1.256351916769295585e+00 1.154963475344983976e+02 5.151595039575209967e+01 -5.406674547696021591e+02
-5.281710224957327782e-01 2.628468301037182542e+00 -1.260516253584833990e+00 1.147293521019346372e+02 5.276815413633889307e+01 -5.406574758520451951e+02
-5.389775691781295563e-01 2.643322960481857997e+00 -1.266125081308813627e+00 1.148639451300202552e+02 5.220659660309965489e+01 -5.406528135211631252e+02
-5.389775691781295563e-01 2.643322960481857997e+00 -1.266125081308813627e+00 1.148639451300202552e+02 5.220659660309965489e+01 -5.406528135211631252e+02
-4.947118096114770935e-01 2.615768788287028190e+00 -1.263307395565600011e+00 1.155492749522899629e+02 5.260458831518252509e+01 -5.406514318499282581e+02
-5.079444634152672222e-01 2.611803722105791259e+00 -1.257641897108816131e+00 1.146736222761381612e+02 5.251201808972939489e+01 -5.406489863935038329e+02
-5.205721729187464675e-01 2.632157169889105308e+00 -1.263764629126816530e+00 1.153441631147908026e+02 5.138079493059288438e+01 -5.406482943832399997e+02
-5.108144734584296742e-01 2.627754524425311544e+00 -1.266674551550870831e+00 1.147807910943105867e+02 5.151653110101784705e+01 -5.406472404821213331e+02
-5.100231527992447056e-01 2.621064562977995838e+00 -1.261959032749141230e+00 1.143630345950620040e+02 5.197939487983586559e+01 -5.406463007218005714e+02
-5.240930036541193715e-01 2.644491570378998624e+00 -1.274566569180016984e+00 1.157017395884095663e+02 5.213838965006110016e+01 -5.406456835401039598e+02
-5.321857371793505820e-01 2.648302904722902085e+00 -1.270959693611705354e+00 1.153759801962171565e+02 5.210930979070940339e+01 -5.406381238880551336e+02
-5.321857371793505820e-01 2.648302904722902085e+00 -1.270959693611705354e+00 1.153759801962171565e+02 5.210930979070940339e+01 -5.406381238880551336e+02
-5.162467490467959053e-01 2.627527043145264862e+00 -1.268419841211313681e+00 1.153189842220761392e+02 5.144385267512555515e+01 -5.406335817458339079e+02
-4.866057128141179078e-01 2.603653868551789596e+00 -1.255276802504858402e+00 1.154480991825845564e+02 5.200202171710799348e+01 -5.406049984366123908e+02
-4.952336803728130121e-01 2.617520950835484861e+00 -1.265993153898327783e+00 1.150709580368008034e+02 5.221144335249059054e+01 -5.405940576830431610e+02
-4.952336803728130121e-01 2.617520950835484861e+00 -1.265993153898327783e+00 1.150709580368008034e+02 5.221144335249059054e+01 -5.405940576830431610e+02
-4.978519535271779262e-01 2.608156287343660562e+00 -1.254915952748237196e+00 1.146329475285310338e+02 5.182466394893401684e+01 -5.405820072957949378e+02
-5.139884539282917331e-01 2.623169116499977527e+00 -1.266526494850056750e+00 1.155850514191299396e+02 5.149505246447330364e+01 -5.405787169313531422e+02
-5.083684858700205922e-01 2.618572489418920846e+00 -1.256367790280485508e+00 1.148580930928546593e+02 5.175919890064963624e+01 -5.405708138923337174e+02
-5.215420962830457086e-01 2.625314743195341638e+00 -1.260220949727122175e+00 1.142444523920364645e+02 5.252224298893509058e+01 -5.405655772194098745e+02
-5.261561704246080495e-01 2.638545414213842033e+00 -1.264287141957586513e+00 1.145750595814930506e+02 5.300191024896116687e+01 -5.405516469796262982e+02
-5.266260520237224796e-01 2.627909258950851701e+00 -1.259584078999462342e+00 1.150100973107000328e+02 5.234251035884651060e+01 -5.405443400589712155e+02
-4.899229030827516596e-01 2.602041595871624757e+00 -1.253355811524921926e+00 1.148625367224781826e+02 5.194360974682456344e+01 -5.405297802181738689e+02
-5.367800523451684569e-01 2.649427487484001364e+00 -1.273835898827188728e+00 1.153462782963113966e+02 5.169607314572439805e+01 -5.405143573791574454e+02
-4.980443328481403142e-01 2.612328866101389035e+00 -1.257148804146146936e+00 1.149486210205619301e+02 5.150196511151733603e+01 -5.405086606032408554e+02
-4.980443328481403142e-01 2.612328866101389035e+00 -1.257148804146146936e+00 1.149486210205619301e+02 5.150196511151733603e+01 -5.405086606032408554e+02
-5.116904010939693492e-01 2.634671704342778753e+00 -1.272285591171591790e+00 1.151905309268458808e+02 5.188554694998757100e+01 -5.405083059537855661e+02
-5.364608965679877883e-01 2.647332051408179510e+00 -1.272483640596237642e+00 1.147641427596408761e+02 5.255387766478972367e+01 -5.405002802410167533e+02
-4.988016084127657734e-01 2.621414015023449284e+00 -1.263142865165853834e+00 1.148716458724824463e+02 5.295644249738339226e+01 -5.404970381176466390e+02
-5.102736638519207446e-01 2.614860578659168322e+00 -1.255636355836077023e+00 1.150815059762726094e+02 5.273119172754778106e+01 -5.404946440712983531e+02
-5.102736638519207446e-01 2.614860578659168322e+00 -1.255636355836077023e+00 1.150815059762726094e+02 5.273119172754778106e+01 -5.404946440712983531e+02
-5.346768318727672664e-01 2.639826776814674592e+00 -1.266079692552750657e+00 1.152353139986306445e+02 5.179428434402669268e+01 -5.404910732018523731e+02
-4.984519561225830842e-01 2.621006685290893312e+00 -1.265821542663299937e+00 1.152906001412986541e+02 5.269378569805456891e+01 -5.404879750412890189e+02
-5.184343102605470932e-01 2.630050163393785390e+00 -1.261726684337891591e+00 1.148872030718057005e+02 5.312656980241052906e+01 -5.404796718179978825e+02
-4.881294270488734099e-01 2.610146513015542347e+00 -1.257983662198140173e+00 1.152452428355296092e+02 5.238579210006778908e+01 -5.404738722104474391e+02
-5.389798600486264135e-01 2.648174334981174827e+00 -1.272488961276225794e+00 1.155405882517890461e+02 5.195367605853940063e+01 -5.404725986777012849e+02
-5.210878503001765694e-01 2.635542421560084225e+00 -1.263773863745222492e+00 1.147281042695115190e+02 5.187153220146686294e+01 -5.404636052998405376e+02
-4.989204718928323956e-01 2.617541739654491995e+00 -1.258135920742895486e+00 1.152490902805113677e+02 5.230773938860858152e+01 -5.404522467178613852e+02
-5.385312170556932898e-01 2.650569926835821821e+00 -1.271413298278623927e+00 1.151088705175897502e+02 5.239716185638482671e+01 -5.404499524203181409e+02
-5.191951137267487582e-01 2.630555097961321476e+00 -1.269575649169984111e+00 1.159745817444015330e+02 5.175076620813180739e+01 -5.404485388850196159e+02
-5.235733687852075491e-01 2.634432893733422265e+00 -1.261553231791751273e+00 1.147995254190182663e+02 5.233082733707524881e+01 -5.404229015895468820e+02
-4.963886305109905805e-01 2.609488241981522627e+00 -1.258085173107460264e+00 1.150118385599432713e+02 5.297437230131194497e+01 -5.404177326983651710e+02
-4.986975734760017431e-01 2.617907819859333074e+00 -1.264275365307687693e+00 1.148424475681735828e+02 5.278358839205350250e+01 -5.403869119268662189e+02
-5.285182175828451179e-01 2.645215826408823023e+00 -1.273778819311557342e+00 1.148992361694481872e+02 5.216413379005609841e+01 -5.403726828937495839e+02
-5.052506827490859109e-01 2.621470085356491619e+00 -1.263503772834920547e+00 1.159199412438938168e+02 5.157838308660134885e+01 -5.403674109079920527e+02
-5.138477528891600699e-01 2.625491522760690977e+00 -1.267348286296470228e+00 1.159791070110473754e+02 5.172092714150358006e+01 -5.403652613085888561e+02
-5.109537986480248151e-01 2.630995340840053043e+00 -1.267898283218221067e+00 1.147832356123722377e+02 5.170755671017502664e+01 -5.403542275848881218e+02
-5.240828643414685573e-01 2.639489051326098679e+00 -1.269494544880851450e+00 1.145164232287857118e+02 5.208708444725121467e+01 -5.403529310308260847e+02
-5.092878547555947932e-01 2.626927403882291845e+00 -1.265616564066066374e+00 1.154409735178308836e+02 5.122391720741455856e+01 -5.403506955602042581e+02
-5.073939728133360916e-01 2.621544594793607352e+00 -1.265830369392038079e+00 1.158589674460027226e+02 5.228044569972624345e+01 -5.403464577970332812e+02
-4.930833131693610483e-01 2.612083419410753393e+00 -1.258073049116812392e+00 1.152104289347411594e+02 5.271052695068573257e+01 -5.403383769929062055e+02
-5.189333162368541252e-01 2.639471236307874946e+00 -1.268475248775727593e+00 1.147153164272893520e+02 5.206837068781325684e+01 -5.403306035080951233e+02
-5.307406002576904314e-01 2.643574773807355616e+00 -1.274022541147092902e+00 1.156679909193241258e+02 5.203139345055708986e+01 -5.403302710995934603e+02
-5.039380924162450981e-01 2.620870517164377134e+00 -1.260690653142230389e+00 1.144861128246141959e+02 5.184527380125581431e+01 -5.403234354409300977e+02
-5.218756394389121311e-01 2.625927044737540239e+00 -1.260007868164595202e+00 1.151796213452159208e+02 5.182096047388446891e+01 -5.403200554010593351e+02
-5.076706731016997765e-01 2.614353939316629294e+00 -1.255825312104022373e+00 1.150379480634391456e+02 5.282030055241267519e+01 -5.403006415380059480e+02
-5.166674580675767459e-01 2.625798215264911750e+00 -1.261256065840363760e+00 1.153806619302920353e+02 5.150942042691093548e+01 -5.402909081613677245e+02
-5.147909741051615029e-01 2.623319761134866202e+00 -1.263053622467399606e+00 1.146381454853318189e+02 5.305023136447098864e+01 -5.402890779186903956e+02
-4.979972612128111820e-01 2.621129293161778229e+00 -1.261601071826389919e+00 1.151199576364207360e+02 5.240409911255861175e+01 -5.402790553251235224e+02
-5.308311893000805526e-01 2.638032369036871660e+00 -1.265003089002844305e+00 1.150213424878475763e+02 5.284536138193146826e+01 -5.402763441550944208e+02
-5.168998046834030191e-01 2.626264404425232346e+00 -1.264740772438638139e+00 1.150062352399330052e+02 5.305722341243864548e+01 -5.402639122530213172e+02
-5.002848975448230817e-01 2.620416881786125529e+00 -1.263888180138170725e+00 1.145940008908660133e+02 5.282336510723911260e+01 -5.402585927319667007e+02
-5.069842481083366437e-01 2.628096685258526133e+00 -1.268883251034611526e+00 1.154343330315281690e+02 5.257139641633185079e+01 -5.402582565930349574e+02
-5.274312224107262637e-01 2.640058360535395998e+00 -1.271285292420656354e+00 1.158083093888009074e+02 5.154638696272002107e+01 -5.402576006238589343e+02
-5.055372394123551771e-01 2.623245424952454830e+00 -1.266987228165447732e+00 1.149063498674383368e+02 5.189905388100893902e+01 -5.402521050112463854e+02
-5.353051329366298461e-01 2.644479246710276232e+00 -1.268804137939196330e+00 1.150849965818788405e+02 5.181458997813075484e+01 -5.402427496517486816e+02
-4.962959038198189177e-01 2.607091187666215948e+00 -1.255660845284730875e+00 1.146144441532823066e+02 5.284014182475607413e+01 -5.402396814898837647e+02
-5.252224510507321753e-01 2.641100248415389817e+00 -1.272143062048963102e+00 1.153664234150855492e+02 5.146725191371788810e+01 -5.402341649349662021e+02
-4.975867424712188125e-01 2.619276066460180630e+00 -1.260482666755943448e+00 1.145420746244812449e+02 5.221102109540723291e+01 -5.402283458496885942e+02
-5.249373692395034041e-01 2.635378209107882341e+00 -1.267248560202475893e+00 1.146709418122231909e+02 5.180270026020119190e+01 -5.402167125736388016e+02
-5.136127703001776013e-01 2.625052313948958549e+00 -1.264477707058963674e+00 1.157787488956953865e+02 5.137169063838751981e+01 -5.402120652605666464e+02
-5.028977663327758307e-01 2.621840973513454465e+00 -1.262664679190155681e+00 1.152249680656354514e+02 5.289425991915567238e+01 -5.402114849231961671e+02
-5.158312015199033596e-01 2.637192319936171536e+00 -1.270682073162706871e+00 1.155995126966993496e+02 5.163960212879879919e+01 -5.402103981285935106e+02
-5.138500581374305654e-01 2.619645454475686641e+00 -1.260307021004979156e+00 1.151958082052370429e+02 5.284466701405915501e+01 -5.402066948260982144e+02
-5.116567615760150289e-01 2.634763991287098595e+00 -1.267821057239386207e+00 1.148441361518623580e+02 5.210979804968471285e+01 -5.401997605284886959e+02
-5.266176027658993064e-01 2.640579237058237716e+00 -1.268600033911035929e+00 1.149685717658284432e+02 5.161729148974737313e+01 -5.401901344150228397e+02
-5.018760888688920119e-01 2.626126728483784589e+00 -1.265366323213867439e+00 1.149442549668218447e+02 5.193812958295492876e+01 -5.401879293489048450e+02
-5.214649762760252827e-01 2.623355510339503205e+00 -1.261913211116064915e+00 1.150576461146381178e+02 5.230419874845696881e+01 -5.401828180016343595e+02
-5.121537522428578626e-01 2.625721652945922191e+00 -1.263927720642538333e+00 1.152603786944393960e+02 5.301601583565164333e+01 -5.401794438054588454e+02
-5.197722016951864532e-01 2.633290746059691934e+00 -1.263374742988757404e+00 1.151894024870768618e+02 5.263348165108848775e+01 -5.401620688659078269e+02
-5.186991215445342363e-01 2.628320985206501259e+00 -1.260226168776586775e+00 1.145853773833314762e+02 5.306326592168898060e+01 -5.401594003258356906e+02
-4.972569876498553754e-01 2.608595462560771239e+00 -1.257815603383219738e+00 1.146348080429172711e+02 5.240937171712440090e+01 -5.401586768505246710e+02
-5.355683810566658209e-01 2.648183093433653656e+00 -1.272749915129872456e+00 1.153183502581529183e+02 5.238189400426961129e+01 -5.401582613410587328e+02
-5.036777884403349503e-01 2.624367369837263819e+00 -1.265148007605269243e+00 1.152287409964856408e+02 5.144509550594273151e+01 -5.401445009041760841e+02
-5.178912390961105672e-01 2.627522939937078306e+00 -1.265685974932925895e+00 1.156184716528092054e+02 5.135915024669455420e+01 -5.401420472716818040e+02
-5.087788825358003919e-01 2.621382380206157769e+00 -1.266398693108506279e+00 1.152984467402642679e+02 5.179426363538297551e+01 -5.401366101812724310e+02
-5.076807519165669191e-01 2.623892420273766568e+00 -1.268024723906546747e+00 1.151758127629667428e+02 5.195330030826812617e+01 -5.401251854023151964e+02
-5.212112613973758357e-01 2.640551693607186223e+00 -1.270874082404584549e+00 1.153580618115119023e+02 5.161303176180811647e+01 -5.401144450213212167e+02
-5.275553546232467639e-01 2.633945713900711194e+00 -1.265650272019210654e+00 1.156242599656925307e+02 5.192227939937774295e+01 -5.400897724152798673e+02
-5.060818941064608723e-01 2.619598291996305228e+00 -1.257182575030930671e+00 1.144794428783829829e+02 5.217880223585154909e+01 -5.400880997507257462e+02
-5.308419126476362493e-01 2.636931679913482540e+00 -1.268658080325214321e+00 1.152854229713600347e+02 5.251478179284575276e+01 -5.400819846574955818e+02
-5.162771096704883433e-01 2.622701659972841881e+00 -1.264145034660552724e+00 1.149517785686892353e+02 5.212372289987655449e+01 -5.400764785700567927e+02
-4.906385502046077818e-01 2.606059595403231732e+00 -1.256179945694289479e+00 1.153028059061128374e+02 5.234865665301035165e+01 -5.400651060259410770e+02
-5.218608788856879954e-01 2.637694214600513565e+00 -1.269044558094507558e+00 1.156822048192378674e+02 5.229973996541832548e+01 -5.400433995077279405e+02
-4.888666440822326820e-01 2.610012806251742479e+00 -1.260106828990009475e+00 1.150932508901956624e+02 5.198156563085996140e+01 -5.400406696938672440e+02
-5.182041884223123063e-01 2.624074778860761459e+00 -1.260331056619855339e+00 1.150131823823202666e+02 5.170644101806107074e+01 -5.400335537011184215e+02
-5.059363673963304109e-01 2.616350251034505359e+00 -1.262062451079522418e+00 1.156489576007916185e+02 5.230337905921066977e+01 -5.400318451421622967e+02
-5.174499303079791446e-01 2.630227496827546751e+00 -1.262865397258060796e+00 1.144376097625311814e+02 5.312093123716368837e+01 -5.400305870928079912e+02
-5.260006409442272712e-01 2.633225639290615483e+00 -1.267725274035155891e+00 1.156211550679307578e+02 5.230135129912505931e+01 -5.400260927831054687e+02
-5.059155881024102186e-01 2.623026998356589257e+00 -1.262682124630706504e+00 1.143018665434008057e+02 5.273114707621274988e+01 -5.400170823759315226e+02
-5.092617691233884969e-01 2.627666342154056700e+00 -1.266275211700068404e+00 1.149429169549787844e+02 5.157426885779949544e+01 -5.400158763066981464e+02
-5.150233535004034024e-01 2.637270683602290777e+00 -1.269103935810315775e+00 1.152091964936705750e+02 5.221342962700271073e+01 -5.399963937632674060e+02
-4.968328887467023947e-01 2.609852943716139073e+00 -1.258500467492764230e+00 1.154159627996055093e+02 5.247986342579287111e+01 -5.399930380747533718e+02
-5.103107406367461962e-01 2.630279583889275408e+00 -1.266400815710516881e+00 1.155833189040928062e+02 5.227389053808482799e+01 -5.399906450824976218e+02
-5.079552459373974926e-01 2.623427407848752946e+00 -1.261350923092785514e+00 1.142411062257881582e+02 5.242513712598565689e+01 -5.399851673482048682e+02
-5.147147236122737723e-01 2.625755558051648286e+00 -1.264425192102084594e+00 1.145023233066399229e+02 5.218608285648875267e+01 -5.399780320089440693e+02
-5.194930178712793278e-01 2.628365712594052273e+00 -1.262070532495394914e+00 1.150397094906757758e+02 5.296731535977843919e+01 -5.399772198782568466e+02
-5.229995411686818585e-01 2.639556393904197051e+00 -1.270245072547814935e+00 1.157021362089848679e+02 5.179893697698540223e+01 -5.399708774188347888e+02
-5.054478361537295683e-01 2.622108843279666868e+00 -1.263465904934083284e+00 1.154613768774651703e+02 5.270946506337136839e+01 -5.399701000957622909e+02
-4.986452282739506359e-01 2.617475927786937273e+00 -1.262830586930340004e+00 1.155036936501349345e+02 5.250006081151286708e+01 -5.399511726622225751e+02
-5.031935453699567518e-01 2.612394638461069896e+00 -1.257337911583792156e+00 1.149295294614734928e+02 5.176577032894599029e+01 -5.399494505278242968e+02
-4.985726606766123226e-01 2.614507764530971112e+00 -1.261672881048513162e+00 1.146843858339797038e+02 5.253885798956076769e+01 -5.399455380968264535e+02
-4.941951422982295838e-01 2.609759916379529532e+00 -1.255022258167679539e+00 1.149474913057411385e+02 5.244100373966412576e+01 -5.399450338581625601e+02
-5.044358119366059157e-01 2.619057087061042566e+00 -1.261186372746431417e+00 1.149065419864770945e+02 5.155845189772341541e+01 -5.399436107660247899e+02
-5.082085624631424992e-01 2.626819485340562643e+00 -1.266299618262745952e+00 1.146071564262990421e+02 5.216238733277262440e+01 -5.399394760148015848e+02
-5.044112342761959411e-01 2.619029044586651089e+00 -1.263554264763252277e+00 1.154938453830011298e+02 5.140814592541732964e+01 -5.399267155458961724e+02
-5.106620373368926380e-01 2.632247541333166296e+00 -1.268407890820292927e+00 1.155820463718967517e+02 5.186658256501493724e+01 -5.399219426422170045e+02
-5.089428944341802818e-01 2.623340995893774785e+00 -1.259186493761393244e+00 1.147920296292704450e+02 5.198368828005237674e+01 -5.399082945938996545e+02
-4.922132514987431762e-01 2.612034010104383075e+00 -1.259336447982783547e+00 1.153230300806023365e+02 5.186386298911489234e+01 -5.399076806130597106e+02
-5.088518404157218455e-01 2.616458853375546845e+00 -1.257852704876977867e+00 1.144775303710204071e+02 5.289520506033346692e+01 -5.399068085096436107e+02
-4.939691291840002663e-01 2.607164773064418295e+00 -1.257023184941403748e+00 1.148433345512084998e+02 5.260398686977305260e+01 -5.399032740660915124e+02
-5.088936825036505240e-01 2.625849449908017164e+00 -1.261900187736228141e+00 1.150636003754908074e+02 5.279336209636215926e+01 -5.399027067493291270e+02
-4.889090478463664624e-01 2.606068973416153511e+00 -1.256774751318578076e+00 1.148689920084789264e+02 5.236557909769194907e+01 -5.399010731090622812e+02
-5.030775721060223304e-01 2.618164266065201140e+00 -1.257935795191777117e+00 1.150895490519708773e+02 5.257419094263201487e+01 -5.398905863457828218e+02
-5.172647282722344642e-01 2.634203194806024051e+00 -1.265585167348207918e+00 1.151540830696549307e+02 5.254783841814412426e+01 -5.396736399125206844e+02
-5.208984286839584144e-01 2.629817751887530086e+00 -1.260967281546792051e+00 1.145812911670970777e+02 5.231599901193303026e+01 -5.396810453096389892e+02
-4.965004345011170273e-01 2.608998936363122745e+00 -1.258099849455085462e+00 1.151407239491326351e+02 5.182135329496495046e+01 -5.398295927783771049e+02
-5.116985249480414666e-01 2.627066056966772756e+00 -1.264183294072321218e+00 1.147957691364978814e+02 5.245253250881796703e+01 -5.389425093851961037e+02
-5.116985249480414666e-01 2.627066056966772756e+00 -1.264183294072321218e+00 1.147957691364978814e+02 5.245253250881796703e+01 -5.389425093851961037e+02
-5.194050811628461162e-01 2.634225558006589196e+00 -1.267739346445758919e+00 1.151993427670773968e+02 5.227426205153247452e+01 -5.389881711427251503e+02
-5.194050811628461162e-01 2.634225558006589196e+00 -1.267739346445758919e+00 1.151993427670773968e+02 5.227426205153247452e+01 -5.389881711427251503e+02
-5.038155313816314873e-01 2.616709692755952332e+00 -1.259733685845093376e+00 1.147399124121903640e+02 5.298831868530427869e+01 -5.397287402077593015e+02
-5.156991823043401979e-01 2.632429086985478950e+00 -1.268106985322773106e+00 1.153472912882644152e+02 5.197673129096418165e+01 -5.390993544202916610e+02
-5.156991823043401979e-01 2.632429086985478950e+00 -1.268106985322773106e+00 1.153472912882644152e+02 5.197673129096418165e+01 -5.390993544202916610e+02
-5.060144675144311321e-01 2.622063896303210129e+00 -1.263716581258953475e+00 1.148784157431520896e+02 5.193499368852656062e+01 -5.392983158492122584e+02
-5.141005012996835433e-01 2.619676669866560559e+00 -1.260030663228853598e+00 1.148713977695695405e+02 5.259908884033154663e+01 -5.395776842765679930e+02
-5.131996946962118500e-01 2.627808789700751380e+00 -1.262417243263968203e+00 1.144911961015140065e+02 5.292312563923258040e+01 -5.396378045396556900e+02
-5.248382476098267801e-01 2.628417666922397533e+00 -1.261966697287495442e+00 1.146538313973801309e+02 5.236271738677359622e+01 -5.398725511220721955e+02
-5.171340678964666537e-01 2.633572642096521310e+00 -1.267923187961383924e+00 1.151794412537156660e+02 5.264224792342375281e+01 -5.394149383604773220e+02
-5.169154598417566859e-01 2.620665228930310509e+00 -1.258570145903735948e+00 1.149331956214959121e+02 5.236067574390733625e+01 -5.397407003328261226e+02
-5.111029539470308691e-01 2.626340088425799024e+00 -1.266199239265085374e+00 1.149560551415546854e+02 5.249266389783795717e+01 -5.392409525069724623e+02
-5.142789535675760249e-01 2.625803508398631969e+00 -1.262648249952501800e+00 1.152772507570239355e+02 5.252253729392310788e+01 -5.392306098609341234e+02
-5.142789535675760249e-01 2.625803508398631969e+00 -1.262648249952501800e+00 1.152772507570239355e+02 5.252253729392310788e+01 -5.392306098609341234e+02
-5.174745659647594920e-01 2.629486752390859827e+00 -1.265402652739626710e+00 1.152938618504409050e+02 5.189625435442334833e+01 -5.389919505619527627e+02
-5.174745659647594920e-01 2.629486752390859827e+00 -1.265402652739626710e+00 1.152938618504409050e+02 5.189625435442334833e+01 -5.389919505619527627e+02
-5.123152598339277830e-01 2.623715839921978876e+00 -1.263822917043794902e+00 1.151649031470284257e+02 5.147867518867511194e+01 -5.398012997747187001e+02
-5.020862682775728558e-01 2.620642084178565590e+00 -1.261303765878372118e+00 1.150283793797404428e+02 5.215955640976963537e+01 -5.392513299713514243e+02
-5.166656328488361538e-01 2.628534600514136343e+00 -1.261606870964369520e+00 1.148344113406971445e+02 5.285675286711028775e+01 -5.396268267531449965e+02
-5.046457488225710719e-01 2.618367080966278682e+00 -1.259960998963035372e+00 1.145684239289818720e+02 5.284641203753096761e+01 -5.394737407479767626e+02
-4.941063361670776644e-01 2.610228416996466461e+00 -1.256624289561254493e+00 1.147613621021754824e+02 5.251152328593028074e+01 -5.395897345898972617e+02
-5.270360645299749791e-01 2.640921278725811394e+00 -1.272234237220536635e+00 1.156382351538881181e+02 5.191856657318191992e+01 -5.398371750488116732e+02
-5.051747976526490547e-01 2.621872031193515085e+00 -1.263429551600673051e+00 1.152984772116403747e+02 5.252695251973761970e+01 -5.392930652931532904e+02
-5.082521545486624603e-01 2.622947894425177395e+00 -1.264346461140216427e+00 1.152355366583723395e+02 5.142747588694044225e+01 -5.398137671303002207e+02
-5.117975102823599798e-01 2.627039895975355144e+00 -1.264895787261162141e+00 1.150173566123018531e+02 5.212428972835510876e+01 -5.388400664389806707e+02
-5.117975102823599798e-01 2.627039895975355144e+00 -1.264895787261162141e+00 1.150173566123018531e+02 5.212428972835510876e+01 -5.388400664389806707e+02
-5.156755668518986369e-01 2.631096759972479049e+00 -1.265141721506262584e+00 1.151213611520581992e+02 5.251153624926280372e+01 -5.391306896459860809e+02
-5.156755668518986369e-01 2.631096759972479049e+00 -1.265141721506262584e+00 1.151213611520581992e+02 5.251153624926280372e+01 -5.391306896459860809e+02
-5.073935274453029720e-01 2.625215446628535787e+00 -1.265139062348462851e+00 1.151375716094918715e+02 5.249475727003508041e+01 -5.391490159513800791e+02
-5.073935274453029720e-01 2.625215446628535787e+00 -1.265139062348462851e+00 1.151375716094918715e+02 5.249475727003508041e+01 -5.391490159513800791e+02
-5.165026245183685916e-01 2.627604952021605822e+00 -1.265592294455706757e+00 1.157263796413268437e+02 5.204607505811455326e+01 -5.395821635472148046e+02
-5.078907747096481629e-01 2.627665803642469378e+00 -1.265809482596004898e+00 1.145954704177027850e+02 5.230782904496246033e+01 -5.397557449272557051e+02
-4.982782281293580695e-01 2.613051681669174009e+00 -1.257886174411456892e+00 1.145101234487309512e+02 5.235352019600983908e+01 -5.396344113382440355e+02
-4.963379708140625013e-01 2.610902739358547997e+00 -1.257887578277424367e+00 1.147842547171452452e+02 5.278181079021084088e+01 -5.397201876542867467e+02
-4.985259849578556057e-01 2.616703607888327898e+00 -1.261406031631590707e+00 1.154464000365792629e+02 5.187432761084431831e+01 -5.395262738062740482e+02
-5.199991208489986860e-01 2.635460877652210598e+00 -1.268857421158200438e+00 1.146963569493914292e+02 5.265312744296946335e+01 -5.397181153842219601e+02
-5.062023209311767857e-01 2.623063453231436082e+00 -1.266106152264370621e+00 1.155094245157311121e+02 5.205066685965667261e+01 -5.393518938664084317e+02
-5.062023209311767857e-01 2.623063453231436082e+00 -1.266106152264370621e+00 1.155094245157311121e+02 5.205066685965667261e+01 -5.393518938664084317e+02
-5.329116920385512657e-01 2.642984630721998407e+00 -1.269423697263618145e+00 1.150521678138622832e+02 5.248398612595710233e+01 -5.396677992399969526e+02
-5.039008682241306047e-01 2.621080031450645720e+00 -1.264818383467923191e+00 1.152703603929457046e+02 5.225537371564871592e+01 -5.392220437037423153e+02
-5.039008682241306047e-01 2.621080031450645720e+00 -1.264818383467923191e+00 1.152703603929457046e+02 5.225537371564871592e+01 -5.392220437037423153e+02
-5.199926875087159672e-01 2.631753962195877872e+00 -1.267531900621369445e+00 1.146879498355701372e+02 5.208025115314998743e+01 -5.398838881379624581e+02
-5.194455207376238448e-01 2.628919845374830810e+00 -1.263224497899919641e+00 1.148915461470788415e+02 5.214818693428776442e+01 -5.390281257150643341e+02
-5.194455207376238448e-01 2.628919845374830810e+00 -1.263224497899919641e+00 1.148915461470788415e+02 5.214818693428776442e+01 -5.390281257150643341e+02
-5.197053348326994282e-01 2.629853570343268387e+00 -1.263846609162174950e+00 1.154433091846630504e+02 5.249808064815167086e+01 -5.396818814102582564e+02
-4.979680569905209353e-01 2.610352484980000831e+00 -1.256805095381015924e+00 1.152080743995716716e+02 5.217190835400356264e+01 -5.395321843539833253e+02
-5.190509907857627780e-01 2.632610720963817208e+00 -1.262989997483325411e+00 1.146340116641665787e+02 5.217963373157419937e+01 -5.397102632834989890e+02
-5.203174294824624013e-01 2.639978236865119676e+00 -1.270774737844820201e+00 1.151129010025639872e+02 5.217719551294663916e+01 -5.396530296624302991e+02
-5.082421589596917144e-01 2.613951591366972860e+00 -1.257718414449215061e+00 1.151651428029481821e+02 5.239143637112985630e+01 -5.398009106525751122e+02
-5.110697593188282539e-01 2.621851197411250389e+00 -1.259421847811141859e+00 1.143994499873176522e+02 5.301032794081359611e+01 -5.397897122105732706e+02
-5.196437587707514183e-01 2.625791233894100074e+00 -1.263706021483684161e+00 1.151900830136222567e+02 5.199404806084825736e+01 -5.394550200003812961e+02
-5.127660544318475289e-01 2.620225607371932774e+00 -1.262354648936818258e+00 1.153890221452856224e+02 5.207692446806956355e+01 -5.395009981928550360e+02
-5.073494726586513792e-01 2.618686290701759400e+00 -1.261775892339949579e+00 1.155666472921944461e+02 5.245005390554874225e+01 -5.397672519214964950e+02
-5.110443629121412812e-01 2.622578388371060054e+00 -1.262420945337442646e+00 1.151889262205484386e+02 5.199602615165309771e+01 -5.389132390618888167e+02
-5.110443629121412812e-01 2.622578388371060054e+00 -1.262420945337442646e+00 1.151889262205484386e+02 5.199602615165309771e+01 -5.389132390618888167e+02
-5.179440844004128408e-01 2.631468197877296245e+00 -1.268223090336265457e+00 1.157789234608490574e+02 5.226496039343473399e+01 -5.398753360629186773e+02
-5.259079553274741414e-01 2.638146726971804412e+00 -1.269040216014594158e+00 1.154265696467182636e+02 5.234413603505475976e+01 -5.394501831601223785e+02
-5.167450957254153820e-01 2.629185776967515320e+00 -1.267582330645061539e+00 1.151488102199525514e+02 5.169927731006370664e+01 -5.396504468759333122e+02
-5.305952965383351483e-01 2.638206035232296465e+00 -1.268765376380051713e+00 1.155388713843651800e+02 5.217034128262167769e+01 -5.398573432174426898e+02
-4.976057905308408635e-01 2.612640563167222929e+00 -1.258256764836133357e+00 1.147299847129246757e+02 5.225695467933027771e+01 -5.393779616773674661e+02
-4.976057905308408635e-01 2.612640563167222929e+00 -1.258256764836133357e+00 1.147299847129246757e+02 5.225695467933027771e+01 -5.393779616773674661e+02
-5.164389867225747111e-01 2.629346837626561406e+00 -1.264965712574875667e+00 1.151366542778740580e+02 5.206664889164704846e+01 -5.388327534148195355e+02
-5.164389867225747111e-01 2.629346837626561406e+00 -1.264965712574875667e+00 1.151366542778740580e+02 5.206664889164704846e+01 -5.388327534148195355e+02
-5.249203373583135601e-01 2.635455933777091531e+00 -1.266987876772164512e+00 1.154367263959940857e+02 5.187707792582324373e+01 -5.394037797302144099e+02
-5.107214022350783367e-01 2.628199812090079579e+00 -1.264841973727881097e+00 1.151732777867696740e+02 5.249728099362337730e+01 -5.391992619381451277e+02
-5.107214022350783367e-01 2.628199812090079579e+00 -1.264841973727881097e+00 1.151732777867696740e+02 5.249728099362337730e+01 -5.391992619381451277e+02
-5.246652496010302258e-01 2.635171823405590086e+00 -1.265357617088460174e+00 1.152459545352782300e+02 5.196975486949730794e+01 -5.394312768985564617e+02
-5.217549077901164623e-01 2.630420463253730468e+00 -1.264206594451707133e+00 1.148369033868193867e+02 5.261237947883515176e+01 -5.391741769575112357e+02
-5.089907554971224712e-01 2.623813166346464332e+00 -1.264844509764402325e+00 1.157526305895020187e+02 5.189249166128311685e+01 -5.395691765735608669e+02
-5.051312248035735308e-01 2.615513905128324712e+00 -1.258481768251832555e+00 1.149753035658485629e+02 5.202515261074560726e+01 -5.392535051546100249e+02
-5.051312248035735308e-01 2.615513905128324712e+00 -1.258481768251832555e+00 1.149753035658485629e+02 5.202515261074560726e+01 -5.392535051546100249e+02
-4.948821879629425879e-01 2.607984938226684868e+00 -1.255999688602295272e+00 1.150040266988292785e+02 5.215616526344649628e+01 -5.396026120581177565e+02
-5.025242344957270291e-01 2.617921295453660147e+00 -1.262850201259647420e+00 1.156006831218944910e+02 5.194993495946494022e+01 -5.394542965284267666e+02
-5.072257994267364012e-01 2.626367838449639169e+00 -1.263748250353772029e+00 1.147757578605321811e+02 5.181781885749444427e+01 -5.398465565249027804e+02
-5.094083879729565112e-01 2.625800191725229826e+00 -1.264770692541867803e+00 1.154874277233103328e+02 5.140531705673393503e+01 -5.398564089376670836e+02
-5.039627724580677537e-01 2.611939893678240310e+00 -1.257913017171802039e+00 1.148215884119635462e+02 5.221957768988914950e+01 -5.397287678661849668e+02
-5.072974416135735964e-01 2.620542481452433403e+00 -1.257580953018975656e+00 1.148333799207518382e+02 5.214889668000176925e+01 -5.398722110012952271e+02
-5.247210098040273607e-01 2.632776005744115189e+00 -1.265831690768955298e+00 1.148006921921054158e+02 5.274565092973170977e+01 -5.395727389363777320e+02
-5.252671389159013771e-01 2.636550397910329302e+00 -1.269574714525123049e+00 1.150333649887107015e+02 5.266536871617006454e+01 -5.397764248796627271e+02
-5.242581720927601552e-01 2.633175388362210878e+00 -1.263811812134452595e+00 1.149029397248582995e+02 5.225432917449171555e+01 -5.392518987532970414e+02
-5.242581720927601552e-01 2.633175388362210878e+00 -1.263811812134452595e+00 1.149029397248582995e+02 5.225432917449171555e+01 -5.392518987532970414e+02
-5.054713389595111295e-01 2.624640837428751539e+00 -1.264916306340808205e+00 1.153679616271349175e+02 5.244389973327361076e+01 -5.394669676799603621e+02
-5.060520709771036962e-01 2.617184763669641256e+00 -1.259245453005814142e+00 1.148715472120151446e+02 5.248571392543786374e+01 -5.390445302197971387e+02
-5.060520709771036962e-01 2.617184763669641256e+00 -1.259245453005814142e+00 1.148715472120151446e+02 5.248571392543786374e+01 -5.390445302197971387e+02
-5.032082446841688039e-01 2.621066053386006622e+00 -1.264801987161513708e+00 1.151075800217112288e+02 5.247974522141646503e+01 -5.394070812252099358e+02
-5.222637088319252996e-01 2.630850087371591428e+00 -1.265437117748488660e+00 1.148601840727850742e+02 5.190866928640858191e+01 -5.395487499289272364e+02
-5.155172338307654201e-01 2.627663537228957402e+00 -1.263254503555008235e+00 1.147107510005716335e+02 5.225289164916412687e+01 -5.390079398638374641e+02
-5.155172338307654201e-01 2.627663537228957402e+00 -1.263254503555008235e+00 1.147107510005716335e+02 5.225289164916412687e+01 -5.390079398638374641e+02
-5.310607784541101495e-01 2.642593099880565344e+00 -1.268376534523472543e+00 1.146381633343132478e+02 5.230935501909280561e+01 -5.398644901340602473e+02
-5.179442830832430289e-01 2.626892939357901469e+00 -1.264730275179150709e+00 1.157390059042809156e+02 5.189552110418551933e+01 -5.397753517444384670e+02
-5.247201283893199175e-01 2.637539956172951783e+00 -1.266875404899288959e+00 1.146043563045452629e+02 5.228510755446041003e+01 -5.395433130297086564e+02
-5.174203273970192640e-01 2.625209420813598094e+00 -1.261075072107453288e+00 1.143761058248294944e+02 5.241442129356937585e+01 -5.397614165128933337e+02
-5.102993683284671178e-01 2.625802078731994449e+00 -1.262416553352902149e+00 1.153790712784354753e+02 5.210341575861315278e+01 -5.394703247092885476e+02
-5.059442797539031034e-01 2.622308238055168328e+00 -1.261439550996623638e+00 1.144437014332388145e+02 5.225479325839842204e+01 -5.396409797115449010e+02
-5.110206304935225319e-01 2.617787256305397214e+00 -1.256881572141595349e+00 1.145208809498665374e+02 5.260472321763310788e+01 -5.397025533716506516e+02
-5.013623471433152901e-01 2.619493394098234784e+00 -1.262746988185179831e+00 1.145849767282938245e+02 5.242168830228132492e+01 -5.396696254796723906e+02
-5.147467077410681213e-01 2.625826046540423064e+00 -1.262457838106501029e+00 1.150950688642662243e+02 5.197047905515205457e+01 -5.389996682163086916e+02
-5.147467077410681213e-01 2.625826046540423064e+00 -1.262457838106501029e+00 1.150950688642662243e+02 5.197047905515205457e+01 -5.389996682163086916e+02
-5.048052904119817441e-01 2.618941472045272167e+00 -1.263348565042287319e+00 1.146612512296313469e+02 5.242821993713621964e+01 -5.398436399916812434e+02
-5.164646309157312487e-01 2.629489899154364263e+00 -1.265001004567166021e+00 1.145182126435214371e+02 5.253430763749096855e+01 -5.394099617488951708e+02
-5.110925729362341130e-01 2.618735849171208940e+00 -1.262985063853523826e+00 1.152154886833412348e+02 5.211229021525974758e+01 -5.398149931754458066e+02
-5.325204350987435831e-01 2.645183346957759252e+00 -1.271902914195004897e+00 1.149842334668903874e+02 5.227746792948883581e+01 -5.398213345641656815e+02
-5.150794235284159583e-01 2.624977234842865936e+00 -1.264529103903731411e+00 1.151136228175009251e+02 5.261381122125806087e+01 -5.393668632715766762e+02
-5.092837074260767594e-01 2.622629715812663243e+00 -1.263539873976999850e+00 1.146146315296463314e+02 5.260040621154524842e+01 -5.394812971654616831e+02
-4.955550066580247659e-01 2.615443782376579485e+00 -1.260736508894813923e+00 1.150219330166609240e+02 5.246177549517639704e+01 -5.395115122699796757e+02
-5.006961019177609273e-01 2.609875639273873560e+00 -1.256536060661781029e+00 1.149678853282312190e+02 5.270394437215230710e+01 -5.398645139444256529e+02
