   -0.481232744347101615E+00    0.259605115661219354E+01   -0.124311504902963499E+01    0.113100120320109070E+03    0.517331975787946021E+02   -0.534784284264217717E+03
   -0.563574363227937525E+00    0.267976693030917446E+01   -0.127889140699731829E+01    0.115177165080265667E+03    0.530643180102693464E+02   -0.531410717504398121E+03
   -0.506329911397698673E+00    0.262717465530546157E+01   -0.127433179346007019E+01    0.117261081694437635E+03    0.513372930328521875E+02   -0.529752457404285337E+03
   -0.478420964487191291E+00    0.259651140135249037E+01   -0.124469955441667857E+01    0.115082644380085483E+03    0.517500384556875588E+02   -0.529489229528416217E+03
   -0.528695935753834334E+00    0.264790368426902667E+01   -0.127578703017279249E+01    0.114758986472178222E+03    0.506633176704024777E+02   -0.529125135808743153E+03
   -0.464839890269019840E+00    0.259743434735464351E+01   -0.125114771973319350E+01    0.114176827497997692E+03    0.528303014468374386E+02   -0.528564450969323389E+03
   -0.559853900363437518E+00    0.266351756671185802E+01   -0.127804468802620708E+01    0.115922654093135648E+03    0.507719229936518275E+02   -0.528437407120964849E+03
   -0.532914446470572400E+00    0.264235894884562539E+01   -0.126612333797839582E+01    0.113250080442937431E+03    0.527907328535949318E+02   -0.528109238190578139E+03
   -0.504596650766323762E+00    0.263057488003085105E+01   -0.127547992797715004E+01    0.115177345226659725E+03    0.529570229759537483E+02   -0.527909380218929869E+03
   -0.497182784048717075E+00    0.262596910694618879E+01   -0.127398834515814041E+01    0.116500959050139684E+03    0.507863403322442082E+02   -0.527780322263643029E+03
   -0.544945899650454813E+00    0.265680309574345452E+01   -0.128018054304924966E+01    0.115946375258194891E+03    0.506373470390034868E+02   -0.527610797784038141E+03
   -0.547049842415207266E+00    0.265422730206474311E+01   -0.126984630387674802E+01    0.115664625157427650E+03    0.511546793885566444E+02   -0.527428851143331258E+03
   -0.535057348975772840E+00    0.263095402445705062E+01   -0.125509007551544194E+01    0.114339793461134079E+03    0.522113046531946452E+02   -0.527333117650227450E+03
   -0.509921062403630110E+00    0.261745094992324523E+01   -0.126280768464579207E+01    0.115425553658342395E+03    0.532801019855861568E+02   -0.527320066986800157E+03
   -0.535759550533045470E+00    0.264756232716346096E+01   -0.127417230632003786E+01    0.115561857645167294E+03    0.533463412199565425E+02   -0.527231383874479206E+03
   -0.488979632356825178E+00    0.260318710018377875E+01   -0.125788801613736467E+01    0.116364221386534638E+03    0.507539357109748153E+02   -0.527146493154237533E+03
   -0.487464196509185044E+00    0.259921842525000413E+01   -0.125890988023143446E+01    0.115004011666558711E+03    0.514442167191099315E+02   -0.527100499671137072E+03
   -0.523612747744337526E+00    0.262993251004045181E+01   -0.125989906079989833E+01    0.114890575197458517E+03    0.539202078431567315E+02   -0.527090173373554308E+03
   -0.558710064335166123E+00    0.266822907328673331E+01   -0.128097509022222766E+01    0.114767891114864696E+03    0.524435481473242362E+02   -0.527083292617836264E+03
   -0.508344768513140366E+00    0.262695102385482038E+01   -0.127083174346779160E+01    0.116707188865002237E+03    0.522534063357969387E+02   -0.527051972469569591E+03
   -0.532912278568016262E+00    0.264269232511728847E+01   -0.126607561200364049E+01    0.116092576844902638E+03    0.514144788291917223E+02   -0.527010310442020341E+03
   -0.461990633416618834E+00    0.258434962334213436E+01   -0.124968568171452077E+01    0.114632866985944133E+03    0.520884937210490477E+02   -0.526983996342991531E+03
   -0.486082798303019814E+00    0.259204721894504342E+01   -0.124662226407094767E+01    0.115023383870563080E+03    0.514101605693724366E+02   -0.526826434294547653E+03
   -0.474228081698530701E+00    0.259019378088359664E+01   -0.125363722737740790E+01    0.114581853976764990E+03    0.525839414204619686E+02   -0.526751209663393070E+03
   -0.510349107403831326E+00    0.261165969932997255E+01   -0.125296293484373500E+01    0.115754501246967649E+03    0.514866699539399804E+02   -0.526679244822304781E+03
   -0.465006754531128053E+00    0.259720939533596473E+01   -0.125704151921687046E+01    0.115382203583230805E+03    0.518359825343117109E+02   -0.526652294255386096E+03
   -0.483346857944338737E+00    0.260176667613965318E+01   -0.126252424250600548E+01    0.116088090672710322E+03    0.512455582996288399E+02   -0.526623621407118435E+03
   -0.496912874141717253E+00    0.260848714406895610E+01   -0.125051864757190145E+01    0.113364401624091570E+03    0.528317181617709650E+02   -0.526600020350948625E+03
   -0.540818266569907280E+00    0.266113034096728907E+01   -0.128350730597992335E+01    0.116174436771712692E+03    0.517508564900497277E+02   -0.526570400018659711E+03
   -0.498050825267315034E+00    0.263167300902512213E+01   -0.127336037218659737E+01    0.115720628298741531E+03    0.524116812059186543E+02   -0.526557145340811076E+03
   -0.471537321814221144E+00    0.259039869995369543E+01   -0.125386967331407639E+01    0.115631278534504702E+03    0.512431754829339070E+02   -0.526529702244206192E+03
   -0.484871365661986964E+00    0.261853136079576343E+01   -0.126708089706992499E+01    0.114692152261311094E+03    0.520824488448550085E+02   -0.526500702840548229E+03
   -0.533144941791529270E+00    0.263900449726660469E+01   -0.127133358200486146E+01    0.115925204546250669E+03    0.530599049152198461E+02   -0.526487708373009923E+03
   -0.493369417206121597E+00    0.259521580227081250E+01   -0.124688291543214635E+01    0.115274133049558756E+03    0.518421129490252497E+02   -0.526422540050247562E+03
   -0.507417879291184093E+00    0.261002872949736764E+01   -0.125206226602569437E+01    0.115569821767166474E+03    0.527965929116110999E+02   -0.526397475940410231E+03
   -0.493122733764409737E+00    0.261048490493599816E+01   -0.125219783395864770E+01    0.115129672257694509E+03    0.530422880237820209E+02   -0.526374890340292836E+03
   -0.480942835810530767E+00    0.261270626730909372E+01   -0.126127518593704924E+01    0.114513776405426754E+03    0.530740236164463681E+02   -0.526331062044715509E+03
   -0.497820491440515767E+00    0.262953578882064853E+01   -0.126415280935780494E+01    0.114679142203298341E+03    0.523612651381840806E+02   -0.526329180404387898E+03
   -0.495234191025415882E+00    0.262305099919602780E+01   -0.126233821028987681E+01    0.115712499789103049E+03    0.523918284094758064E+02   -0.526310031756155240E+03
   -0.489774911440637339E+00    0.260356247332840818E+01   -0.124832433239740492E+01    0.114064743188468086E+03    0.519878399572249918E+02   -0.526297483423505241E+03
   -0.486649224080028198E+00    0.259895568775217489E+01   -0.124798792152482729E+01    0.114459772855482839E+03    0.536046399827612845E+02   -0.526293954803549809E+03
   -0.506737425596238467E+00    0.261938047759623904E+01   -0.125284097334217481E+01    0.114972623197974087E+03    0.525684241627974984E+02   -0.526292290817241565E+03
   -0.529851244953636780E+00    0.264237789156253067E+01   -0.127123908825693821E+01    0.114355400786411508E+03    0.514418903880291509E+02   -0.526195355054748006E+03
   -0.484886877607043409E+00    0.261217628163919624E+01   -0.126298390516379300E+01    0.114314563006576435E+03    0.530656975728572036E+02   -0.526159004809440944E+03
   -0.531968780934132468E+00    0.263929669593873584E+01   -0.126808781321803021E+01    0.115192175055093173E+03    0.507359207182785497E+02   -0.526142749198242086E+03
   -0.512725651960836970E+00    0.263430051198514237E+01   -0.127713504963946001E+01    0.116112791742068211E+03    0.519803102376591539E+02   -0.526087544202075605E+03
   -0.495360414025313389E+00    0.260582772078073299E+01   -0.125953563463055485E+01    0.116286747277733255E+03    0.510467061481592168E+02   -0.526086680020055041E+03
   -0.486065469462381827E+00    0.261532057714582633E+01   -0.126065585553611204E+01    0.115753120844103236E+03    0.520021952650818093E+02   -0.526025518327278746E+03
   -0.501916080359421812E+00    0.260210319004074098E+01   -0.124957652361529625E+01    0.114262463771676607E+03    0.533689662517491570E+02   -0.526001456585279243E+03
   -0.534790499253332108E+00    0.264992843681950330E+01   -0.127948128153613450E+01    0.115011852991288407E+03    0.523382977913004481E+02   -0.525997406255178021E+03
   -0.510497060790118695E+00    0.261338329829722360E+01   -0.125613424458393830E+01    0.113691047656048241E+03    0.529380715095189487E+02   -0.525971749412428153E+03
   -0.531220756008309536E+00    0.264337328473910693E+01   -0.127322526692252858E+01    0.114350566589154326E+03    0.532920572256084881E+02   -0.525966757160985480E+03
   -0.485597040326943841E+00    0.259753176436530753E+01   -0.125032669223776693E+01    0.114316135825652410E+03    0.535756377023039363E+02   -0.525937235970801794E+03
   -0.492158680777192714E+00    0.261131652502467082E+01   -0.125869084188834890E+01    0.116284560143417380E+03    0.515940811371053201E+02   -0.525935919556277554E+03
   -0.530694568435552405E+00    0.265464346648338756E+01   -0.127752991651882919E+01    0.114572084622061681E+03    0.519826949134738356E+02   -0.525932128735543643E+03
   -0.535649699830537784E+00    0.264915813758572760E+01   -0.127525760937336496E+01    0.116236338547089630E+03    0.525223595116623301E+02   -0.525886131216854210E+03
   -0.523721873907797786E+00    0.263877742733475840E+01   -0.127160142885839811E+01    0.116645425248822733E+03    0.514874919193911751E+02   -0.525881545835442694E+03
   -0.481630463271125464E+00    0.260261401879755772E+01   -0.126175863400325117E+01    0.115169186179256968E+03    0.515311951120428944E+02   -0.525851843188879116E+03
   -0.495004857517974628E+00    0.261091118205512007E+01   -0.125584084246074035E+01    0.114074713964015842E+03    0.538609675699146067E+02   -0.525781168934209745E+03
   -0.515980079180228479E+00    0.262095571857913212E+01   -0.126014921498474841E+01    0.113935734572251221E+03    0.520057735555950558E+02   -0.525780830144986908E+03
   -0.514264106008603505E+00    0.262344822038172998E+01   -0.126327236039353874E+01    0.115441484339313462E+03    0.533728554352035474E+02   -0.525757691039029623E+03
   -0.489268866290617055E+00    0.261700650998477613E+01   -0.126188168109762788E+01    0.114236888791456408E+03    0.519110551010449797E+02   -0.525748763189817168E+03
   -0.513566673403126117E+00    0.261905821001897055E+01   -0.125145193937038357E+01    0.114555833098738489E+03    0.523735584380320347E+02   -0.525703755038668533E+03
   -0.530318804389017906E+00    0.264452864846402669E+01   -0.126488092421864895E+01    0.115104477464845075E+03    0.517111447591841227E+02   -0.525702037528714527E+03
   -0.479323518205021060E+00    0.260040854115427500E+01   -0.124878488147780420E+01    0.114423232312628755E+03    0.526681864933322856E+02   -0.525682806043044479E+03
   -0.515513448693209142E+00    0.263739779161248666E+01   -0.127146873781503622E+01    0.116437008222020282E+03    0.512145631684598754E+02   -0.525679089500864393E+03
   -0.500832217607533714E+00    0.261824463296941179E+01   -0.126573860001130445E+01    0.115959812721503695E+03    0.505433765326196465E+02   -0.525666292364851415E+03
   -0.506438941431726519E+00    0.262909838738941914E+01   -0.126902927276469768E+01    0.114525599548368575E+03    0.514287852764312845E+02   -0.525661701149962255E+03
   -0.505862806424158151E+00    0.260796038111492212E+01   -0.125164212523181373E+01    0.113797505387674519E+03    0.532543377911878224E+02   -0.525606747956881463E+03
   -0.491854660806879451E+00    0.262365758309361485E+01   -0.126786091756230501E+01    0.115429336200290095E+03    0.526698974118891101E+02   -0.525598665500958759E+03
   -0.490895749488306166E+00    0.262110355561800867E+01   -0.126809569991947857E+01    0.114802603097502626E+03    0.527507996471996989E+02   -0.525590274432158026E+03
   -0.517843352885829944E+00    0.264488056952082395E+01   -0.126992221475465694E+01    0.114947393757222045E+03    0.518466820845764289E+02   -0.525572150334027810E+03
   -0.548240169127875987E+00    0.265035686595111875E+01   -0.127025868170292089E+01    0.114227754583201104E+03    0.527803288586858059E+02   -0.525544747231334327E+03
   -0.551358900771045768E+00    0.265022156191069413E+01   -0.127069402300759737E+01    0.114714048265981944E+03    0.527080723160575531E+02   -0.525495612717845916E+03
   -0.527628000169816147E+00    0.263292871150120034E+01   -0.127045435440941468E+01    0.116262720998817613E+03    0.511618893507210828E+02   -0.525472746429859740E+03
   -0.489214462921214732E+00    0.260460129486818781E+01   -0.125056782734946648E+01    0.114672421694491746E+03    0.515824681376363685E+02   -0.525439936507765879E+03
   -0.539129240621541328E+00    0.265204815987867493E+01   -0.127530048693021580E+01    0.114688895858195508E+03    0.515370197090702220E+02   -0.525427203073683700E+03
   -0.489067941714493415E+00    0.261716693594198491E+01   -0.125971798677756208E+01    0.115384033352742819E+03    0.522140239297425239E+02   -0.525384249856256815E+03
   -0.483156710385884480E+00    0.261420727546810472E+01   -0.126454601218015927E+01    0.114727815717927783E+03    0.522746932466432668E+02   -0.525380778178512287E+03
   -0.495210684988649064E+00    0.261772061849470106E+01   -0.125592085982644708E+01    0.114048334180930382E+03    0.530928720298551298E+02   -0.525376754262685836E+03
   -0.504671208290407236E+00    0.262346289025904333E+01   -0.127127108277948775E+01    0.116347445524921653E+03    0.518574421723670014E+02   -0.525369465461416326E+03
   -0.518581132263317812E+00    0.263879969565320183E+01   -0.126310213325214615E+01    0.114774573968617688E+03    0.524145872748501915E+02   -0.525366028804178882E+03
   -0.522253572591711901E+00    0.262002093048227813E+01   -0.125706181909283554E+01    0.114107997258707414E+03    0.523282431355403901E+02   -0.525326108509715141E+03
   -0.541465639767436890E+00    0.265296439615950419E+01   -0.127033541412652884E+01    0.114467873452475004E+03    0.517838358118208930E+02   -0.525267123293676832E+03
   -0.496771837279158746E+00    0.262599117609154886E+01   -0.126518636436675891E+01    0.114336206701094312E+03    0.522024465211904669E+02   -0.525224196044690189E+03
   -0.494858022960077193E+00    0.259719394762113209E+01   -0.124696144222315031E+01    0.114522795484772374E+03    0.524133801737878855E+02   -0.525209546966315429E+03
   -0.533935461235609310E+00    0.265054661354006216E+01   -0.127950118751707986E+01    0.115542760748634038E+03    0.524773345737522732E+02   -0.525202504414419991E+03
   -0.478117461106519315E+00    0.259807100939607682E+01   -0.125148557899488821E+01    0.114109326702353684E+03    0.530952357829657444E+02   -0.525194145297322734E+03
   -0.503118914879683743E+00    0.261825449441134417E+01   -0.125960505507638842E+01    0.114685866146792293E+03    0.533452176264397906E+02   -0.525191324926099469E+03
   -0.508274212678140103E+00    0.261888481357710345E+01   -0.125828934989207664E+01    0.115406307170777708E+03    0.509287099826602798E+02   -0.525170238629090818E+03
   -0.502222394113221782E+00    0.262583940648968062E+01   -0.127256423389340867E+01    0.115440458418258189E+03    0.514942278293761149E+02   -0.525150323637632027E+03
   -0.538268676967296855E+00    0.264788967443028200E+01   -0.127393099061291259E+01    0.114442515693018265E+03    0.529195523771019509E+02   -0.525146370118562345E+03
   -0.527596949407919347E+00    0.262463130701668490E+01   -0.126063067391448680E+01    0.114307240419378715E+03    0.524925416155872426E+02   -0.525130297092131855E+03
   -0.492906947525616701E+00    0.261392813858796691E+01   -0.125673779687211429E+01    0.115417830540137714E+03    0.514292591240857178E+02   -0.525108230529487628E+03
   -0.518789749765202757E+00    0.262879987282810657E+01   -0.126892751957426420E+01    0.116497484792863858E+03    0.513214499351171582E+02   -0.525099367290947157E+03
   -0.535261406971018872E+00    0.263400428361224570E+01   -0.126597995074275893E+01    0.115816302796412884E+03    0.523563962459778907E+02   -0.525099360790818423E+03
   -0.496763166234210019E+00    0.261534910930391895E+01   -0.126502980364940232E+01    0.114843941579470041E+03    0.513973080216751441E+02   -0.525092899700503608E+03
   -0.511396221518064742E+00    0.263188930170072855E+01   -0.126575409076493273E+01    0.114538344802294915E+03    0.513177441627187818E+02   -0.525089350162018718E+03
   -0.511229488556768530E+00    0.263953088239314670E+01   -0.127573018723782727E+01    0.115388711645806481E+03    0.514671273376098952E+02   -0.525086861211022438E+03
   -0.523983573733199925E+00    0.262441403130302353E+01   -0.126095824634991249E+01    0.115890710684145816E+03    0.523586549500103615E+02   -0.525062664263552733E+03
   -0.492909914508420144E+00    0.259893232458643153E+01   -0.125207925089326366E+01    0.115308175560249751E+03    0.514439829639843822E+02   -0.525049171927509974E+03
   -0.506185442930874530E+00    0.262782416323226231E+01   -0.126515860460389717E+01    0.115861703205678765E+03    0.507582585749296129E+02   -0.525043545135616910E+03
   -0.512577826253140856E+00    0.261058247032920132E+01   -0.125353271935821109E+01    0.114347520616015345E+03    0.530262065316750579E+02   -0.525021967119390524E+03
   -0.478921504875911452E+00    0.259249214038433129E+01   -0.124917549001857431E+01    0.114843170546977575E+03    0.529788091418085969E+02   -0.524994098923461479E+03
   -0.500292130601021512E+00    0.261596897400035289E+01   -0.125640305484378789E+01    0.115527774893975050E+03    0.513904472684830012E+02   -0.524986561224493357E+03
   -0.520253328035583884E+00    0.263168422651636336E+01   -0.127359923813791731E+01    0.115722851417277269E+03    0.519903017778431717E+02   -0.524985959784660167E+03
   -0.499887290954161401E+00    0.260462870799117230E+01   -0.125661831218365538E+01    0.115755546124584157E+03    0.514584963046098665E+02   -0.524959740127187729E+03
   -0.480540553864942765E+00    0.260623649006203095E+01   -0.125733556060609430E+01    0.114978869277099733E+03    0.514438775582240453E+02   -0.524955493516718093E+03
   -0.482853617851821681E+00    0.259576083466287377E+01   -0.125332996221706061E+01    0.114753718914588191E+03    0.529915084224965369E+02   -0.524949754330144856E+03
   -0.501223664786503598E+00    0.263262562624364937E+01   -0.127126862302492771E+01    0.115381659259616413E+03    0.522784543094103640E+02   -0.524874996954413632E+03
   -0.507600291172279228E+00    0.261688717823612205E+01   -0.126302786903852571E+01    0.115553257561610351E+03    0.508654017798756115E+02   -0.524871947025120562E+03
   -0.497939389483740946E+00    0.261547200562754378E+01   -0.125892247778492639E+01    0.113953190491484690E+03    0.520516629846598846E+02   -0.524871333910446992E+03
   -0.503699043867856133E+00    0.261554960417931426E+01   -0.126372426830178153E+01    0.114429140626934029E+03    0.523958255246177771E+02   -0.524865563152025743E+03
   -0.537808088475435930E+00    0.263909749687749073E+01   -0.126981987836806098E+01    0.115398166913249639E+03    0.527874323356782043E+02   -0.524839901105847616E+03
   -0.478503840964368266E+00    0.260424838848202711E+01   -0.125748225617101372E+01    0.114838942136841965E+03    0.529891768381649229E+02   -0.524835506174611282E+03
   -0.478503840964368266E+00    0.260424838848202711E+01   -0.125748225617101372E+01    0.114838942136841965E+03    0.529891768381649229E+02   -0.524835506174611282E+03
   -0.501531040944241724E+00    0.261476141578474142E+01   -0.126368166901829415E+01    0.116266419768726252E+03    0.511011453164267664E+02   -0.524831946388681558E+03
   -0.504917661109332450E+00    0.262397109738753676E+01   -0.126558050666875133E+01    0.115219860677805414E+03    0.508296360195202226E+02   -0.524830148680457228E+03
   -0.525020645032808986E+00    0.263961520710147779E+01   -0.126905533703785434E+01    0.114334104871564037E+03    0.516324366573535656E+02   -0.524821282637538047E+03
   -0.525020645032808986E+00    0.263961520710147779E+01   -0.126905533703785434E+01    0.114334104871564037E+03    0.516324366573535656E+02   -0.524821282637538047E+03
   -0.528571110483563089E+00    0.263867877664603201E+01   -0.126447921518160999E+01    0.113722032988868392E+03    0.529402150150142461E+02   -0.524815749526272839E+03
   -0.502950926751580596E+00    0.260537710752276963E+01   -0.125646884592452235E+01    0.115668956172877301E+03    0.518574307168693736E+02   -0.524808707357129265E+03
   -0.505640268523104730E+00    0.261214967025544142E+01   -0.125062341601135163E+01    0.114614401590227217E+03    0.529803979579261579E+02   -0.524768452743795706E+03
   -0.534635416710130151E+00    0.263865494720949112E+01   -0.126114526846812236E+01    0.114084511020226174E+03    0.530704534309946609E+02   -0.524763049244335889E+03
   -0.528262655525503888E+00    0.264596593784030043E+01   -0.127791763727149910E+01    0.115599575815847203E+03    0.524874525873152606E+02   -0.524751776995460659E+03
   -0.501621057960623062E+00    0.263225041459800746E+01   -0.126933750171826087E+01    0.115423389947363617E+03    0.518093610859236833E+02   -0.524747254454380368E+03
   -0.512819806787103261E+00    0.261226713024207946E+01   -0.125906739201392703E+01    0.114994545453318381E+03    0.521426942570483618E+02   -0.524747243524785972E+03
   -0.512819806787103261E+00    0.261226713024207946E+01   -0.125906739201392703E+01    0.114994545453318381E+03    0.521426942570483618E+02   -0.524747243524785972E+03
   -0.515558865106640063E+00    0.261781054731592633E+01   -0.125212404621951379E+01    0.114434552351254268E+03    0.523833545497894875E+02   -0.524744702954529430E+03
   -0.539085326135935183E+00    0.263901502358878304E+01   -0.126539546064724906E+01    0.115249708728747649E+03    0.514976294234226941E+02   -0.524742413943306587E+03
   -0.515237363221930700E+00    0.264208662128624150E+01   -0.126952753368748805E+01    0.114794960409712345E+03    0.520986718648395595E+02   -0.524731582849556617E+03
   -0.521676078566758683E+00    0.264127495952251667E+01   -0.127266962164847897E+01    0.115493942837125601E+03    0.531000599168079930E+02   -0.524728654254418871E+03
   -0.498093361546464664E+00    0.261952918733436890E+01   -0.126813623751247029E+01    0.115993416931325370E+03    0.524175606454643059E+02   -0.524705975720981769E+03
   -0.520738093122200318E+00    0.263713372478541608E+01   -0.127408490402818497E+01    0.115264459166389798E+03    0.528778876179728172E+02   -0.524704756012583402E+03
   -0.534324216453664569E+00    0.264109280045087180E+01   -0.127227572058823046E+01    0.115009195852118907E+03    0.529660538277888975E+02   -0.524663092828253866E+03
   -0.521232367630994453E+00    0.264722570878356489E+01   -0.127773448863836059E+01    0.115607066288064289E+03    0.521343543746954481E+02   -0.524609567842680121E+03
   -0.516554458592666244E+00    0.262868661305687112E+01   -0.125725453260270470E+01    0.114564900394256185E+03    0.528812701857081606E+02   -0.524605940745005455E+03
   -0.521451322885937429E+00    0.263904089613653081E+01   -0.127001096421775905E+01    0.115810841845575567E+03    0.507919413340805761E+02   -0.524597612672238483E+03
   -0.521451322885937429E+00    0.263904089613653081E+01   -0.127001096421775905E+01    0.115810841845575567E+03    0.507919413340805761E+02   -0.524597612672238483E+03
   -0.531712561969371222E+00    0.263232176392473516E+01   -0.126058488424880721E+01    0.115414507570404908E+03    0.521908603421298665E+02   -0.524555537960300853E+03
   -0.508218392955066101E+00    0.263236828055710514E+01   -0.127315271640509842E+01    0.115284859851013437E+03    0.526723508163850624E+02   -0.524548220723903682E+03
   -0.505414900821196333E+00    0.262310661831048675E+01   -0.125696871346398797E+01    0.114855294719710102E+03    0.526756592844969873E+02   -0.524528235258503855E+03
   -0.501967636348667590E+00    0.261514857034591852E+01   -0.125836350887959902E+01    0.115156983023507252E+03    0.510034662527566240E+02   -0.524526286096281183E+03
   -0.524042118941251189E+00    0.262668851834259387E+01   -0.126272243458545486E+01    0.116013829933740482E+03    0.517609159116979924E+02   -0.524525628612941318E+03
   -0.550515573111006518E+00    0.265538392123351441E+01   -0.127199968584864198E+01    0.115268471526142264E+03    0.521970906988382524E+02   -0.524517490799745360E+03
   -0.523483087751953846E+00    0.264567146500550665E+01   -0.127299906805929375E+01    0.114664440295202212E+03    0.530596981355975004E+02   -0.524478879428064602E+03
   -0.521240421667126697E+00    0.263547440840376401E+01   -0.126582900176603541E+01    0.115811880635213086E+03    0.526470506016846684E+02   -0.524474400963215430E+03
   -0.501146953123726924E+00    0.262774367431989075E+01   -0.126925476209017241E+01    0.115996857586216805E+03    0.520608085600023287E+02   -0.524425052627808782E+03
   -0.534434779386910641E+00    0.265030512454064748E+01   -0.127497163742137243E+01    0.114993805065392110E+03    0.514365825345192320E+02   -0.524391965905507050E+03
   -0.534434779386910641E+00    0.265030512454064748E+01   -0.127497163742137243E+01    0.114993805065392110E+03    0.514365825345192320E+02   -0.524391965905507050E+03
   -0.516001360120554864E+00    0.264100253642972849E+01   -0.127036314127667627E+01    0.115391433515515502E+03    0.526266326732279310E+02   -0.524390072422422577E+03
   -0.521542706318593119E+00    0.264193229114975781E+01   -0.126833765927931452E+01    0.115559325296537921E+03    0.516789881209914199E+02   -0.524378543728595901E+03
   -0.521542706318593119E+00    0.264193229114975781E+01   -0.126833765927931452E+01    0.115559325296537921E+03    0.516789881209914199E+02   -0.524378543728595901E+03
   -0.535400211791481340E+00    0.263793019454220756E+01   -0.126564175939288326E+01    0.114196033133580443E+03    0.530009023196999749E+02   -0.524372642944915583E+03
   -0.518361217079632119E+00    0.262332892757939096E+01   -0.126012830841976609E+01    0.114066380118743467E+03    0.521432678493315507E+02   -0.524364542829451125E+03
   -0.486437537123434183E+00    0.260521601788168056E+01   -0.125324019313069623E+01    0.114638815242504535E+03    0.517105082390687016E+02   -0.524358411523891164E+03
   -0.486437537123434183E+00    0.260521601788168056E+01   -0.125324019313069623E+01    0.114638815242504535E+03    0.517105082390687016E+02   -0.524358411523891164E+03
   -0.498060420587012942E+00    0.261287251565100398E+01   -0.126524857240249755E+01    0.115930405574991497E+03    0.520243783831243150E+02   -0.524349723976737664E+03
   -0.534957079189714690E+00    0.263617982012801066E+01   -0.126554408544800179E+01    0.114287043465142858E+03    0.525994769906521924E+02   -0.524330813098681688E+03
   -0.534957079189714690E+00    0.263617982012801066E+01   -0.126554408544800179E+01    0.114287043465142858E+03    0.525994769906521924E+02   -0.524330813098681688E+03
   -0.543215615499749838E+00    0.264892446993939812E+01   -0.127248019242771804E+01    0.114824455280599437E+03    0.528874224854400836E+02   -0.524301248770032203E+03
   -0.543215615499749838E+00    0.264892446993939812E+01   -0.127248019242771804E+01    0.114824455280599437E+03    0.528874224854400836E+02   -0.524301248770032203E+03
   -0.495094668205132038E+00    0.260640593787298380E+01   -0.125744370504421266E+01    0.114699980594827920E+03    0.532156160072640319E+02   -0.524283838742826902E+03
   -0.506036806788810800E+00    0.262562916263265489E+01   -0.126981510662249164E+01    0.116213018487515626E+03    0.507800366011923359E+02   -0.524263317467796583E+03
   -0.506036806788810800E+00    0.262562916263265489E+01   -0.126981510662249164E+01    0.116213018487515626E+03    0.507800366011923359E+02   -0.524263317467796583E+03
   -0.492344778736022448E+00    0.261728483361041908E+01   -0.126311257210157102E+01    0.115887789281610196E+03    0.515416227274872938E+02   -0.524259873089648977E+03
   -0.507449038546418763E+00    0.263601471876472537E+01   -0.127166606857375974E+01    0.115291305052356009E+03    0.524570553526735353E+02   -0.524226475032585654E+03
   -0.486417600949768492E+00    0.260898603528994766E+01   -0.125573704132270869E+01    0.115082540819369413E+03    0.527743828369619621E+02   -0.524226057335963333E+03
   -0.486417600949768492E+00    0.260898603528994766E+01   -0.125573704132270869E+01    0.115082540819369413E+03    0.527743828369619621E+02   -0.524226057335963333E+03
   -0.512481642472089050E+00    0.262487388957832435E+01   -0.126424435412860792E+01    0.116211251845923044E+03    0.513531258184010255E+02   -0.524215896629515782E+03
   -0.532198349820196981E+00    0.264036371913866574E+01   -0.126611436502982322E+01    0.115778658264296098E+03    0.519782006436434187E+02   -0.524207587273782906E+03
   -0.532198349820196981E+00    0.264036371913866574E+01   -0.126611436502982322E+01    0.115778658264296098E+03    0.519782006436434187E+02   -0.524207587273782906E+03
   -0.514623405211057872E+00    0.261927650185246730E+01   -0.125784458427450030E+01    0.114286179192090955E+03    0.518551375354405479E+02   -0.524198309890162818E+03
   -0.516598226684880757E+00    0.264200308737795764E+01   -0.126980856346019344E+01    0.115186319727126943E+03    0.523716814045302783E+02   -0.524197779369635100E+03
   -0.509536924888715603E+00    0.263687898394380182E+01   -0.126904644637970243E+01    0.114920007940420973E+03    0.526344844500421232E+02   -0.524181346565712829E+03
   -0.536966779628293978E+00    0.264278148034044591E+01   -0.126431338132508841E+01    0.114745576733684274E+03    0.530022784720674167E+02   -0.524161996137946403E+03
   -0.514835064099816719E+00    0.263741301959649865E+01   -0.126735723053993610E+01    0.114248586638204358E+03    0.523129294859550100E+02   -0.524161692082695140E+03
   -0.495719824101557904E+00    0.260780969413504327E+01   -0.126097400605857501E+01    0.115300607304757946E+03    0.514779319483483278E+02   -0.524161672627420330E+03
   -0.495719824101557904E+00    0.260780969413504327E+01   -0.126097400605857501E+01    0.115300607304757946E+03    0.514779319483483278E+02   -0.524161672627420330E+03
   -0.481850817742266457E+00    0.261043979520322367E+01   -0.126179163023279184E+01    0.115262682953354300E+03    0.521637802015793568E+02   -0.524157318626151095E+03
   -0.509160655325227474E+00    0.262322191274746386E+01   -0.126197367900721602E+01    0.114213202538867563E+03    0.517713968908685729E+02   -0.524153370054685865E+03
   -0.509160655325227474E+00    0.262322191274746386E+01   -0.126197367900721602E+01    0.114213202538867563E+03    0.517713968908685729E+02   -0.524153370054685865E+03
   -0.507458285533743947E+00    0.262737638471396151E+01   -0.126738756671491437E+01    0.114286159089834172E+03    0.528575048897521924E+02   -0.524122393187954913E+03
   -0.518375280822767515E+00    0.262157948797118623E+01   -0.125809436161814414E+01    0.115611163197534921E+03    0.518258877816869585E+02   -0.524113031863379092E+03
   -0.484329337340781763E+00    0.260887343263677973E+01   -0.126159706007950234E+01    0.115619929731913572E+03    0.514657309070216797E+02   -0.524081473030731104E+03
   -0.493946519484952162E+00    0.262216417354065623E+01   -0.126436286596728209E+01    0.114812101204501175E+03    0.519058721189883556E+02   -0.524070385726738664E+03
   -0.486466536951992268E+00    0.261173079782912643E+01   -0.126428191733133666E+01    0.115612921118756987E+03    0.521823352528032842E+02   -0.524047310372921743E+03
   -0.486466536951992268E+00    0.261173079782912643E+01   -0.126428191733133666E+01    0.115612921118756987E+03    0.521823352528032842E+02   -0.524047310372921743E+03
   -0.490164605000243725E+00    0.261559573386291166E+01   -0.126071244938573557E+01    0.115442778285754997E+03    0.516161030997099317E+02   -0.524039891204345167E+03
   -0.536365850887579043E+00    0.264698128416144707E+01   -0.127188749872934004E+01    0.114405830485558738E+03    0.528704958931513147E+02   -0.524039361193136983E+03
   -0.484073271446695763E+00    0.259549667653282112E+01   -0.124944548682544632E+01    0.114868436361622841E+03    0.525875692335285976E+02   -0.524036199508387540E+03
   -0.484073271446695763E+00    0.259549667653282112E+01   -0.124944548682544632E+01    0.114868436361622841E+03    0.525875692335285976E+02   -0.524036199508387540E+03
   -0.520213848567983916E+00    0.262934786796758901E+01   -0.126741009605840027E+01    0.115190917441088658E+03    0.531673215991303607E+02   -0.524028066664917560E+03
   -0.515579333427065301E+00    0.263220191772589507E+01   -0.126391135587426895E+01    0.115679310827769925E+03    0.516046468557000537E+02   -0.524024842990056300E+03
   -0.526093743381354173E+00    0.263895163314437875E+01   -0.127175490945214786E+01    0.115170401995698512E+03    0.512173808483201185E+02   -0.524012823460847812E+03
   -0.508672072168705469E+00    0.263057196231882839E+01   -0.126442490652707562E+01    0.114338538908865843E+03    0.519646218367431914E+02   -0.524008355572691698E+03
   -0.515985623050681852E+00    0.262783033275419875E+01   -0.125997732896476133E+01    0.114035213858121921E+03    0.521372557728183494E+02   -0.524007518180230591E+03
   -0.519694017563214317E+00    0.262295471391598189E+01   -0.125950093834952881E+01    0.115252896649046534E+03    0.513759607009670560E+02   -0.523982151043589056E+03
   -0.519694017563214317E+00    0.262295471391598189E+01   -0.125950093834952881E+01    0.115252896649046534E+03    0.513759607009670560E+02   -0.523982151043589056E+03
   -0.514401114983375152E+00    0.262516145645577259E+01   -0.126071779386188165E+01    0.115484725540039832E+03    0.512339109850944396E+02   -0.523977963423523306E+03
   -0.539545871917576747E+00    0.263865546562661191E+01   -0.126618813041941269E+01    0.115124399837981315E+03    0.525592142859302669E+02   -0.523967476639643451E+03
   -0.491323934488169023E+00    0.261468756537767311E+01   -0.126494529358079522E+01    0.115977149631785352E+03    0.516630339924824113E+02   -0.523955888296406442E+03
   -0.491323934488169023E+00    0.261468756537767311E+01   -0.126494529358079522E+01    0.115977149631785352E+03    0.516630339924824113E+02   -0.523955888296406442E+03
   -0.492617390132348731E+00    0.261615870225228742E+01   -0.126585114937626830E+01    0.115961924869182710E+03    0.516109846487566983E+02   -0.523923903002857173E+03
   -0.503070826680404259E+00    0.261591511481332528E+01   -0.125627996454964563E+01    0.115543983632951807E+03    0.522455376646769594E+02   -0.523892860452175682E+03
   -0.522611048062719519E+00    0.264286060677903922E+01   -0.126735892056675148E+01    0.114585150941461933E+03    0.527202894370839488E+02   -0.523882113533668644E+03
   -0.484693000625732395E+00    0.259797597551720205E+01   -0.125162292542420950E+01    0.115065337773390496E+03    0.517881456756232978E+02   -0.523881288961673590E+03
   -0.505607465994302174E+00    0.261859241175673807E+01   -0.125624792286583897E+01    0.114039206256167901E+03    0.522379001885706771E+02   -0.523867056566857173E+03
   -0.505607465994302174E+00    0.261859241175673807E+01   -0.125624792286583897E+01    0.114039206256167901E+03    0.522379001885706771E+02   -0.523867056566857173E+03
   -0.520984821355527039E+00    0.262875606961891606E+01   -0.126338011096887559E+01    0.115371858324697200E+03    0.511205030786683778E+02   -0.523856234150225418E+03
   -0.520984821355527039E+00    0.262875606961891606E+01   -0.126338011096887559E+01    0.115371858324697200E+03    0.511205030786683778E+02   -0.523856234150225418E+03
   -0.509186772902179285E+00    0.262497964171075004E+01   -0.126514904885799417E+01    0.115950118375715547E+03    0.525846407892427123E+02   -0.523855486948179305E+03
   -0.518222267218558130E+00    0.262872581645485237E+01   -0.125819119521788725E+01    0.114097319947640571E+03    0.529757329543025719E+02   -0.523833729592297686E+03
   -0.527892150589817533E+00    0.263470183053272411E+01   -0.126560170983880482E+01    0.115670891653503702E+03    0.527188223775618496E+02   -0.523832812013212106E+03
   -0.527892150589817533E+00    0.263470183053272411E+01   -0.126560170983880482E+01    0.115670891653503702E+03    0.527188223775618496E+02   -0.523832812013212106E+03
   -0.535723115141667705E+00    0.265277632207754532E+01   -0.127193881089861005E+01    0.114995293077929560E+03    0.524631786944116243E+02   -0.523824081911688495E+03
   -0.517364493974920236E+00    0.261978670305831907E+01   -0.126327284755713709E+01    0.115135845101930812E+03    0.520644289819633741E+02   -0.523815401798101334E+03
   -0.517364493974920236E+00    0.261978670305831907E+01   -0.126327284755713709E+01    0.115135845101930812E+03    0.520644289819633741E+02   -0.523815401798101334E+03
   -0.512682509943688913E+00    0.263510964918017754E+01   -0.126808822514563957E+01    0.115377088330345288E+03    0.528246381241704626E+02   -0.523802927440627741E+03
   -0.518007636873912602E+00    0.262389114625085718E+01   -0.126319786094132880E+01    0.116007831351067821E+03    0.515835719412201570E+02   -0.523801113921056185E+03
   -0.518007636873912602E+00    0.262389114625085718E+01   -0.126319786094132880E+01    0.116007831351067821E+03    0.515835719412201570E+02   -0.523801113921056185E+03
   -0.531743264270907900E+00    0.264481236666218189E+01   -0.126963991101827478E+01    0.115782869959314098E+03    0.521298765371698778E+02   -0.523797454557050060E+03
   -0.515119895354244406E+00    0.262603272247767450E+01   -0.125670520989826962E+01    0.114305596887325535E+03    0.526746218997727453E+02   -0.523794962520207037E+03
   -0.519991194966131332E+00    0.263607620710188240E+01   -0.126789440799220543E+01    0.114468995628782224E+03    0.516955039906322895E+02   -0.523792250403273897E+03
   -0.503987198729324959E+00    0.260995143659799744E+01   -0.125955089016849442E+01    0.115142370088010779E+03    0.526263999333944525E+02   -0.523789956332077054E+03
   -0.545142194664969715E+00    0.265431481037398420E+01   -0.127164544352669928E+01    0.114933194863622205E+03    0.523650209459001701E+02   -0.523778661194658412E+03
   -0.511400510598031488E+00    0.262643534524795763E+01   -0.126257490883202550E+01    0.114524655995692356E+03    0.515066130872218366E+02   -0.523778346178262609E+03
   -0.511400510598031488E+00    0.262643534524795763E+01   -0.126257490883202550E+01    0.114524655995692356E+03    0.515066130872218366E+02   -0.523778346178262609E+03
   -0.497196666289077882E+00    0.260522639921747690E+01   -0.125796603604434942E+01    0.114991372464199173E+03    0.521732187024319671E+02   -0.523760284015804132E+03
   -0.497196666289077882E+00    0.260522639921747690E+01   -0.125796603604434942E+01    0.114991372464199173E+03    0.521732187024319671E+02   -0.523760284015804132E+03
   -0.501422146046969885E+00    0.262327435800198439E+01   -0.126628069946851962E+01    0.115659466218553490E+03    0.511014507124771171E+02   -0.523747569655928601E+03
   -0.537143510524529688E+00    0.265257167103357228E+01   -0.127564277243616253E+01    0.115712617134622121E+03    0.521370095141526519E+02   -0.523733628327275028E+03
   -0.493407799777555667E+00    0.261041845881694767E+01   -0.126248124862713240E+01    0.115972686653545722E+03    0.516529588289274386E+02   -0.523731475042411603E+03
   -0.520132227600618613E+00    0.262636081928972764E+01   -0.125871092268978035E+01    0.115386950038491591E+03    0.521887013931316801E+02   -0.523730652784908443E+03
   -0.520132227600618613E+00    0.262636081928972764E+01   -0.125871092268978035E+01    0.115386950038491591E+03    0.521887013931316801E+02   -0.523730652784908443E+03
   -0.489846942197478263E+00    0.260804994557851355E+01   -0.125816788380950673E+01    0.114294470827348846E+03    0.524803370149211048E+02   -0.523713823401201807E+03
   -0.489846942197478263E+00    0.260804994557851355E+01   -0.125816788380950673E+01    0.114294470827348846E+03    0.524803370149211048E+02   -0.523713823401201807E+03
   -0.540322761794943318E+00    0.265331243122218785E+01   -0.127181209949089613E+01    0.114856178312381061E+03    0.526560425957642053E+02   -0.523694538741715860E+03
   -0.517791890559500700E+00    0.263326036914159634E+01   -0.126395685905186905E+01    0.115295196697603757E+03    0.529085222292708579E+02   -0.523654116500949499E+03
   -0.501724689901742238E+00    0.260765641123472314E+01   -0.125539483147599285E+01    0.115597857984516196E+03    0.520635532269103294E+02   -0.523646838288618937E+03
   -0.518332895061535126E+00    0.262184126563726450E+01   -0.126175816805886143E+01    0.114425814073783769E+03    0.524412337546096978E+02   -0.523640175832862155E+03
   -0.508209845781366631E+00    0.263205736823161907E+01   -0.127061852172899048E+01    0.115720274587160958E+03    0.513078180522595062E+02   -0.523639985909428333E+03
   -0.515872404728032308E+00    0.263479917623629856E+01   -0.126928070682128613E+01    0.114425698101780071E+03    0.529729146516980620E+02   -0.523635289360085380E+03
   -0.531129282027649197E+00    0.263295599138771497E+01   -0.126558597591441746E+01    0.115182667158979527E+03    0.516061873427123032E+02   -0.523633218327536269E+03
   -0.531129282027649197E+00    0.263295599138771497E+01   -0.126558597591441746E+01    0.115182667158979527E+03    0.516061873427123032E+02   -0.523633218327536269E+03
   -0.482547078903746041E+00    0.260352694928974682E+01   -0.125461788499892002E+01    0.114945784409296550E+03    0.527023063518638253E+02   -0.523631711071333939E+03
   -0.495149217631611904E+00    0.261749775326808276E+01   -0.125800192917830600E+01    0.114817955399452217E+03    0.520915869363558954E+02   -0.523623391896858720E+03
   -0.495820036099646089E+00    0.261274774610860305E+01   -0.125553514471632788E+01    0.115324262079727163E+03    0.521762273671104140E+02   -0.523617539875801526E+03
   -0.524094381053079594E+00    0.262274767647930629E+01   -0.125994221013404051E+01    0.115134444492326878E+03    0.523863259848266125E+02   -0.523579744413172534E+03
   -0.526393777822940834E+00    0.263775317663341147E+01   -0.127214294993278987E+01    0.116069333612248272E+03    0.515642127369233094E+02   -0.523565615900029115E+03
   -0.532737350995177827E+00    0.264455502231343198E+01   -0.126643285449878729E+01    0.115113606389126488E+03    0.523557188429015810E+02   -0.523565516920148639E+03
   -0.500489487279322631E+00    0.262734205891779249E+01   -0.126523010611857067E+01    0.115025588563393171E+03    0.524346217597210398E+02   -0.523563882613661917E+03
   -0.500489487279322631E+00    0.262734205891779249E+01   -0.126523010611857067E+01    0.115025588563393171E+03    0.524346217597210398E+02   -0.523563882613661917E+03
   -0.535613645180315956E+00    0.265185635147882470E+01   -0.127635333876312274E+01    0.115126735939401243E+03    0.519576436638876942E+02   -0.523551137060967790E+03
   -0.517183880679741748E+00    0.263593699527201553E+01   -0.126462065511445854E+01    0.115070416868028573E+03    0.518380529999898556E+02   -0.523545616018231613E+03
   -0.517183880679741748E+00    0.263593699527201553E+01   -0.126462065511445854E+01    0.115070416868028573E+03    0.518380529999898556E+02   -0.523545616018231613E+03
   -0.513593818199613139E+00    0.262090109346346045E+01   -0.125604880147122522E+01    0.114623182891214412E+03    0.531380848527851981E+02   -0.523519298292781968E+03
   -0.498235560736539185E+00    0.261540586003833830E+01   -0.126133023623554941E+01    0.114871503293025555E+03    0.513879899985514612E+02   -0.523516801542528469E+03
   -0.511705664679849903E+00    0.262513459890475609E+01   -0.126091442126605102E+01    0.115355142691786781E+03    0.529282335813311704E+02   -0.523512442490657577E+03
   -0.511705664679849903E+00    0.262513459890475609E+01   -0.126091442126605102E+01    0.115355142691786781E+03    0.529282335813311704E+02   -0.523512442490657577E+03
   -0.533104369240556153E+00    0.263865907864711957E+01   -0.126922952156542479E+01    0.114651741248600317E+03    0.526178688106598429E+02   -0.523510526538058684E+03
   -0.521461747765611605E+00    0.262122836163719075E+01   -0.126069568992528147E+01    0.115026503445694814E+03    0.520912419274447416E+02   -0.523485094727751630E+03
   -0.538617930695455271E+00    0.264056522832754270E+01   -0.126876903376762140E+01    0.115347255374975319E+03    0.522670319917370136E+02   -0.523485026354096590E+03
   -0.509119209399426786E+00    0.262981455691931298E+01   -0.126421183206418419E+01    0.114254536092645751E+03    0.522642013339444986E+02   -0.523466955330251949E+03
   -0.495991396160862408E+00    0.261863601343106733E+01   -0.126384145644834245E+01    0.114473364486599365E+03    0.525418101322985365E+02   -0.523457377186752069E+03
   -0.498812725911616184E+00    0.261143769165350825E+01   -0.126073445553502772E+01    0.115395901737248892E+03    0.528137551331730890E+02   -0.523454027688094584E+03
   -0.512672042484926038E+00    0.262915587246682936E+01   -0.126274007478491690E+01    0.115188562630044970E+03    0.514256218687305875E+02   -0.523451154887273105E+03
   -0.512672042484926038E+00    0.262915587246682936E+01   -0.126274007478491690E+01    0.115188562630044970E+03    0.514256218687305875E+02   -0.523451154887273105E+03
   -0.523373775286726683E+00    0.262761933446736773E+01   -0.125966763733219178E+01    0.114366858900335103E+03    0.531991972497691563E+02   -0.523445452075200706E+03
   -0.523373775286726683E+00    0.262761933446736773E+01   -0.125966763733219178E+01    0.114366858900335103E+03    0.531991972497691563E+02   -0.523445452075200706E+03
   -0.502439094877354719E+00    0.261789679276960774E+01   -0.126638556833577454E+01    0.115554349542078441E+03    0.523652485536184713E+02   -0.523432988895631411E+03
   -0.533876050894997789E+00    0.263981785437050931E+01   -0.126544432744885782E+01    0.114410902491442414E+03    0.530569737856202721E+02   -0.523432631143806361E+03
   -0.533876050894997789E+00    0.263981785437050931E+01   -0.126544432744885782E+01    0.114410902491442414E+03    0.530569737856202721E+02   -0.523432631143806361E+03
   -0.509378758724813530E+00    0.261504968723936670E+01   -0.125657879861214461E+01    0.114502584137670794E+03    0.518775760510162058E+02   -0.523431921332246816E+03
   -0.528243665460427003E+00    0.263598502880054975E+01   -0.126446082868692145E+01    0.114496982185485933E+03    0.518311061056467395E+02   -0.523425990321272820E+03
   -0.529453887057558248E+00    0.264491097350715387E+01   -0.126970187153291292E+01    0.114598624431312857E+03    0.530444636559479079E+02   -0.523423190228513477E+03
   -0.523798416546290113E+00    0.262636416726262922E+01   -0.125842434614604315E+01    0.115100310369586836E+03    0.521883468980450971E+02   -0.523415037918583266E+03
   -0.518539421455570526E+00    0.263294037285878080E+01   -0.126186189449508124E+01    0.115129566392678811E+03    0.523979201121180722E+02   -0.523411750021061266E+03
   -0.521354048127513181E+00    0.262400245641565633E+01   -0.125856196046685564E+01    0.114590213482902399E+03    0.531146898120549054E+02   -0.523401534189671338E+03
   -0.521354048127513181E+00    0.262400245641565633E+01   -0.125856196046685564E+01    0.114590213482902399E+03    0.531146898120549054E+02   -0.523401534189671338E+03
   -0.499185288343156230E+00    0.261700927629916302E+01   -0.126152336353010774E+01    0.115383212203857283E+03    0.511822248065457188E+02   -0.523397837877602910E+03
   -0.509007313893046209E+00    0.262387448886235353E+01   -0.126669495379823527E+01    0.114816492429874700E+03    0.529244960345055233E+02   -0.523397253663011270E+03
   -0.515103182258421555E+00    0.263454446495455530E+01   -0.127078477068591233E+01    0.114772675167524426E+03    0.528267963709961634E+02   -0.523392552916263980E+03
   -0.514598257667659986E+00    0.262719149796022489E+01   -0.125972633900957298E+01    0.115088956664494333E+03    0.517572937152537520E+02   -0.523385514040866383E+03
   -0.495041223034789368E+00    0.260726936577789070E+01   -0.125236828871007866E+01    0.114851475656867365E+03    0.519865651801739546E+02   -0.523383175613909316E+03
   -0.528072867851261840E+00    0.263806051277269749E+01   -0.126256700637712083E+01    0.114429944963698460E+03    0.525023319564035660E+02   -0.523380830099697960E+03
   -0.534405832428709537E+00    0.263820727775951269E+01   -0.126457822568546696E+01    0.114650604710721140E+03    0.529958595592170525E+02   -0.523370396409761497E+03
   -0.499481660355133528E+00    0.262337805760527987E+01   -0.126615466101035867E+01    0.115775558562946443E+03    0.515727899238610235E+02   -0.523359622720123753E+03
   -0.524729785071631483E+00    0.263883385619700928E+01   -0.126552779574960894E+01    0.114162357608596565E+03    0.528659129808482362E+02   -0.523351180495844119E+03
   -0.521744125266112135E+00    0.262339684327129374E+01   -0.126350985530146254E+01    0.115276032909804528E+03    0.522583197280453930E+02   -0.523349722926708523E+03
   -0.521744125266112135E+00    0.262339684327129374E+01   -0.126350985530146254E+01    0.115276032909804528E+03    0.522583197280453930E+02   -0.523349722926708523E+03
   -0.496385801954639660E+00    0.261303250514347818E+01   -0.125599959593171207E+01    0.114540557289309433E+03    0.518689428859107409E+02   -0.523344496846140942E+03
   -0.512344654177529613E+00    0.263311488198894494E+01   -0.126526504610796575E+01    0.114492231822703417E+03    0.520297189379502072E+02   -0.523320939388898410E+03
   -0.495411065930416505E+00    0.260766383865150164E+01   -0.125635191676929558E+01    0.115496347534498398E+03    0.515159503957520997E+02   -0.523319297603555583E+03
   -0.528171022495732778E+00    0.262846830103718254E+01   -0.126051625358483399E+01    0.114729352101934637E+03    0.527681541363388931E+02   -0.523309318685998619E+03
   -0.528171022495732778E+00    0.262846830103718254E+01   -0.126051625358483399E+01    0.114729352101934637E+03    0.527681541363388931E+02   -0.523309318685998619E+03
   -0.538977569178129556E+00    0.264332296048185800E+01   -0.126612508130881363E+01    0.114863945130020255E+03    0.522065966030996549E+02   -0.523304656355116549E+03
   -0.538977569178129556E+00    0.264332296048185800E+01   -0.126612508130881363E+01    0.114863945130020255E+03    0.522065966030996549E+02   -0.523304656355116549E+03
   -0.494711809611477094E+00    0.261576878828702819E+01   -0.126330739556560001E+01    0.115549274952289963E+03    0.526045883151825251E+02   -0.523303274683881682E+03
   -0.507944463415267222E+00    0.261180372210579126E+01   -0.125764189710881613E+01    0.114673622276138161E+03    0.525120180897293949E+02   -0.523300829227457257E+03
   -0.520572172918746467E+00    0.263215716988910531E+01   -0.126376462912681653E+01    0.115344163114790803E+03    0.513807949305928844E+02   -0.523300137217193424E+03
   -0.510814473458429674E+00    0.262775452442531154E+01   -0.126667455155087083E+01    0.114780791094310587E+03    0.515165311010178470E+02   -0.523299083316074757E+03
   -0.510023152799244706E+00    0.262106456297799584E+01   -0.126195903274914123E+01    0.114363034595062004E+03    0.519793948798358656E+02   -0.523298143555753995E+03
   -0.524093003654119372E+00    0.264449157037899862E+01   -0.127456656918001698E+01    0.115701739588409566E+03    0.521383896500611002E+02   -0.523297526374057384E+03
   -0.532185737179350582E+00    0.264830290472290208E+01   -0.127095969361170535E+01    0.115375980196217157E+03    0.521093097907094034E+02   -0.523289966722008558E+03
   -0.516246749046795905E+00    0.262752704314526486E+01   -0.126841984121131368E+01    0.115318984222076139E+03    0.514438526751255552E+02   -0.523285424579787332E+03
   -0.486605712814117908E+00    0.260365386855178960E+01   -0.125527680250485840E+01    0.115448099182584556E+03    0.520020217171079935E+02   -0.523256841270565815E+03
   -0.495233680372813012E+00    0.261752095083548486E+01   -0.126599315389832778E+01    0.115070958036800803E+03    0.522114433524905905E+02   -0.523245900516996585E+03
   -0.497851953527177926E+00    0.260815628734366056E+01   -0.125491595274823720E+01    0.114632947528531034E+03    0.518246639489340168E+02   -0.523233850129748362E+03
   -0.513988453928291733E+00    0.262316911649997753E+01   -0.126652649485005675E+01    0.115585051419129940E+03    0.514950524644733036E+02   -0.523230559765306566E+03
   -0.508368485870020592E+00    0.261857248941892085E+01   -0.125636779028048551E+01    0.114858093092854659E+03    0.517591989006496362E+02   -0.523222656726287141E+03
   -0.521542096283045709E+00    0.262531474319534164E+01   -0.126022094972712217E+01    0.114244452392036465E+03    0.525222429889350906E+02   -0.523217420053363298E+03
   -0.526156170424608050E+00    0.263854541421384203E+01   -0.126428714195758651E+01    0.114575059581493051E+03    0.530019102489611669E+02   -0.523203489813579722E+03
   -0.526626052023722480E+00    0.262790925895085170E+01   -0.125958407899946234E+01    0.115010097310700033E+03    0.523425103588465106E+02   -0.523196182892924639E+03
   -0.526626052023722480E+00    0.262790925895085170E+01   -0.125958407899946234E+01    0.115010097310700033E+03    0.523425103588465106E+02   -0.523196182892924639E+03
   -0.489922903082751660E+00    0.260204159587162476E+01   -0.125335581152492193E+01    0.114862536722478183E+03    0.519436097468245634E+02   -0.523181623052127293E+03
   -0.536780052345168457E+00    0.264942748748400136E+01   -0.127383589882718873E+01    0.115346278296311397E+03    0.516960731457243980E+02   -0.523166200213110869E+03
   -0.498044332848140314E+00    0.261232886610138904E+01   -0.125714880414614694E+01    0.114948621020561930E+03    0.515019651115173360E+02   -0.523160503437194279E+03
   -0.511690401093969349E+00    0.263467170434277875E+01   -0.127228559117159179E+01    0.115190530926845881E+03    0.518855469499875710E+02   -0.523160148787738990E+03
   -0.536460896567987788E+00    0.264733205140817951E+01   -0.127248364059623764E+01    0.114764142759640876E+03    0.525538776647897237E+02   -0.523152123074970177E+03
   -0.498801608412765773E+00    0.262141401502344928E+01   -0.126314286516585383E+01    0.114871645872482446E+03    0.529564424973833923E+02   -0.523148880951600063E+03
   -0.510273663851920745E+00    0.261486057865916832E+01   -0.125563635583607702E+01    0.115081505976272609E+03    0.527311917275477811E+02   -0.523146486905251777E+03
   -0.534676831872767266E+00    0.263982677681467459E+01   -0.126607969255275066E+01    0.115235313998630645E+03    0.517942843440266927E+02   -0.523142916035805797E+03
   -0.534676831872767266E+00    0.263982677681467459E+01   -0.126607969255275066E+01    0.115235313998630645E+03    0.517942843440266927E+02   -0.523142916035805797E+03
   -0.498451956122583084E+00    0.262100668529089331E+01   -0.126582154266329994E+01    0.115290600141298654E+03    0.526937856980545689E+02   -0.523139817875242443E+03
   -0.518434310260547093E+00    0.263005016339378539E+01   -0.126172668433789159E+01    0.114887203071805700E+03    0.531265698024105291E+02   -0.523131514651951306E+03
   -0.488129427048873410E+00    0.261014651301554235E+01   -0.125798366219814017E+01    0.115245242835529609E+03    0.523857921000677891E+02   -0.523125715044400863E+03
   -0.488129427048873410E+00    0.261014651301554235E+01   -0.125798366219814017E+01    0.115245242835529609E+03    0.523857921000677891E+02   -0.523125715044400863E+03
   -0.538979860048626414E+00    0.264817433498117483E+01   -0.127248896127622579E+01    0.115540588251789046E+03    0.519536760585394006E+02   -0.523124441511654709E+03
   -0.521087850300176569E+00    0.263554242156008423E+01   -0.126377386374522249E+01    0.114728104269511519E+03    0.518715322014668629E+02   -0.523115448133793961E+03
   -0.498920471892832396E+00    0.261754173965449199E+01   -0.125813592074289549E+01    0.115249090280511368E+03    0.523077393886085815E+02   -0.523104089551814809E+03
   -0.538531217055693290E+00    0.265056992683582182E+01   -0.127141329827862393E+01    0.115108870517589750E+03    0.523971618563848267E+02   -0.523101795254271565E+03
   -0.519195113726748758E+00    0.263055509796132148E+01   -0.126957564916998411E+01    0.115974581744401533E+03    0.517507662081318074E+02   -0.523100381718973040E+03
   -0.523573368785207549E+00    0.263443289373342227E+01   -0.126155323179175127E+01    0.114799525419018266E+03    0.523308273370752488E+02   -0.523074744423500306E+03
   -0.523573368785207549E+00    0.263443289373342227E+01   -0.126155323179175127E+01    0.114799525419018266E+03    0.523308273370752488E+02   -0.523074744423500306E+03
   -0.496388630510990581E+00    0.260948824198152263E+01   -0.125808517310746026E+01    0.115011838559943271E+03    0.529743723013119450E+02   -0.523069575532318595E+03
   -0.498697573476001743E+00    0.261790781985933307E+01   -0.126427536530768769E+01    0.114842447568173583E+03    0.527835883920535025E+02   -0.523038754760819643E+03
   -0.528518217582845118E+00    0.264521582640882302E+01   -0.127377881931155734E+01    0.114899236169448187E+03    0.521641337900560984E+02   -0.523024525727703008E+03
   -0.505250682749085911E+00    0.262147008535649162E+01   -0.126350377283492055E+01    0.115919941243893817E+03    0.515783830866013489E+02   -0.523019253741945477E+03
   -0.505250682749085911E+00    0.262147008535649162E+01   -0.126350377283492055E+01    0.115919941243893817E+03    0.515783830866013489E+02   -0.523019253741945477E+03
   -0.513847752889160070E+00    0.262549152276069098E+01   -0.126734828629647023E+01    0.115979107011047375E+03    0.517209271415035801E+02   -0.523017104142542280E+03
   -0.510953798648024815E+00    0.263099534084005304E+01   -0.126789828321822107E+01    0.114783235612372238E+03    0.517075567101750266E+02   -0.523006070418841546E+03
   -0.524082864341468557E+00    0.263948905132609868E+01   -0.126949454488085145E+01    0.114516423228785712E+03    0.520870844472512147E+02   -0.523004773864779509E+03
   -0.509287854755594793E+00    0.262692740388229184E+01   -0.126561656406606637E+01    0.115440973517830884E+03    0.512239172074145586E+02   -0.523002538394157682E+03
   -0.507393972813336092E+00    0.262154459479360735E+01   -0.126583036939203808E+01    0.115858967446002723E+03    0.522804456997262434E+02   -0.522998300630986705E+03
   -0.493083313169361048E+00    0.261208341941075339E+01   -0.125807304911681239E+01    0.115210428934741159E+03    0.527105269506857326E+02   -0.522990219826859629E+03
   -0.518933316236854125E+00    0.263947123630787495E+01   -0.126847524877572759E+01    0.114715316427289352E+03    0.520683706878132568E+02   -0.522982446342048547E+03
   -0.530740600257690431E+00    0.264357477380735562E+01   -0.127402254114709290E+01    0.115667990919324126E+03    0.520313934505570899E+02   -0.522982113933546884E+03
   -0.503938092416245098E+00    0.262087051716437713E+01   -0.126069065314223039E+01    0.114486112824614196E+03    0.518452738012558143E+02   -0.522975278274883522E+03
   -0.521875639438912131E+00    0.262592704473754024E+01   -0.126000786816459520E+01    0.115179621345215921E+03    0.518209604738844689E+02   -0.522971898235012759E+03
   -0.507670673101699776E+00    0.261435393931662929E+01   -0.125582531210402237E+01    0.115037948063439146E+03    0.528203005524126752E+02   -0.522952484371959372E+03
   -0.516667458067576746E+00    0.262579821526491175E+01   -0.126125606584036376E+01    0.115380661930292035E+03    0.515094204269109355E+02   -0.522942750995321148E+03
   -0.514790974105161503E+00    0.262331976113486620E+01   -0.126305362246739961E+01    0.114638145485331819E+03    0.530502313644709886E+02   -0.522940920752643819E+03
   -0.497997261212811182E+00    0.262112929316177823E+01   -0.126160107182638992E+01    0.115119957636420736E+03    0.524040991125586118E+02   -0.522930898159076946E+03
   -0.530831189300080553E+00    0.263803236903687166E+01   -0.126500308900284431E+01    0.115021342487847576E+03    0.528453613819314683E+02   -0.522928186989047845E+03
   -0.516899804683403019E+00    0.262626440442523235E+01   -0.126474077243863814E+01    0.115006235239933005E+03    0.530572234124386455E+02   -0.522915755086974741E+03
   -0.500284897544823082E+00    0.262041688178612553E+01   -0.126388818013817072E+01    0.114594000890866013E+03    0.528233651072391126E+02   -0.522910435565920125E+03
   -0.506984248108336644E+00    0.262809668525852613E+01   -0.126888325103461153E+01    0.115434333031528169E+03    0.525713964163318508E+02   -0.522910099426988381E+03
   -0.527431222410726264E+00    0.264005836053539600E+01   -0.127128529242065635E+01    0.115808309388800907E+03    0.515463869627200211E+02   -0.522909443457812358E+03
   -0.505537239412355177E+00    0.262324542495245483E+01   -0.126698722816544773E+01    0.114906349867438337E+03    0.518990538810089390E+02   -0.522903947845199809E+03
   -0.535305132936629846E+00    0.264447924671027623E+01   -0.126880413793919633E+01    0.115084996581878841E+03    0.518145899781307548E+02   -0.522894592485702105E+03
   -0.496295903819818918E+00    0.260709118766621595E+01   -0.125566084528473088E+01    0.114614444153282307E+03    0.528401418247560741E+02   -0.522891524323837189E+03
   -0.525222451050732175E+00    0.264110024841538982E+01   -0.127214306204896310E+01    0.115366423415085549E+03    0.514672519137178881E+02   -0.522886007768919626E+03
   -0.497586742471218813E+00    0.261927606646018063E+01   -0.126048266675594345E+01    0.114542074624481245E+03    0.522110210954072329E+02   -0.522880188683642018E+03
   -0.524937369239503404E+00    0.263537820910788234E+01   -0.126724856020247589E+01    0.114670941812223191E+03    0.518027002602011919E+02   -0.522868555407592225E+03
   -0.513612770300177601E+00    0.262505231394895855E+01   -0.126447770705896367E+01    0.115778748895695387E+03    0.513716906383875198E+02   -0.522863908094520070E+03
   -0.502897766332775831E+00    0.262184097351345446E+01   -0.126266467919015568E+01    0.115224968065635451E+03    0.528942599191556724E+02   -0.522863327757149591E+03
   -0.515831201519903360E+00    0.263719231993617154E+01   -0.127068207316270687E+01    0.115599512696699350E+03    0.516396021287987992E+02   -0.522862240962546934E+03
   -0.513850058137430565E+00    0.261964545447568664E+01   -0.126030702100497916E+01    0.115195808205237043E+03    0.528446670140591550E+02   -0.522858537660051638E+03
   -0.511656761576015029E+00    0.263476399128709859E+01   -0.126782105723938621E+01    0.114844136151862358E+03    0.521097980496847129E+02   -0.522851603362442120E+03
   -0.526617602765899306E+00    0.264057923705823772E+01   -0.126860003391103593E+01    0.114968571765828443E+03    0.516172914897473731E+02   -0.522841977248976264E+03
   -0.501876088868892012E+00    0.262612672848378459E+01   -0.126536632321386744E+01    0.114944254966821845E+03    0.519381295829549288E+02   -0.522839772182858269E+03
   -0.521464976276025283E+00    0.262335551033950320E+01   -0.126191321111606491E+01    0.115057646114638118E+03    0.523041987484569688E+02   -0.522834660835587783E+03
   -0.512153752242857863E+00    0.262572165294592219E+01   -0.126392772064253833E+01    0.115260378694439396E+03    0.530160158356516433E+02   -0.522831286639412269E+03
   -0.519772201695186453E+00    0.263329074605969193E+01   -0.126337474298875740E+01    0.115189402487076862E+03    0.526334816510884878E+02   -0.522813911699861251E+03
   -0.518699121544534236E+00    0.262832098520650126E+01   -0.126022616877658677E+01    0.114585377383331476E+03    0.530632659216889806E+02   -0.522811243159789115E+03
   -0.497256987649855375E+00    0.260859546256077124E+01   -0.125781560338321974E+01    0.114634808042917271E+03    0.524093717171244009E+02   -0.522810519684478095E+03
   -0.535568381056665821E+00    0.264818309343365366E+01   -0.127274991512987246E+01    0.115318350258152918E+03    0.523818940042696113E+02   -0.522810104175012157E+03
   -0.503677788440334950E+00    0.262436736983726382E+01   -0.126514800760526924E+01    0.115228740996485641E+03    0.514450955059427315E+02   -0.522796343738129508E+03
   -0.517891239096110567E+00    0.262752293993707831E+01   -0.126568597493292589E+01    0.115618471652809205E+03    0.513591502466945542E+02   -0.522793890105635228E+03
   -0.508778882535800392E+00    0.262138238020615777E+01   -0.126639869310850628E+01    0.115298446740264268E+03    0.517942636353829755E+02   -0.522788453015225855E+03
   -0.507680751916566919E+00    0.262389242027376657E+01   -0.126802472390654675E+01    0.115175812762966743E+03    0.519533003082681262E+02   -0.522777028236268620E+03
   -0.521211261397375836E+00    0.264055169360718622E+01   -0.127087408240458455E+01    0.115358061811511902E+03    0.516130317618081165E+02   -0.522766287855274641E+03
   -0.519929826788189331E+00    0.264085477721192241E+01   -0.126949518741895329E+01    0.115013164010732751E+03    0.521007438404266736E+02   -0.522759588025955622E+03
   -0.525105118515407199E+00    0.263099640687774761E+01   -0.126115910747274196E+01    0.115025407686293633E+03    0.520609129577380259E+02   -0.522742704012372656E+03
   -0.506081894106460872E+00    0.261959829199630523E+01   -0.125718257503093067E+01    0.114479442878382983E+03    0.521788022358515491E+02   -0.522739942584679170E+03
   -0.530841912647636249E+00    0.263693167991348254E+01   -0.126865808032521432E+01    0.115285422971360035E+03    0.525147817928457528E+02   -0.522733827491449006E+03
   -0.516277109670488343E+00    0.262270165997284188E+01   -0.126414503466055272E+01    0.114951778568689235E+03    0.521237228998765545E+02   -0.522728321404010217E+03
   -0.490638550204607782E+00    0.260605959540323173E+01   -0.125617994569428948E+01    0.115302805906112837E+03    0.523486566530103516E+02   -0.522716948859894501E+03
   -0.532445775985574521E+00    0.264248353617681930E+01   -0.126940714744035077E+01    0.115020547801463920E+03    0.517536215165623048E+02   -0.522701825300024439E+03
   -0.521860878885687995E+00    0.263769421460051356E+01   -0.126904455809450756E+01    0.115682204819237867E+03    0.522997399654183255E+02   -0.522695242341681364E+03
   -0.518204188422312306E+00    0.262407477886076146E+01   -0.126033105661985534E+01    0.115013182382320267E+03    0.517064410180610707E+02   -0.522685396535071845E+03
   -0.505936367396330411E+00    0.261635025103450536E+01   -0.126206245107952242E+01    0.115648957600791618E+03    0.523033790592106698E+02   -0.522683687976115721E+03
   -0.517449930307979145E+00    0.263022749682754675E+01   -0.126286539725806080E+01    0.114437609762531181E+03    0.531209312371636884E+02   -0.522682429926761415E+03
   -0.526000640944227271E+00    0.263322563929061548E+01   -0.126772527403515589E+01    0.115621155067930758E+03    0.523013512991250593E+02   -0.522677935617058893E+03
   -0.505915588102410219E+00    0.262302699835658926E+01   -0.126268212463070650E+01    0.114301866543400806E+03    0.527311470762127499E+02   -0.522668925209884947E+03
   -0.509261769123388497E+00    0.262766634215405670E+01   -0.126627521170006840E+01    0.114942916954978784E+03    0.515742688577994954E+02   -0.522667719140651570E+03
   -0.526564207292052444E+00    0.263622735931070373E+01   -0.126643305226021585E+01    0.115432692241815374E+03    0.515862562725324949E+02   -0.522657645575639890E+03
   -0.505189931772419776E+00    0.261999805299431499E+01   -0.126492747686300255E+01    0.115565781384071386E+03    0.514374727862550571E+02   -0.522649126003989181E+03
   -0.515023353500403402E+00    0.263727068360229078E+01   -0.126910393581031578E+01    0.115209196493670575E+03    0.522134296270027107E+02   -0.522648236597220830E+03
   -0.496832888746702395E+00    0.260985294371613907E+01   -0.125850046749276423E+01    0.115415962799605509E+03    0.524798634257928711E+02   -0.522644880908706796E+03
   -0.508096302144123158E+00    0.263095900667513138E+01   -0.126874186705173742E+01    0.114967157856649294E+03    0.524727370902517976E+02   -0.522643636310781176E+03
   -0.510310740636746196E+00    0.263027958388927541E+01   -0.126640081571051688E+01    0.115583318904092806E+03    0.522738905380848280E+02   -0.522642487916451046E+03
   -0.519493017871279328E+00    0.262836571259405227E+01   -0.126207053249539491E+01    0.115039709490675776E+03    0.529673153597784392E+02   -0.522629062712210271E+03
   -0.522999541168681858E+00    0.263955639390419705E+01   -0.127024507254781494E+01    0.115702136208984868E+03    0.517989369769854022E+02   -0.522622720252788213E+03
   -0.505447836153729568E+00    0.262210884327966687E+01   -0.126346590493408328E+01    0.115461376877465170E+03    0.527094650633713684E+02   -0.522621942929715715E+03
   -0.498645228273950636E+00    0.261747592778693727E+01   -0.126283058693034000E+01    0.115503693650134935E+03    0.525000608115128671E+02   -0.522603015496175999E+03
   -0.503193545369956752E+00    0.261239463846106990E+01   -0.125733791158379216E+01    0.114929529461473493E+03    0.517657703289459903E+02   -0.522601293361777721E+03
   -0.498572660676612323E+00    0.261450776453097111E+01   -0.126167288104851316E+01    0.114684385833979704E+03    0.525388579895607677E+02   -0.522597380930779877E+03
   -0.494195142298229584E+00    0.260975991637952953E+01   -0.125502225816767954E+01    0.114947491305741138E+03    0.524410037396641258E+02   -0.522596876692115984E+03
   -0.504435811936605916E+00    0.261905708706104257E+01   -0.126118637274643142E+01    0.114906541986477094E+03    0.515584518977234154E+02   -0.522595453599978214E+03
   -0.508208562463142499E+00    0.262681948534056264E+01   -0.126629961826274595E+01    0.114607156426299042E+03    0.521623873327726244E+02   -0.522591318848755009E+03
   -0.504411234276195941E+00    0.261902904458665109E+01   -0.126355426476325228E+01    0.115493845383001130E+03    0.514081459254173296E+02   -0.522578558379849596E+03
   -0.510662037336892638E+00    0.263224754133316630E+01   -0.126840789082029293E+01    0.115582046371896752E+03    0.518665825650149372E+02   -0.522573785476170428E+03
   -0.503254661387472879E+00    0.261614887972597643E+01   -0.125904395512382550E+01    0.115570898689493688E+03    0.521929285491962958E+02   -0.522570053702718724E+03
   -0.508942894434180282E+00    0.262334099589377479E+01   -0.125918649376139324E+01    0.114792029629270445E+03    0.519836882800523767E+02   -0.522560137427853078E+03
   -0.492213251498743176E+00    0.261203401010438307E+01   -0.125933644798278355E+01    0.115323030080602337E+03    0.518638629891148923E+02   -0.522559523447013135E+03
   -0.508851840415721846E+00    0.261645885337554684E+01   -0.125785270487697787E+01    0.114477530371020407E+03    0.528952050603334669E+02   -0.522558651343597035E+03
   -0.508893682503650524E+00    0.262584944990801716E+01   -0.126190018773622814E+01    0.115063600375490807E+03    0.527933620963621593E+02   -0.522554549583282551E+03
   -0.488909047846366462E+00    0.260606897341615351E+01   -0.125677475131857808E+01    0.114868992008478926E+03    0.523655790976919491E+02   -0.522552915943015705E+03
   -0.505868686367280773E+00    0.262656974170377522E+01   -0.126905797495955142E+01    0.115402324419494320E+03    0.518829835831840853E+02   -0.522552585868177061E+03
   -0.503077572106022330E+00    0.261816426606520114E+01   -0.125793579519177712E+01    0.115089549051970877E+03    0.525741909426320149E+02   -0.522542429179736246E+03
   -0.517264728272234464E+00    0.263420319480602405E+01   -0.126558516734820792E+01    0.115154083069654931E+03    0.525478384181441243E+02   -0.522325482746474108E+03
   -0.520898428683958414E+00    0.262981775188753009E+01   -0.126096728154679205E+01    0.114581291167097078E+03    0.523159990119330303E+02   -0.522332888143592413E+03
   -0.496500434501117027E+00    0.260899893636312274E+01   -0.125809984945508546E+01    0.115140723949132635E+03    0.518213532949649505E+02   -0.522481435612330529E+03
   -0.511698524948041467E+00    0.262706605696677276E+01   -0.126418329407232122E+01    0.114795769136497881E+03    0.524525325088179670E+02   -0.521594352219149528E+03
   -0.511698524948041467E+00    0.262706605696677276E+01   -0.126418329407232122E+01    0.114795769136497881E+03    0.524525325088179670E+02   -0.521594352219149528E+03
   -0.519405081162846116E+00    0.263422555800658920E+01   -0.126773934644575892E+01    0.115199342767077397E+03    0.522742620515324745E+02   -0.521640013976678574E+03
   -0.503815531381631487E+00    0.261670969275595233E+01   -0.125973368584509338E+01    0.114739912412190364E+03    0.529883186853042787E+02   -0.522380583041712725E+03
   -0.515699182304340198E+00    0.263242908698547895E+01   -0.126810698532277311E+01    0.115347291288264415E+03    0.519767312909641817E+02   -0.521751197254245085E+03
   -0.506014467514431132E+00    0.262206389630321013E+01   -0.126371658125895348E+01    0.114878415743152090E+03    0.519349936885265606E+02   -0.521950158683165682E+03
   -0.514100501299683543E+00    0.261967666986656056E+01   -0.126003066322885360E+01    0.114871397769569541E+03    0.525990888403315466E+02   -0.522229527110521417E+03
   -0.513199694696211850E+00    0.262780878970075138E+01   -0.126241724326396820E+01    0.114491196101514007E+03    0.529231256392325804E+02   -0.522289647373609114E+03
   -0.524838247609826780E+00    0.262841766692239753E+01   -0.126196669728749544E+01    0.114653831397380131E+03    0.523627173867735962E+02   -0.522524393956025619E+03
   -0.517134067896466654E+00    0.263357264209652131E+01   -0.126792318796138392E+01    0.115179441253715666E+03    0.526422479234237528E+02   -0.522066781194430746E+03
   -0.508137656781849856E+00    0.262682671445799354E+01   -0.126289975294836943E+01    0.114657374552583974E+03    0.520615343246878695E+02   -0.522382161676554233E+03
   -0.520128359035242127E+00    0.262491535448626845E+01   -0.126276367184832150E+01    0.115458860296141054E+03    0.519334776352851009E+02   -0.522502701394342921E+03
   -0.516915459841756686E+00    0.262066522893031051E+01   -0.125857014590373595E+01    0.114933195621495912E+03    0.523606757439073363E+02   -0.522392543166779546E+03
   -0.511102953947030869E+00    0.262634008842579902E+01   -0.126619923926508537E+01    0.114956055141554685E+03    0.524926638978379572E+02   -0.521892795340925886E+03
   -0.514278953567576025E+00    0.262580350839863197E+01   -0.126264824995250180E+01    0.115277250757023936E+03    0.525225372939231079E+02   -0.521882452694887547E+03
   -0.514278953567576025E+00    0.262580350839863197E+01   -0.126264824995250180E+01    0.115277250757023936E+03    0.525225372939231079E+02   -0.521882452694887547E+03
   -0.517474565964759492E+00    0.262948675239085983E+01   -0.126540265273962671E+01    0.115293861850440905E+03    0.518962543544233483E+02   -0.521643793395906187E+03
   -0.517474565964759492E+00    0.262948675239085983E+01   -0.126540265273962671E+01    0.115293861850440905E+03    0.518962543544233483E+02   -0.521643793395906187E+03
   -0.512315259833927783E+00    0.262371583992197888E+01   -0.126382291704379490E+01    0.115164903147028426E+03    0.514786751886751119E+02   -0.522453142608672124E+03
   -0.502086268277572856E+00    0.262064208417856559E+01   -0.126130376587837212E+01    0.115028379379740443E+03    0.521595564097696354E+02   -0.521903172805304848E+03
   -0.502086268277572856E+00    0.262064208417856559E+01   -0.126130376587837212E+01    0.115028379379740443E+03    0.521595564097696354E+02   -0.521903172805304848E+03
   -0.516665632848836154E+00    0.262853460051413634E+01   -0.126160687096436952E+01    0.114834411340697145E+03    0.528567528671102878E+02   -0.522278669587098420E+03
   -0.504645748822571072E+00    0.261836708096627868E+01   -0.125996099896303537E+01    0.114568423928981872E+03    0.528464120375309676E+02   -0.522125583581930186E+03
   -0.494106336167077664E+00    0.261022841699646646E+01   -0.125662428956125449E+01    0.114761362102175482E+03    0.525115232859302807E+02   -0.522241577423850686E+03
   -0.523790281549743497E+00    0.263727816330575715E+01   -0.127132060050671392E+01    0.115504065232011925E+03    0.522326407204240866E+02   -0.522366382511300571E+03
   -0.527036064529974979E+00    0.264092127872581139E+01   -0.127223423722053663E+01    0.115638235153888118E+03    0.519185665731819199E+02   -0.522489017882765097E+03
   -0.505174797652649055E+00    0.262187203119351508E+01   -0.126342955160067305E+01    0.115298477211640375E+03    0.525269525197376197E+02   -0.521944908127106714E+03
   -0.508252154548662460E+00    0.262294789442517740E+01   -0.126434646114021643E+01    0.115235536658372340E+03    0.514274758869404423E+02   -0.522465609964253645E+03
   -0.511797510282359980E+00    0.262703989597535514E+01   -0.126489578726116214E+01    0.115017356612301853E+03    0.521242897283551088E+02   -0.521491909272934095E+03
   -0.511797510282359980E+00    0.262703989597535514E+01   -0.126489578726116214E+01    0.115017356612301853E+03    0.521242897283551088E+02   -0.521491909272934095E+03
   -0.513927929702079567E+00    0.262528998015549586E+01   -0.126230236832374221E+01    0.115026519286243911E+03    0.515136149366361735E+02   -0.522537152047865675E+03
   -0.514896666745478626E+00    0.262243366175595938E+01   -0.125841031975313378E+01    0.114604569265201945E+03    0.520820332512704169E+02   -0.522506214070641363E+03
   -0.515675566851898637E+00    0.263109675997247905E+01   -0.126514172150626258E+01    0.115121361152058199E+03    0.525115362492628037E+02   -0.521782532479939505E+03
   -0.515675566851898637E+00    0.263109675997247905E+01   -0.126514172150626258E+01    0.115121361152058199E+03    0.525115362492628037E+02   -0.521782532479939505E+03
   -0.507393527445302972E+00    0.262521544662853579E+01   -0.126513906234846285E+01    0.115137571609491872E+03    0.524947572700350804E+02   -0.521800858785333503E+03
   -0.507393527445302972E+00    0.262521544662853579E+01   -0.126513906234846285E+01    0.115137571609491872E+03    0.524947572700350804E+02   -0.521800858785333503E+03
   -0.516502624518368592E+00    0.262760495202160582E+01   -0.126559229445570676E+01    0.115726379641326844E+03    0.520460750581145533E+02   -0.522234006381168228E+03
   -0.507890774709648163E+00    0.262766580364246938E+01   -0.126580948259600490E+01    0.114595470417702785E+03    0.523078290449624603E+02   -0.522407587761209129E+03
   -0.498278228129358070E+00    0.261305168166917401E+01   -0.125788617441145689E+01    0.114510123448730951E+03    0.523535201960098391E+02   -0.522286254172197459E+03
   -0.496337970814062501E+00    0.261090273935854800E+01   -0.125788757827742437E+01    0.114784254717145245E+03    0.527818107902108409E+02   -0.522372030488240171E+03
   -0.498525984957855606E+00    0.261670360788832790E+01   -0.126140603163159071E+01    0.115446400036579263E+03    0.518743276108443183E+02   -0.522178116640227472E+03
   -0.519999120848998686E+00    0.263546087765221060E+01   -0.126885742115820044E+01    0.114696356949391429E+03    0.526531274429694633E+02   -0.522369958218175384E+03
   -0.506202320931176786E+00    0.262306345323143608E+01   -0.126610615226437062E+01    0.115509424515731112E+03    0.520506668596566726E+02   -0.522003736700361856E+03
   -0.532911692038551266E+00    0.264298463072199841E+01   -0.126942369726361814E+01    0.115052167813862283E+03    0.524839861259571023E+02   -0.522319642073950376E+03
   -0.503900868224130605E+00    0.262108003145064572E+01   -0.126481838346792319E+01    0.115270360392945705E+03    0.522553737156487159E+02   -0.521873886537695739E+03
   -0.519992687508715967E+00    0.263175396219587787E+01   -0.126753190062136945E+01    0.114687949835570137E+03    0.520802511531499874E+02   -0.522535730971915882E+03
   -0.519445520737623845E+00    0.262891984537483081E+01   -0.126322449789991964E+01    0.114891546147078841E+03    0.521481869342877644E+02   -0.521679968549017758E+03
   -0.519705334832699428E+00    0.262985357034326839E+01   -0.126384660916217495E+01    0.115443309184663050E+03    0.524980806481516709E+02   -0.522333724244211680E+03
   -0.497968056990520935E+00    0.261035248498000083E+01   -0.125680509538101592E+01    0.115208074399571672E+03    0.521719083540035626E+02   -0.522184027187936749E+03
   -0.519050990785762778E+00    0.263261072096381721E+01   -0.126298999748332541E+01    0.114634011664166579E+03    0.521796337315741994E+02   -0.522362106117452413E+03
   -0.520317429482462401E+00    0.263997823686511968E+01   -0.127077473784482020E+01    0.115112901002563987E+03    0.521771955129466392E+02   -0.522304872496383723E+03
   -0.508242158959691714E+00    0.261395159136697286E+01   -0.125771841444921506E+01    0.115165142802948182E+03    0.523914363711298563E+02   -0.522452753486528536E+03
   -0.513537478006317549E+00    0.262081422545966314E+01   -0.125989924940892273E+01    0.115020560203805289E+03    0.528883940168807101E+02   -0.522473755631284007E+03
   -0.519643758770751418E+00    0.262579123389410007E+01   -0.126370602148368416E+01    0.115190083013622257E+03    0.519940480608482574E+02   -0.522106862834334720E+03
   -0.512766054431847529E+00    0.262022560737193277E+01   -0.126235464893681826E+01    0.115389022145285622E+03    0.520769244680695635E+02   -0.522152841026808460E+03
   -0.507349472658651379E+00    0.261868629070175940E+01   -0.126177589233994958E+01    0.115566647292194446E+03    0.524500539055487423E+02   -0.522419094755449919E+03
   -0.511044362912141281E+00    0.262257838837106005E+01   -0.126242094533744265E+01    0.115188926220548439E+03    0.519960261516530977E+02   -0.521565081895842241E+03
   -0.511044362912141281E+00    0.262257838837106005E+01   -0.126242094533744265E+01    0.115188926220548439E+03    0.519960261516530977E+02   -0.521565081895842241E+03
   -0.517944084400412841E+00    0.263146819787729624E+01   -0.126822309033626546E+01    0.115778923460849057E+03    0.522649603934347340E+02   -0.522527178896872101E+03
   -0.525907955327474141E+00    0.263814672697180441E+01   -0.126904021601459416E+01    0.115426569646718264E+03    0.523441360350547598E+02   -0.522102025994075802E+03
   -0.516745095725415382E+00    0.262918577696751532E+01   -0.126758233064506154E+01    0.115148810219952551E+03    0.516992773100637066E+02   -0.522302289709886736E+03
   -0.491990977043605504E+00    0.260610062194008352E+01   -0.125647722278374552E+01    0.114938467046195797E+03    0.523240993371338732E+02   -0.522425176335056221E+03
   -0.497605790530840864E+00    0.261264056316722293E+01   -0.125825676483613336E+01    0.114729984712924676E+03    0.522569546793302777E+02   -0.522029804511320890E+03
   -0.516438986722574711E+00    0.262934683762656141E+01   -0.126496571257487567E+01    0.115136654277874058E+03    0.520666488916470485E+02   -0.521484596248772959E+03
   -0.516438986722574711E+00    0.262934683762656141E+01   -0.126496571257487567E+01    0.115136654277874058E+03    0.520666488916470485E+02   -0.521484596248772959E+03
   -0.524920337358313560E+00    0.263545593377709153E+01   -0.126698787677216451E+01    0.115436726395994086E+03    0.518770779258232437E+02   -0.522055622564167834E+03
   -0.510721402235078337E+00    0.262819981209007958E+01   -0.126484197372788110E+01    0.115173277786769674E+03    0.524972809936233773E+02   -0.521851104772098552E+03
   -0.510721402235078337E+00    0.262819981209007958E+01   -0.126484197372788110E+01    0.115173277786769674E+03    0.524972809936233773E+02   -0.521851104772098552E+03
   -0.524665249601030226E+00    0.263517182340559009E+01   -0.126535761708846017E+01    0.115245954535278230E+03    0.519697548694973079E+02   -0.522083119732509886E+03
   -0.521754907790116462E+00    0.263042046325373047E+01   -0.126420659445170713E+01    0.114836903386819387E+03    0.526123794788351518E+02   -0.521826019791464660E+03
   -0.508990755497122471E+00    0.262381316634646433E+01   -0.126484450976440232E+01    0.115752630589502019E+03    0.518924916612831169E+02   -0.522221019407514291E+03
   -0.505131224803573531E+00    0.261551390512832471E+01   -0.125848176825183256E+01    0.114975303565848563E+03    0.520251526107456073E+02   -0.521905347988563449E+03
   -0.505131224803573531E+00    0.261551390512832471E+01   -0.125848176825183256E+01    0.114975303565848563E+03    0.520251526107456073E+02   -0.521905347988563449E+03
   -0.494882187962942588E+00    0.260798493822668487E+01   -0.125599968860229527E+01    0.115004026698829279E+03    0.521561652634464963E+02   -0.522254454892071180E+03
   -0.502524234495727029E+00    0.261792129545366015E+01   -0.126285020125964742E+01    0.115600683121894491E+03    0.519499349594649402E+02   -0.522106139362380191E+03
   -0.503962772458067754E+00    0.261193989367824031E+01   -0.125791301717180204E+01    0.114821588411963546E+03    0.522195776898891495E+02   -0.522380610700138391E+03
   -0.524721009804027361E+00    0.263277600574411519E+01   -0.126583169076895530E+01    0.114800692192105416E+03    0.527456509297317098E+02   -0.522224581770331156E+03
   -0.525267138915901377E+00    0.263655039791032930E+01   -0.126957471452512305E+01    0.115033364988710701E+03    0.526653687161700645E+02   -0.522428267713616151E+03
   -0.524258172092760155E+00    0.263317538836221088E+01   -0.126381181213445259E+01    0.114902939724858300E+03    0.522543291744917155E+02   -0.521903741587250465E+03
   -0.505471338959511129E+00    0.262464083742875154E+01   -0.126491630634080821E+01    0.115367961627134918E+03    0.524438997332736108E+02   -0.522118810513913786E+03
   -0.506052070977103696E+00    0.261718476366964126E+01   -0.125924545300581414E+01    0.114871547212015145E+03    0.524857139254378637E+02   -0.521696373053750563E+03
   -0.506052070977103696E+00    0.261718476366964126E+01   -0.125924545300581414E+01    0.114871547212015145E+03    0.524857139254378637E+02   -0.521696373053750563E+03
   -0.503208244684168804E+00    0.262106605338600662E+01   -0.126480198716151371E+01    0.115107580021711229E+03    0.524797452214164650E+02   -0.522058924059163360E+03
   -0.503208244684168804E+00    0.262106605338600662E+01   -0.126480198716151371E+01    0.115107580021711229E+03    0.524797452214164650E+02   -0.522058924059163360E+03
   -0.522263708831925300E+00    0.263085008737159143E+01   -0.126543711774848866E+01    0.114860184072785074E+03    0.519086692864085819E+02   -0.522200592762880660E+03
   -0.515517233830765420E+00    0.262766353722895740E+01   -0.126325450355500823E+01    0.114710751000571634E+03    0.522528916491641269E+02   -0.521659782697790888E+03
   -0.515517233830765420E+00    0.262766353722895740E+01   -0.126325450355500823E+01    0.114710751000571634E+03    0.522528916491641269E+02   -0.521659782697790888E+03
   -0.531060778454110149E+00    0.264259309988056534E+01   -0.126837653452347254E+01    0.114638163334313248E+03    0.523093550190928056E+02   -0.522516332968013671E+03
   -0.517944283083243029E+00    0.262689293935790147E+01   -0.126473027517915071E+01    0.115739005904280916E+03    0.518955211041855193E+02   -0.522427194578391891E+03
   -0.513508276970554789E+00    0.263325346342374056E+01   -0.126587382045005192E+01    0.115153334261351489E+03    0.523510314220809221E+02   -0.522386743189388653E+03
   -0.524720128389319918E+00    0.263753995617295178E+01   -0.126687540489928896E+01    0.114604356304545263E+03    0.522851075544604100E+02   -0.522195155863662080E+03
   -0.510299368328467118E+00    0.262580207873199445E+01   -0.126241655335290215E+01    0.115379071278435475E+03    0.521034157586131528E+02   -0.522122167543241972E+03
   -0.505944279753903103E+00    0.262230823805516833E+01   -0.126143955099662364E+01    0.114443701433238815E+03    0.522547932583984220E+02   -0.522292822545498325E+03
   -0.511020630493522532E+00    0.261778725630539721E+01   -0.125688157214159535E+01    0.114520880949866537E+03    0.526047232176331079E+02   -0.522354396205604075E+03
   -0.505206312877758634E+00    0.262062659829711642E+01   -0.126106034474872430E+01    0.115468385643882783E+03    0.516165726005473005E+02   -0.522519424270494710E+03
   -0.514746707741068121E+00    0.262582604654042306E+01   -0.126245783810650103E+01    0.115095068864266224E+03    0.519704790551520546E+02   -0.521651511050262116E+03
   -0.514746707741068121E+00    0.262582604654042306E+01   -0.126245783810650103E+01    0.115095068864266224E+03    0.519704790551520546E+02   -0.521651511050262116E+03
   -0.504805290411981744E+00    0.261894147204527217E+01   -0.126334856504228732E+01    0.114661251229631347E+03    0.524282199371362196E+02   -0.522495482825634667E+03
   -0.516464630915731249E+00    0.262948989915436426E+01   -0.126500100456716602E+01    0.114518212643521437E+03    0.525343076374909685E+02   -0.522061804582848595E+03
   -0.511092572936234113E+00    0.261873584917120894E+01   -0.126298506385352383E+01    0.115215488683341235E+03    0.521122902152597476E+02   -0.522466836009399231E+03
   -0.532520435098743583E+00    0.264518334695775925E+01   -0.127190291419500490E+01    0.114984233466890387E+03    0.522774679294888358E+02   -0.522473177398119105E+03
   -0.515079423528415958E+00    0.262497723484286594E+01   -0.126452910390373141E+01    0.115113622817500925E+03    0.526138112212580609E+02   -0.522018706105530100E+03
   -0.509283707426076759E+00    0.262262971581266324E+01   -0.126353987397699985E+01    0.114614631529646331E+03    0.526004062115452484E+02   -0.522133139999415107E+03
   -0.495555006658024766E+00    0.261544378237657948E+01   -0.126073650889481392E+01    0.115021933016660924E+03    0.524617754951763970E+02   -0.522163355103933100E+03
   -0.500696101917760927E+00    0.260987563927387356E+01   -0.125653606066178103E+01    0.114967885328231219E+03    0.527039443721523071E+02   -0.522516356778379077E+03
