   -0.481777079327547320E+00    0.258956794497418352E+01   -0.292916884547398837E+00    0.115381825385687122E+03    0.530090035722658683E+02   -0.531525718105689634E+03
   -0.545819420546379774E+00    0.263158623943025471E+01   -0.169151112258006719E+00    0.115527362438319443E+03    0.512073782522300860E+02   -0.531301810732331546E+03
   -0.530097200127303658E+00    0.263655426873242016E+01   -0.208874191944708798E+00    0.117083324396635021E+03    0.506281894438010340E+02   -0.530565618909708974E+03
   -0.528307024837571859E+00    0.263186391284225518E+01   -0.198867091106658123E+00    0.114869210498914825E+03    0.538082569208996517E+02   -0.530482208783010947E+03
   -0.561686905617618137E+00    0.266468223151393513E+01   -0.157717790462283958E+00    0.115551299299434703E+03    0.509119779229014284E+02   -0.529893354994381525E+03
   -0.524114519905526599E+00    0.265379435292385280E+01   -0.232911083609826264E+00    0.116580627620116090E+03    0.523121044769811192E+02   -0.529753799376740176E+03
   -0.477375829204255808E+00    0.258992533520448687E+01   -0.291578680442876603E+00    0.115107914028661853E+03    0.537639105568234186E+02   -0.529551102212798696E+03
   -0.560264885527134382E+00    0.266432934068862926E+01   -0.155914386372858260E+00    0.116232356485318434E+03    0.523429714588657191E+02   -0.529147733721143368E+03
   -0.520443850082024539E+00    0.264332268815314730E+01   -0.235000665515826768E+00    0.117086196139484656E+03    0.513322787636205362E+02   -0.529133254121140567E+03
   -0.467594330475505693E+00    0.257688147303005621E+01   -0.306573317209876350E+00    0.115323752538427556E+03    0.516761678568870479E+02   -0.529106572034843566E+03
   -0.539545790999912178E+00    0.265250824357116599E+01   -0.185006444469772546E+00    0.114470853444171084E+03    0.532404269801976966E+02   -0.529093921669926203E+03
   -0.464955472569663186E+00    0.259184878976403255E+01   -0.325083155339619623E+00    0.116373035537176094E+03    0.515234396636628276E+02   -0.528908760368702133E+03
   -0.535215538654836287E+00    0.264690061773510710E+01   -0.199609315526400266E+00    0.116665982616902554E+03    0.516868657790371628E+02   -0.528873335665003196E+03
   -0.522325510061342868E+00    0.265163578808916478E+01   -0.236855174758423104E+00    0.114607057353669390E+03    0.522394524078843006E+02   -0.528827981883279790E+03
   -0.521218202723900959E+00    0.263623512952146433E+01   -0.225078774561875861E+00    0.116586194762399003E+03    0.504943582201729271E+02   -0.528823257892701690E+03
   -0.504866982179096979E+00    0.260749367145088629E+01   -0.244677221061259331E+00    0.115300589060769894E+03    0.538555596584427008E+02   -0.528802118436256023E+03
   -0.472553314476658493E+00    0.259812050059347976E+01   -0.312027897083543948E+00    0.116545263319228695E+03    0.515936853704545229E+02   -0.528636356315100898E+03
   -0.532745696357336485E+00    0.262549743996703455E+01   -0.192125834479421442E+00    0.114121092083896116E+03    0.534127056497914623E+02   -0.528354490528935912E+03
   -0.490858950817230522E+00    0.260028864053516484E+01   -0.279183007868086364E+00    0.116015362254680085E+03    0.509467556626949829E+02   -0.528316502543295769E+03
   -0.496260999157300375E+00    0.260589903164264758E+01   -0.254966233474840820E+00    0.113325170557533639E+03    0.538017705384750968E+02   -0.528052326678587065E+03
   -0.542206053540851940E+00    0.265281679946926641E+01   -0.197265748282585918E+00    0.115402500325365267E+03    0.514314462623548252E+02   -0.528046133241615621E+03
   -0.510979669474619591E+00    0.262728326259092837E+01   -0.233474745239458770E+00    0.114094313273835908E+03    0.535795271415335890E+02   -0.528026977037754023E+03
   -0.502554093592800122E+00    0.262408162647940779E+01   -0.250845949348608599E+00    0.113465226815167881E+03    0.532858555065453743E+02   -0.527929911185576543E+03
   -0.484132785966256307E+00    0.260361796298717474E+01   -0.285323021436123980E+00    0.114341164590184036E+03    0.540840509962310705E+02   -0.527806765614497408E+03
   -0.464376707805747913E+00    0.259669628514699058E+01   -0.328445086871635539E+00    0.115465893740321107E+03    0.527223230156005513E+02   -0.527792004998970810E+03
   -0.548167915808646988E+00    0.265687849965803080E+01   -0.178866720691626568E+00    0.114140588596010204E+03    0.518930492226526781E+02   -0.527677480509684187E+03
   -0.468663796432227109E+00    0.258947878972822654E+01   -0.317435040012060909E+00    0.115284199626512176E+03    0.511766929560123742E+02   -0.527560168955608788E+03
   -0.501687135914379745E+00    0.260732070607172917E+01   -0.243913114573521383E+00    0.115102026281279151E+03    0.519776752302291527E+02   -0.527548301906282290E+03
   -0.534656189603843757E+00    0.265089591042975581E+01   -0.206184363049827013E+00    0.115363080430745740E+03    0.504757282775983072E+02   -0.527525445138117789E+03
   -0.530803754935351257E+00    0.264193353545187160E+01   -0.213579515441212564E+00    0.117072363079766973E+03    0.509547137708378841E+02   -0.527430316160658549E+03
   -0.512501445743998474E+00    0.264025205675413499E+01   -0.245704178564139397E+00    0.115081054834691344E+03    0.535350629415009962E+02   -0.527419015117888307E+03
   -0.519587215513208633E+00    0.263554633053722487E+01   -0.233646359951096727E+00    0.115063573584727777E+03    0.533482276074418849E+02   -0.527245134395205810E+03
   -0.528262619018976309E+00    0.263472924723916480E+01   -0.211748210110400237E+00    0.116506274875347387E+03    0.506562190833292050E+02   -0.527237795036059538E+03
   -0.523973507553400886E+00    0.262546383227489288E+01   -0.203961349456868390E+00    0.113976157643849675E+03    0.526884104626352894E+02   -0.527228730813810444E+03
   -0.498545032821168022E+00    0.260140269575911010E+01   -0.246853819228256555E+00    0.114278955793403554E+03    0.525353560517054916E+02   -0.527165056197368813E+03
   -0.551947220438254504E+00    0.267002767950022646E+01   -0.179893973417433628E+00    0.115253041538407430E+03    0.516314863853835675E+02   -0.527065018297070878E+03
   -0.555060289993292599E+00    0.265263844638828328E+01   -0.161940805728317372E+00    0.115785509034825509E+03    0.523542003002742149E+02   -0.526955153243585301E+03
   -0.541260386478314537E+00    0.263903186884678620E+01   -0.175874033349503023E+00    0.114431736071097433E+03    0.524381116263400884E+02   -0.526917991669959520E+03
   -0.503938698587693246E+00    0.263023269821403494E+01   -0.256065033418229504E+00    0.114722782913481737E+03    0.534941560101011362E+02   -0.526913884501211669E+03
   -0.532077566872258600E+00    0.263987941663535830E+01   -0.197178737698033402E+00    0.115443966963265368E+03    0.518832477556926790E+02   -0.526872481953100760E+03
   -0.536508941813195861E+00    0.263841263576329199E+01   -0.185904762807590274E+00    0.113629607152024363E+03    0.531077095615062262E+02   -0.526860884358281169E+03
   -0.483476390524543831E+00    0.260637573203175954E+01   -0.287743182738394054E+00    0.114439275293797394E+03    0.512917659232863627E+02   -0.526803792459354099E+03
   -0.533231585461594548E+00    0.264430187686411466E+01   -0.202854623768658371E+00    0.116269582505504957E+03    0.510148606381964100E+02   -0.526771860565938596E+03
   -0.503606251610002609E+00    0.260861459076453928E+01   -0.239907451608717182E+00    0.113931867878844699E+03    0.523799596641623282E+02   -0.526759417207586012E+03
   -0.504551193011593568E+00    0.261640438087552418E+01   -0.250003673716022945E+00    0.115066557861148880E+03    0.505640584188682283E+02   -0.526748414191052916E+03
   -0.488900167001395936E+00    0.260732037275844242E+01   -0.281406479198997417E+00    0.116526785866088119E+03    0.518192928487017070E+02   -0.526706004391966871E+03
   -0.496992536766485138E+00    0.262651524587067442E+01   -0.275121153289173748E+00    0.116356475033530131E+03    0.519880489636871630E+02   -0.526696692132769272E+03
   -0.507085334925995390E+00    0.263327645393236143E+01   -0.262993420613547357E+00    0.116370215375536432E+03    0.516862189044133800E+02   -0.526680492303336564E+03
   -0.503212015491049769E+00    0.262760135232698788E+01   -0.253945546106761455E+00    0.113688464946545935E+03    0.532120698186526511E+02   -0.526669164962077843E+03
   -0.562711491140124309E+00    0.266655106049378210E+01   -0.149859004430332732E+00    0.115035237321301551E+03    0.522019872494003323E+02   -0.526633702179845045E+03
   -0.501658724489882246E+00    0.261020349584230216E+01   -0.247432928440590061E+00    0.113309866868627410E+03    0.530736274842886075E+02   -0.526623988144042642E+03
   -0.511199906701660822E+00    0.261700681169662941E+01   -0.244646852323086250E+00    0.116264215822544557E+03    0.516514818405699430E+02   -0.526593367213390025E+03
   -0.485666995822776393E+00    0.261423884082741331E+01   -0.293878226159661082E+00    0.114325171137533005E+03    0.524109993265506660E+02   -0.526584876839787626E+03
   -0.526453295026642287E+00    0.263347038686846391E+01   -0.203859549977934762E+00    0.114220110190085038E+03    0.533694978870999819E+02   -0.526541553342023917E+03
   -0.537513175302395396E+00    0.265055199287775700E+01   -0.197589026210335916E+00    0.115854376405438046E+03    0.530509560304523404E+02   -0.526512118753322625E+03
   -0.512622025546746407E+00    0.261908515366182648E+01   -0.226018078580819903E+00    0.114479162628253334E+03    0.532571744889816330E+02   -0.526500342094377629E+03
   -0.524961942531451342E+00    0.262957836841410764E+01   -0.219490311501463253E+00    0.115422551892864959E+03    0.509259584549052420E+02   -0.526466995063307081E+03
   -0.502208413875967707E+00    0.262766342308902834E+01   -0.260704595703879605E+00    0.115745126447609493E+03    0.508222008900364699E+02   -0.526395323371955783E+03
   -0.493409245425096898E+00    0.262704875629003487E+01   -0.281484581727864835E+00    0.114500441063121556E+03    0.525484589773301423E+02   -0.526377772496101443E+03
   -0.486937452155611794E+00    0.260668472398620121E+01   -0.282731444472418048E+00    0.114733013789435134E+03    0.509853821729987828E+02   -0.526359828936921417E+03
   -0.516304672913618035E+00    0.261194882395841033E+01   -0.216506228988240679E+00    0.114468156241223525E+03    0.525004555545934295E+02   -0.526355884320749624E+03
   -0.515082996986096830E+00    0.262701789446203238E+01   -0.239390310363781111E+00    0.114572650105802481E+03    0.531533897650386677E+02   -0.526290178166415672E+03
   -0.528715460824910721E+00    0.263139948113250366E+01   -0.198643838858791000E+00    0.114333001028300458E+03    0.533231028674879326E+02   -0.526231042594311475E+03
   -0.519436565322218158E+00    0.264056627217441431E+01   -0.225718626756862051E+00    0.113835660043727401E+03    0.526182417395851303E+02   -0.526185883164946858E+03
   -0.508074736077595013E+00    0.260690430770300585E+01   -0.242418799987513367E+00    0.115388404061752695E+03    0.521127181186296866E+02   -0.526162624992988526E+03
   -0.499282993304711376E+00    0.262504750311445045E+01   -0.274974589132174430E+00    0.115496555592364558E+03    0.522443743390958559E+02   -0.526090669308146516E+03
   -0.509556755296509678E+00    0.262421901642087541E+01   -0.243815993830633460E+00    0.116046925949142846E+03    0.529431426674171917E+02   -0.526032801672277174E+03
   -0.536095482243347909E+00    0.264886286953016414E+01   -0.202477012291129910E+00    0.116347975581206256E+03    0.523528600468547438E+02   -0.526031427788107749E+03
   -0.526975840986663613E+00    0.264335295823188643E+01   -0.220701409505769774E+00    0.114557809498166620E+03    0.532732644485737694E+02   -0.525955471907926380E+03
   -0.504533051242828989E+00    0.261485644114755500E+01   -0.247054082458442181E+00    0.113603972993526938E+03    0.523333360476068776E+02   -0.525780952886817431E+03
   -0.541987232197161717E+00    0.263959608279231439E+01   -0.183998122330269354E+00    0.115794168861987430E+03    0.514862727264549278E+02   -0.525777399910659028E+03
   -0.512948942378048223E+00    0.262261612902905394E+01   -0.233810459599400389E+00    0.113817440157271321E+03    0.519069271718457514E+02   -0.525771943171546809E+03
   -0.523097858746314870E+00    0.262510217121029532E+01   -0.218605980836340308E+00    0.115578601519348226E+03    0.509118926457095711E+02   -0.525744450403366045E+03
   -0.509684833534689297E+00    0.262528471812037312E+01   -0.236587184595437705E+00    0.113749821601228319E+03    0.531415113681334219E+02   -0.525743525785911629E+03
   -0.510159379151075676E+00    0.262970800537319427E+01   -0.245717444868283508E+00    0.113714440946294204E+03    0.529934324451438670E+02   -0.525713438903470319E+03
   -0.507100049887412752E+00    0.261725813315762545E+01   -0.238119773657050615E+00    0.114577419927445334E+03    0.518241647938308745E+02   -0.525704892828170614E+03
   -0.474727441880784085E+00    0.259328127238471229E+01   -0.303852267132199927E+00    0.115881424165256533E+03    0.518998224260963070E+02   -0.525690354069196246E+03
   -0.490537339922449078E+00    0.261946933695809303E+01   -0.287342747305386226E+00    0.115841003071943220E+03    0.510403439061522874E+02   -0.525649591532182512E+03
   -0.515153512125017699E+00    0.262309498471086444E+01   -0.237458239598765886E+00    0.114983636258009824E+03    0.514996854992841975E+02   -0.525603958585338319E+03
   -0.512265423383848173E+00    0.261574371657767157E+01   -0.229405544164396957E+00    0.113559107688441244E+03    0.529896415844903004E+02   -0.525599317700189772E+03
   -0.532833273585257672E+00    0.264668218847407122E+01   -0.208340416400936590E+00    0.116020044639677607E+03    0.528108878512269371E+02   -0.525575278422408587E+03
   -0.474303096265086488E+00    0.259113668002148811E+01   -0.297618130114830848E+00    0.114501742164839925E+03    0.522177655454361513E+02   -0.525573632522584148E+03
   -0.515720567346054537E+00    0.262447253220943777E+01   -0.237491453225430860E+00    0.116043247350546352E+03    0.525488495788049477E+02   -0.525562703278653316E+03
   -0.497026396511658142E+00    0.262320007844305048E+01   -0.277791819321485889E+00    0.115812314851401865E+03    0.511935482534930770E+02   -0.525557391356815288E+03
   -0.477100703335969101E+00    0.259142027567949595E+01   -0.298951047320590746E+00    0.114788373038998415E+03    0.524545036388396113E+02   -0.525541459218976229E+03
   -0.514754118222565005E+00    0.262866266664718662E+01   -0.234886961812266648E+00    0.116154954130402260E+03    0.509139673213317110E+02   -0.525536193247659753E+03
   -0.523103491888996075E+00    0.263852662200832855E+01   -0.216412564145493036E+00    0.115256558814439828E+03    0.519411734553192446E+02   -0.525534306569626210E+03
   -0.504606292474782947E+00    0.260374730741077309E+01   -0.243989705679849678E+00    0.114428557079261623E+03    0.525585011152087134E+02   -0.525528991046631404E+03
   -0.522467250390652893E+00    0.263071972684464805E+01   -0.217957062699591475E+00    0.114199969123945408E+03    0.538856865064987005E+02   -0.525491013303099180E+03
   -0.544821105490946422E+00    0.264616486751387558E+01   -0.182874960450039481E+00    0.115340409158357659E+03    0.528203799532518303E+02   -0.525477495651496724E+03
   -0.527333273068607333E+00    0.265341858255813934E+01   -0.224527099417841214E+00    0.115106846272896519E+03    0.517812791089253039E+02   -0.525475590283101837E+03
   -0.509061364670015060E+00    0.261821956602942230E+01   -0.241131834606708395E+00    0.114172524614371227E+03    0.515563796109764780E+02   -0.525437584273945276E+03
   -0.503913619581040528E+00    0.261732226488556385E+01   -0.258723398538631244E+00    0.116339427963954662E+03    0.521896451915280295E+02   -0.525436320380370603E+03
   -0.493662953226284174E+00    0.262619055484241049E+01   -0.278487175238431917E+00    0.114852632051354249E+03    0.521103794296283809E+02   -0.525425281331108067E+03
   -0.514724510707996075E+00    0.263301703867751069E+01   -0.231054875724758801E+00    0.114872895483514128E+03    0.519164657215808916E+02   -0.525405265070408291E+03
   -0.508597794164764139E+00    0.262376109381103895E+01   -0.245638414492017176E+00    0.114321773821348472E+03    0.538502956225395621E+02   -0.525401768797924433E+03
   -0.529702929475611484E+00    0.263712766208501526E+01   -0.212769359727410290E+00    0.114645257224899368E+03    0.523482561772221402E+02   -0.525393816775204186E+03
   -0.505604486085870164E+00    0.262012921336626414E+01   -0.245721878793961679E+00    0.115606054822811970E+03    0.516013666471588408E+02   -0.525379543747960383E+03
   -0.488406501552281824E+00    0.261332012469651920E+01   -0.288283595289531291E+00    0.115824156261259546E+03    0.509243662463860289E+02   -0.525368843328522757E+03
   -0.530252150021360613E+00    0.263511915912568506E+01   -0.203223803282190474E+00    0.113735828624582666E+03    0.532752025518253447E+02   -0.525363652299057549E+03
   -0.532947049924865190E+00    0.265138375010437644E+01   -0.210754557077585503E+00    0.114820506043696639E+03    0.531424794050184630E+02   -0.525356970545123431E+03
   -0.511942683615743022E+00    0.262129590303419358E+01   -0.238561201051599170E+00    0.113879216425227995E+03    0.531982215749820568E+02   -0.525352369964611171E+03
   -0.512015008635415825E+00    0.262168929484634328E+01   -0.230960599684175705E+00    0.113542863947972620E+03    0.531263755647097469E+02   -0.525333883068477235E+03
   -0.484346558818938178E+00    0.259214783871134857E+01   -0.277483295844469069E+00    0.114785316635887327E+03    0.527980216133434510E+02   -0.525321751240599269E+03
   -0.502488899101937392E+00    0.260904126356614796E+01   -0.244086254742658326E+00    0.113909958521916877E+03    0.525899929141545215E+02   -0.525309912980729678E+03
   -0.481144020478980750E+00    0.259381624514258347E+01   -0.291876321224176394E+00    0.114866397952826503E+03    0.520278717687927781E+02   -0.525308293648172253E+03
   -0.514040519222557002E+00    0.263722174028324474E+01   -0.242737683714450370E+00    0.115630901814033166E+03    0.530507738738516537E+02   -0.525265076022620974E+03
   -0.543493237514646843E+00    0.264120707138438648E+01   -0.179184620330367750E+00    0.114376512852758395E+03    0.524383384349049209E+02   -0.525250901946518866E+03
   -0.470271006826408211E+00    0.259319339633894153E+01   -0.313391964544592838E+00    0.115013223651348042E+03    0.526225756932480522E+02   -0.525232142755914538E+03
   -0.517731174133123417E+00    0.263807677051049128E+01   -0.240177735586600605E+00    0.114935859325441683E+03    0.525041245521694577E+02   -0.525210587940479172E+03
   -0.499538365399113005E+00    0.262335593299133585E+01   -0.268276501777549470E+00    0.114279557535060277E+03    0.527672208954165285E+02   -0.525173495505395977E+03
   -0.504262439028012821E+00    0.260990635804494220E+01   -0.246306314728983011E+00    0.114506206735192364E+03    0.536450930363219527E+02   -0.525165000511311291E+03
   -0.504262439028012821E+00    0.260990635804494220E+01   -0.246306314728983011E+00    0.114506206735192364E+03    0.536450930363219527E+02   -0.525165000511311291E+03
   -0.518608750686038178E+00    0.262973283050587625E+01   -0.222456286357942901E+00    0.114727152597968896E+03    0.535649555040957637E+02   -0.525152072327308019E+03
   -0.502813569402334792E+00    0.263365439415494418E+01   -0.263323699126123856E+00    0.115418243554700396E+03    0.518409243662507890E+02   -0.525140772701773813E+03
   -0.541221142652168474E+00    0.265857143680309260E+01   -0.193638805226694188E+00    0.115021584070498633E+03    0.515368571091348429E+02   -0.525136525030916118E+03
   -0.488382215211354165E+00    0.260727714512873909E+01   -0.283582626587469022E+00    0.114896236772118684E+03    0.512536326201648649E+02   -0.525132928346511562E+03
   -0.516460895664160091E+00    0.263270222980603696E+01   -0.238078486255732358E+00    0.114398785294690853E+03    0.521369402128168247E+02   -0.525132297189672954E+03
   -0.532021285681445022E+00    0.264730757889673285E+01   -0.205704562521304979E+00    0.114377185348354772E+03    0.516704779559597114E+02   -0.525125861072772068E+03
   -0.538133211371044418E+00    0.264452778426568802E+01   -0.186674492110533663E+00    0.114682232697030528E+03    0.527119139791232669E+02   -0.525113350964036499E+03
   -0.507799391234586395E+00    0.263319457586817229E+01   -0.255746815383917081E+00    0.116304514625522856E+03    0.515640415405738111E+02   -0.525105605221313908E+03
   -0.504033152219289349E+00    0.261966767113875099E+01   -0.261444301119876599E+00    0.115447462859679433E+03    0.516330110024576925E+02   -0.525101053191246592E+03
   -0.508837711120305514E+00    0.263501231316594220E+01   -0.257717591185720352E+00    0.115527991286560038E+03    0.524201308889069253E+02   -0.525093091618722383E+03
   -0.507974160880340975E+00    0.263201469758468765E+01   -0.247351457511545192E+00    0.115138158166346159E+03    0.526927082046795761E+02   -0.525086080314274795E+03
   -0.521157234997346563E+00    0.262359606962824099E+01   -0.222711500932566864E+00    0.114900605261420679E+03    0.516303296353395069E+02   -0.525070401872923071E+03
   -0.530019408521896551E+00    0.265164553989619467E+01   -0.211530712929453912E+00    0.114403879242842009E+03    0.527992489273608214E+02   -0.525066359416172986E+03
   -0.492609602910932587E+00    0.261006420380901361E+01   -0.277759197497564614E+00    0.115832235610614646E+03    0.527209861065131520E+02   -0.525051869020624849E+03
   -0.500732074397195248E+00    0.260835817604010511E+01   -0.256924350770045606E+00    0.114261057060411389E+03    0.524939568230248597E+02   -0.525009832514287609E+03
   -0.501466353612565641E+00    0.261312789899442244E+01   -0.249984123736815889E+00    0.114292826264949667E+03    0.517664252904799014E+02   -0.524994470311503278E+03
   -0.512150606463539049E+00    0.262513637843288006E+01   -0.247195169043241236E+00    0.115902367489966622E+03    0.516432003229763836E+02   -0.524943044785312509E+03
   -0.503925025973302354E+00    0.261483328687935090E+01   -0.252246806812657098E+00    0.115417364074624118E+03    0.508071656240412892E+02   -0.524937766128638714E+03
   -0.522238431114429247E+00    0.263672953647791219E+01   -0.220965198804250917E+00    0.114526151314301359E+03    0.537017694406416979E+02   -0.524921788241565196E+03
   -0.522238431114429247E+00    0.263672953647791219E+01   -0.220965198804250917E+00    0.114526151314301359E+03    0.537017694406416979E+02   -0.524921788241565196E+03
   -0.508311356797706893E+00    0.260898340835204978E+01   -0.233052950179414964E+00    0.114187537000493080E+03    0.527182321759903232E+02   -0.524911075076340694E+03
   -0.508311356797706893E+00    0.260898340835204978E+01   -0.233052950179414964E+00    0.114187537000493080E+03    0.527182321759903232E+02   -0.524911075076340694E+03
   -0.501736674058919974E+00    0.261330035438301911E+01   -0.247849125423385885E+00    0.114320236447851471E+03    0.531719432031808026E+02   -0.524903259057436344E+03
   -0.528208307741772742E+00    0.263711791356643888E+01   -0.214445150343752999E+00    0.114445703470623442E+03    0.528553286906258677E+02   -0.524872167237819667E+03
   -0.528208307741772742E+00    0.263711791356643888E+01   -0.214445150343752999E+00    0.114445703470623442E+03    0.528553286906258677E+02   -0.524872167237819667E+03
   -0.522095150038224709E+00    0.262054904690202584E+01   -0.213478134450095780E+00    0.114445093665084684E+03    0.532991291850703419E+02   -0.524865910841788605E+03
   -0.523148153489024992E+00    0.264935683317435533E+01   -0.230562522659239377E+00    0.115661302753263300E+03    0.522510254975568387E+02   -0.524840355391558319E+03
   -0.505908773597953498E+00    0.262205005547098136E+01   -0.256030585227932761E+00    0.114560384316836576E+03    0.524018163558066306E+02   -0.524834472965053351E+03
   -0.545069199498458445E+00    0.265142702595220037E+01   -0.178766032393010477E+00    0.114849780513166280E+03    0.530817964984711352E+02   -0.524828908464173992E+03
   -0.535808879588305587E+00    0.264369727905715024E+01   -0.194488033665823679E+00    0.115154050142940619E+03    0.513752053130168349E+02   -0.524825990821720325E+03
   -0.500322968319819594E+00    0.262679168849376499E+01   -0.271432395560681883E+00    0.115371399828801330E+03    0.515348856003091953E+02   -0.524816877993696153E+03
   -0.501793384168244927E+00    0.260538261145725869E+01   -0.254206763527765389E+00    0.115269940492942524E+03    0.517779901489310816E+02   -0.524782305129937527E+03
   -0.489546760566989647E+00    0.260683602688590232E+01   -0.279269689099978180E+00    0.115338192767410746E+03    0.531812304474763664E+02   -0.524768460279523538E+03
   -0.489546760566989647E+00    0.260683602688590232E+01   -0.279269689099978180E+00    0.115338192767410746E+03    0.531812304474763664E+02   -0.524768460279523538E+03
   -0.530402292492203387E+00    0.264216362070630417E+01   -0.214433705288911369E+00    0.116307676244144062E+03    0.516901732039853243E+02   -0.524766688218303102E+03
   -0.490797979634292503E+00    0.261250502171244614E+01   -0.279215175384926795E+00    0.116126984505252395E+03    0.515975221767697008E+02   -0.524766650763935900E+03
   -0.515302939876546517E+00    0.262641532074116357E+01   -0.231676795309654793E+00    0.115009708042186929E+03    0.534186746536304042E+02   -0.524744733986543793E+03
   -0.513546551625568171E+00    0.264114707503410395E+01   -0.248052620865019335E+00    0.115901329243030503E+03    0.515924749113129053E+02   -0.524740421281472891E+03
   -0.489308392577264328E+00    0.261664579214399984E+01   -0.288732937353305630E+00    0.115800010274914456E+03    0.521662158338934034E+02   -0.524723244048783727E+03
   -0.514451734690483775E+00    0.261384824323338227E+01   -0.228881208278794546E+00    0.115613502419031448E+03    0.516784901658878084E+02   -0.524705601187238358E+03
   -0.508474281950940465E+00    0.263397905056404191E+01   -0.255674673138399200E+00    0.114868035612937362E+03    0.527697382653700799E+02   -0.524682483022749238E+03
   -0.486565196526484556E+00    0.260342388373277034E+01   -0.281428300219332073E+00    0.115442257295972283E+03    0.512281074654460156E+02   -0.524673166987811669E+03
   -0.502512771960507365E+00    0.262687857556114901E+01   -0.264814686111044750E+00    0.114613404044579383E+03    0.526091398179595444E+02   -0.524672647282619664E+03
   -0.521077320401843735E+00    0.263665379087324547E+01   -0.223474380281622587E+00    0.115421876578439651E+03    0.530992701119760966E+02   -0.524671020597201505E+03
   -0.508925498481900718E+00    0.261103424199367051E+01   -0.235740898270860200E+00    0.114236249992170229E+03    0.520662397902858061E+02   -0.524668133555327813E+03
   -0.508925498481900718E+00    0.261103424199367051E+01   -0.235740898270860200E+00    0.114236249992170229E+03    0.520662397902858061E+02   -0.524668133555327813E+03
   -0.515335391775257889E+00    0.261619035826924584E+01   -0.226167295918278555E+00    0.114380649693193448E+03    0.533382693333293787E+02   -0.524658497945465228E+03
   -0.496495382803495033E+00    0.262464007699686874E+01   -0.276227783704445784E+00    0.115567030357221938E+03    0.525675351814437590E+02   -0.524651089269780869E+03
   -0.534640462898130053E+00    0.264816287319349719E+01   -0.205382529956256832E+00    0.115418382193223295E+03    0.510779661044226714E+02   -0.524606453101409102E+03
   -0.524763105473180502E+00    0.263935817468388301E+01   -0.213209461790329513E+00    0.114871543538757706E+03    0.526409703825339648E+02   -0.524587316921798219E+03
   -0.543547353760958529E+00    0.265811515551940403E+01   -0.189583972370247267E+00    0.114749749823707390E+03    0.520928150682496209E+02   -0.524586678358853419E+03
   -0.520498292241626359E+00    0.264546100743447266E+01   -0.233565803058137789E+00    0.115716309873689227E+03    0.513617262669692423E+02   -0.524577511161121720E+03
   -0.493088425889655291E+00    0.260561254261291886E+01   -0.264601820631582996E+00    0.113930016142818303E+03    0.525310075085917561E+02   -0.524540187159431071E+03
   -0.503348223916884052E+00    0.260727981216299165E+01   -0.245581088198324693E+00    0.114109432586082548E+03    0.531923940674303708E+02   -0.524530025713423470E+03
   -0.513806917105860350E+00    0.261119796781700009E+01   -0.225592198800455890E+00    0.114794856408773043E+03    0.522898564450981667E+02   -0.524517524898985812E+03
   -0.513806917105860350E+00    0.261119796781700009E+01   -0.225592198800455890E+00    0.114794856408773043E+03    0.522898564450981667E+02   -0.524517524898985812E+03
   -0.523123250453788380E+00    0.262550799044040017E+01   -0.216626560541273605E+00    0.114252473963110148E+03    0.529462230238856080E+02   -0.524500402797310585E+03
   -0.527656564956911822E+00    0.264909889367097762E+01   -0.218589354822306348E+00    0.114601482612685089E+03    0.529325780269182928E+02   -0.524483619793637331E+03
   -0.501661569779661143E+00    0.261185598968640287E+01   -0.247643859596069049E+00    0.114673244539545095E+03    0.527010647002324220E+02   -0.524479565366485986E+03
   -0.509497236170471268E+00    0.261812563642159635E+01   -0.244934766741284449E+00    0.115906367328487235E+03    0.526277630064491291E+02   -0.524473910207045037E+03
   -0.510938565012461154E+00    0.262455717978783643E+01   -0.234226232826555858E+00    0.114544644724071588E+03    0.528528474264833221E+02   -0.524415715717031389E+03
   -0.518932723957028053E+00    0.263081797575475074E+01   -0.234657129656248742E+00    0.115844266398913192E+03    0.514827588705205130E+02   -0.524415601891085316E+03
   -0.521278081788581815E+00    0.264677038821765587E+01   -0.234674533946188646E+00    0.115653968382160869E+03    0.516758380109043571E+02   -0.524401163714733343E+03
   -0.523951098464725540E+00    0.263865597154006526E+01   -0.223546890580804458E+00    0.116158369482886727E+03    0.523943363608472623E+02   -0.524400682193235411E+03
   -0.523951098464725540E+00    0.263865597154006526E+01   -0.223546890580804458E+00    0.116158369482886727E+03    0.523943363608472623E+02   -0.524400682193235411E+03
   -0.542951504707380295E+00    0.264524901752306629E+01   -0.182816372321457976E+00    0.114499949136878996E+03    0.522138070907716951E+02   -0.524388388576806506E+03
   -0.535811512174868554E+00    0.264550716185368806E+01   -0.199454318636743011E+00    0.115997360387434696E+03    0.514136208808608330E+02   -0.524382165148200784E+03
   -0.535811512174868554E+00    0.264550716185368806E+01   -0.199454318636743011E+00    0.115997360387434696E+03    0.514136208808608330E+02   -0.524382165148200784E+03
   -0.518193120487824288E+00    0.262035838290242484E+01   -0.226217075940871482E+00    0.114998760222852766E+03    0.529673100316501575E+02   -0.524380779610265677E+03
   -0.518193120487824288E+00    0.262035838290242484E+01   -0.226217075940871482E+00    0.114998760222852766E+03    0.529673100316501575E+02   -0.524380779610265677E+03
   -0.505245428259152973E+00    0.263075604589423095E+01   -0.255124137466669509E+00    0.115125478397363239E+03    0.528961760373296954E+02   -0.524380002867483995E+03
   -0.489312113180549346E+00    0.260971544984279191E+01   -0.277100100743131961E+00    0.115089684309800504E+03    0.530165098226888176E+02   -0.524353821323147486E+03
   -0.539340497654867690E+00    0.263916558174140725E+01   -0.185275757897894522E+00    0.115210872577014669E+03    0.525894124314365570E+02   -0.524341324629137603E+03
   -0.539340497654867690E+00    0.263916558174140725E+01   -0.185275757897894522E+00    0.115210872577014669E+03    0.525894124314365570E+02   -0.524341324629137603E+03
   -0.508109940758052048E+00    0.261115307657985474E+01   -0.235911620367749819E+00    0.114223857571533898E+03    0.522340740075501628E+02   -0.524339481766185486E+03
   -0.510319221576139626E+00    0.263597990816426186E+01   -0.248969095930259954E+00    0.115053645275830306E+03    0.514152238808590596E+02   -0.524332741872925567E+03
   -0.497615388052633278E+00    0.261314407059442200E+01   -0.264216195116150132E+00    0.115405081700058446E+03    0.509614673615545541E+02   -0.524331593434084084E+03
   -0.497615388052633278E+00    0.261314407059442200E+01   -0.264216195116150132E+00    0.115405081700058446E+03    0.509614673615545541E+02   -0.524331593434084084E+03
   -0.533963937321892956E+00    0.264696546761409168E+01   -0.201060750333304838E+00    0.114316476066899412E+03    0.520074947770295353E+02   -0.524305345231140905E+03
   -0.501503028386029115E+00    0.262787556151269008E+01   -0.260164278105127877E+00    0.114712767505648941E+03    0.521265494608312281E+02   -0.524289759639936960E+03
   -0.501503028386029115E+00    0.262787556151269008E+01   -0.260164278105127877E+00    0.114712767505648941E+03    0.521265494608312281E+02   -0.524289759639936960E+03
   -0.494583213525954690E+00    0.262079555236639106E+01   -0.274369610105868134E+00    0.114995616678397539E+03    0.514300271992278795E+02   -0.524286215518277913E+03
   -0.494583213525954690E+00    0.262079555236639106E+01   -0.274369610105868134E+00    0.114995616678397539E+03    0.514300271992278795E+02   -0.524286215518277913E+03
   -0.505200568372009329E+00    0.261831906077769583E+01   -0.249391455128511907E+00    0.114628949525223064E+03    0.536190570719571440E+02   -0.524260965681359039E+03
   -0.505200568372009329E+00    0.261831906077769583E+01   -0.249391455128511907E+00    0.114628949525223064E+03    0.536190570719571440E+02   -0.524260965681359039E+03
   -0.493183847657883589E+00    0.261775836386843386E+01   -0.274241088654623155E+00    0.115037488545006127E+03    0.514712473726884525E+02   -0.524209235995140716E+03
   -0.514137713687641273E+00    0.263395522886495748E+01   -0.239750534403581739E+00    0.116046023550075475E+03    0.521582838506098767E+02   -0.524194754145435809E+03
   -0.514137713687641273E+00    0.263395522886495748E+01   -0.239750534403581739E+00    0.116046023550075475E+03    0.521582838506098767E+02   -0.524194754145435809E+03
   -0.513814718624880484E+00    0.262024783165970954E+01   -0.228459088575821312E+00    0.115221386333470988E+03    0.516530989104467153E+02   -0.524177543501299056E+03
   -0.513814718624880484E+00    0.262024783165970954E+01   -0.228459088575821312E+00    0.115221386333470988E+03    0.516530989104467153E+02   -0.524177543501299056E+03
   -0.512919141548372259E+00    0.262994174244603141E+01   -0.238696380884174886E+00    0.115335687887954847E+03    0.510383528664296762E+02   -0.524177155925721763E+03
   -0.512919141548372259E+00    0.262994174244603141E+01   -0.238696380884174886E+00    0.115335687887954847E+03    0.510383528664296762E+02   -0.524177155925721763E+03
   -0.498153507861702316E+00    0.260832692314292025E+01   -0.258413678324547647E+00    0.115576701420617312E+03    0.514497841837422811E+02   -0.524170442640651117E+03
   -0.498153507861702316E+00    0.260832692314292025E+01   -0.258413678324547647E+00    0.115576701420617312E+03    0.514497841837422811E+02   -0.524170442640651117E+03
   -0.539961906138612946E+00    0.264483142021870732E+01   -0.188549269328493807E+00    0.115692716991593770E+03    0.518044383097017374E+02   -0.524167188855607719E+03
   -0.510949035192005852E+00    0.262880987136562316E+01   -0.240111399963772953E+00    0.115034638089892638E+03    0.531891354914834267E+02   -0.524162610921555483E+03
   -0.522586498548625933E+00    0.264101342829408647E+01   -0.229327190079933629E+00    0.116118750435818527E+03    0.521606362979217693E+02   -0.524160968203056200E+03
   -0.503120164705845418E+00    0.262019201134763380E+01   -0.262450523148487491E+00    0.116079224379266606E+03    0.517704162912397976E+02   -0.524151280980399406E+03
   -0.513011998431943894E+00    0.263291839065932809E+01   -0.236774231127338197E+00    0.114296323574965598E+03    0.521624720841813598E+02   -0.524136270881055452E+03
   -0.513011998431943894E+00    0.263291839065932809E+01   -0.236774231127338197E+00    0.114296323574965598E+03    0.521624720841813598E+02   -0.524136270881055452E+03
   -0.493691780432500948E+00    0.261548873320942832E+01   -0.272918003610543636E+00    0.115822526436608669E+03    0.516709311994648601E+02   -0.524107973136260625E+03
   -0.499219286405184093E+00    0.260509965144312927E+01   -0.255154388117963649E+00    0.115201628939330831E+03    0.515328062309496602E+02   -0.524106486679335035E+03
   -0.499219286405184093E+00    0.260509965144312927E+01   -0.255154388117963649E+00    0.115201628939330831E+03    0.515328062309496602E+02   -0.524106486679335035E+03
   -0.510109370662956252E+00    0.263389758503988691E+01   -0.252245592097823490E+00    0.116083446428113575E+03    0.519262569519782460E+02   -0.524084407072321028E+03
   -0.510109370662956252E+00    0.263389758503988691E+01   -0.252245592097823490E+00    0.116083446428113575E+03    0.519262569519782460E+02   -0.524084407072321028E+03
   -0.481869777911508201E+00    0.260422172869583113E+01   -0.294189370416754414E+00    0.114735194644394895E+03    0.528477180843902374E+02   -0.524069139952307751E+03
   -0.546425801270962630E+00    0.265347276694557976E+01   -0.179662425153054528E+00    0.114994477571513883E+03    0.518671982123372004E+02   -0.524068872886342433E+03
   -0.525172695528468125E+00    0.263684623776717642E+01   -0.218749146595191846E+00    0.115874966273131875E+03    0.527215010821174701E+02   -0.524067433634845997E+03
   -0.509595371655595208E+00    0.262965721871400637E+01   -0.243534273338939400E+00    0.114394705791976122E+03    0.518434804350692673E+02   -0.524052909211824499E+03
   -0.509595371655595208E+00    0.262965721871400637E+01   -0.243534273338939400E+00    0.114394705791976122E+03    0.518434804350692673E+02   -0.524052909211824499E+03
   -0.502607390145463739E+00    0.261755575347867664E+01   -0.253012393709084904E+00    0.115462978572948288E+03    0.528791991011418645E+02   -0.524049720683258784E+03
   -0.502607390145463739E+00    0.261755575347867664E+01   -0.253012393709084904E+00    0.115462978572948288E+03    0.528791991011418645E+02   -0.524049720683258784E+03
   -0.526631605811399339E+00    0.263800420880314856E+01   -0.208603977532003881E+00    0.114212491268258759E+03    0.526544216952127044E+02   -0.524038315618377283E+03
   -0.526631605811399339E+00    0.263800420880314856E+01   -0.208603977532003881E+00    0.114212491268258759E+03    0.526544216952127044E+02   -0.524038315618377283E+03
   -0.501981856813557670E+00    0.261286662712389939E+01   -0.253451777904203368E+00    0.114003815763217389E+03    0.531654511453370162E+02   -0.524031891877140424E+03
   -0.501981856813557670E+00    0.261286662712389939E+01   -0.253451777904203368E+00    0.114003815763217389E+03    0.531654511453370162E+02   -0.524031891877140424E+03
   -0.490625344906296057E+00    0.259757855243285185E+01   -0.268545358236893961E+00    0.114709382581626684E+03    0.525767265864979265E+02   -0.524011345074686346E+03
   -0.522008759974664116E+00    0.264654800802524282E+01   -0.232581921102667621E+00    0.115401289785600952E+03    0.521542637181103999E+02   -0.523986470424128242E+03
   -0.522008759974664116E+00    0.264654800802524282E+01   -0.232581921102667621E+00    0.115401289785600952E+03    0.521542637181103999E+02   -0.523986470424128242E+03
   -0.501617439713218261E+00    0.261030058226019834E+01   -0.247848861474462723E+00    0.114139607503510021E+03    0.526677585964425248E+02   -0.523983063830968831E+03
   -0.501617439713218261E+00    0.261030058226019834E+01   -0.247848861474462723E+00    0.114139607503510021E+03    0.526677585964425248E+02   -0.523983063830968831E+03
   -0.527926105218324615E+00    0.264679544478100626E+01   -0.218984662668020746E+00    0.115573452689288828E+03    0.512368620270389954E+02   -0.523976799403120594E+03
   -0.532517733413766514E+00    0.264855678448998066E+01   -0.212394475172967390E+00    0.115541302443593864E+03    0.523132389307981214E+02   -0.523974561099627181E+03
   -0.508921548660653755E+00    0.261695454651093673E+01   -0.247300909083991272E+00    0.115374786520387602E+03    0.520477667367006234E+02   -0.523969491605877352E+03
   -0.508921548660653755E+00    0.261695454651093673E+01   -0.247300909083991272E+00    0.115374786520387602E+03    0.520477667367006234E+02   -0.523969491605877352E+03
   -0.485766870962468289E+00    0.260228928081293098E+01   -0.281681646995046719E+00    0.114172309746769415E+03    0.527301272946717745E+02   -0.523944529962453316E+03
   -0.489581760346229800E+00    0.261356806419306631E+01   -0.279384840974630677E+00    0.114256807373368389E+03    0.525787805212717103E+02   -0.523943526606286696E+03
   -0.488330209503776480E+00    0.261530386463093922E+01   -0.288974089880749574E+00    0.115566012358614628E+03    0.518083012494172976E+02   -0.523938235822233196E+03
   -0.544975217775609977E+00    0.265468446276318737E+01   -0.184297137526492349E+00    0.115563432422252234E+03    0.520114592128298625E+02   -0.523935388894180051E+03
   -0.531968252952482956E+00    0.264429011794569657E+01   -0.203422338598704400E+00    0.115514591727198436E+03    0.519670009252864418E+02   -0.523930546048867654E+03
   -0.516134339593147473E+00    0.261899400697322182E+01   -0.222087383118154236E+00    0.114118147547330466E+03    0.527693571861689179E+02   -0.523926586907629144E+03
   -0.485600148377304919E+00    0.260294219198992227E+01   -0.280811166587337624E+00    0.115154623924078237E+03    0.521739226427365850E+02   -0.523921639801229389E+03
   -0.544328649134192766E+00    0.265643899380955473E+01   -0.188066870672335185E+00    0.115137397884425113E+03    0.522139443273392487E+02   -0.523921591160204798E+03
   -0.488492629262616163E+00    0.260693178638162104E+01   -0.280705038111019434E+00    0.114975401350307791E+03    0.513859646067513722E+02   -0.523910304295959691E+03
   -0.488492629262616163E+00    0.260693178638162104E+01   -0.280705038111019434E+00    0.114975401350307791E+03    0.513859646067513722E+02   -0.523910304295959691E+03
   -0.512386732961946478E+00    0.263706897636430782E+01   -0.246275887962850604E+00    0.114757744223692413E+03    0.528342869021096249E+02   -0.523905365377049520E+03
   -0.512386732961946478E+00    0.263706897636430782E+01   -0.246275887962850604E+00    0.114757744223692413E+03    0.528342869021096249E+02   -0.523905365377049520E+03
   -0.524953477534493729E+00    0.262792484275419769E+01   -0.208942711122952929E+00    0.114024924099014768E+03    0.527768575281993435E+02   -0.523903418467294046E+03
   -0.521155949163196297E+00    0.263216880612041360E+01   -0.218424501792235048E+00    0.115034475159194784E+03    0.517537587693360308E+02   -0.523886423914523789E+03
   -0.521155949163196297E+00    0.263216880612041360E+01   -0.218424501792235048E+00    0.115034475159194784E+03    0.517537587693360308E+02   -0.523886423914523789E+03
   -0.499976420625616313E+00    0.261110933671010104E+01   -0.261226050072405513E+00    0.114809767724002953E+03    0.528299563646898207E+02   -0.523871918917476933E+03
   -0.505880787831104684E+00    0.261269435685587847E+01   -0.247112481774374615E+00    0.114933308199692661E+03    0.514568927060986141E+02   -0.523862411231463966E+03
   -0.505880787831104684E+00    0.261269435685587847E+01   -0.247112481774374615E+00    0.114933308199692661E+03    0.514568927060986141E+02   -0.523862411231463966E+03
   -0.493142166670152093E+00    0.261501211704668579E+01   -0.277069079277971753E+00    0.115502653601573400E+03    0.527840309108881343E+02   -0.523836732128103563E+03
   -0.533054232732398603E+00    0.264950084711567380E+01   -0.209791532794717739E+00    0.115382426334028338E+03    0.526575347565755578E+02   -0.523816048115224135E+03
   -0.533054232732398603E+00    0.264950084711567380E+01   -0.209791532794717739E+00    0.115382426334028338E+03    0.526575347565755578E+02   -0.523816048115224135E+03
   -0.515324465909655416E+00    0.262527213481718480E+01   -0.236319623428977721E+00    0.115216183892974897E+03    0.512985339313903808E+02   -0.523809986757550291E+03
   -0.533210507630135666E+00    0.263500270645642631E+01   -0.198324118917835079E+00    0.114407030567337088E+03    0.523085383188298181E+02   -0.523806133166043082E+03
   -0.541229813580599739E+00    0.265611745142424605E+01   -0.193558723415579337E+00    0.114987800324508726E+03    0.521312291140138484E+02   -0.523804420972638468E+03
   -0.541229813580599739E+00    0.265611745142424605E+01   -0.193558723415579337E+00    0.114987800324508726E+03    0.521312291140138484E+02   -0.523804420972638468E+03
   -0.519054331208054442E+00    0.262751206923265190E+01   -0.221371323411771570E+00    0.114587340676136378E+03    0.516671224276053351E+02   -0.523800729837372955E+03
   -0.511938333654207156E+00    0.261611344307210469E+01   -0.233860851280233817E+00    0.114437600226648868E+03    0.532384443270205168E+02   -0.523792841260318028E+03
   -0.523179860067723546E+00    0.262784889740849215E+01   -0.219643716493321151E+00    0.115045268564648666E+03    0.529433242323946729E+02   -0.523791946476217504E+03
   -0.523179860067723546E+00    0.262784889740849215E+01   -0.219643716493321151E+00    0.115045268564648666E+03    0.529433242323946729E+02   -0.523791946476217504E+03
   -0.489822478014033891E+00    0.261268815568894208E+01   -0.277506462261126075E+00    0.114548472872023410E+03    0.520430887563985607E+02   -0.523773870176692981E+03
   -0.490383465365679783E+00    0.261436076451984034E+01   -0.284848267865289273E+00    0.115315118731098650E+03    0.517965103510689744E+02   -0.523769682145586103E+03
   -0.498168628419170645E+00    0.261864357922016122E+01   -0.271160039837027966E+00    0.115110500706942446E+03    0.520460325743241299E+02   -0.523753449076606103E+03
   -0.506017025054541492E+00    0.262925619370147201E+01   -0.251338913549759013E+00    0.115231534140380290E+03    0.521114546398673895E+02   -0.523749173541332198E+03
   -0.511489987907708610E+00    0.263455007381026407E+01   -0.245744200361530218E+00    0.114810326254809880E+03    0.515822761957416276E+02   -0.523749170153180216E+03
   -0.538889704803924730E+00    0.264977390208047048E+01   -0.191704086570210208E+00    0.114680131903382048E+03    0.529150944876388394E+02   -0.523740957595910913E+03
   -0.499594383298253675E+00    0.261729958135244178E+01   -0.265200088016532831E+00    0.114559162269560630E+03    0.527311749342555061E+02   -0.523737341045810922E+03
   -0.531021993698255201E+00    0.263669273844285001E+01   -0.208140423487606085E+00    0.115554820992514891E+03    0.514496266635713653E+02   -0.523701450699727275E+03
   -0.531021993698255201E+00    0.263669273844285001E+01   -0.208140423487606085E+00    0.115554820992514891E+03    0.514496266635713653E+02   -0.523701450699727275E+03
   -0.528338907344434006E+00    0.263016484486168389E+01   -0.209243845271162243E+00    0.115135051285466545E+03    0.517330449878868706E+02   -0.523701223614901664E+03
   -0.528338907344434006E+00    0.263016484486168389E+01   -0.209243845271162243E+00    0.115135051285466545E+03    0.517330449878868706E+02   -0.523701223614901664E+03
   -0.504969186727755037E+00    0.261281764990490561E+01   -0.251108336987629244E+00    0.114764164157869004E+03    0.521170433217478433E+02   -0.523662052474435541E+03
   -0.504969186727755037E+00    0.261281764990490561E+01   -0.251108336987629244E+00    0.114764164157869004E+03    0.521170433217478433E+02   -0.523662052474435541E+03
   -0.492288297023524279E+00    0.261494426516287160E+01   -0.274815297101048017E+00    0.114576409442355171E+03    0.518374610894462080E+02   -0.523661772017539988E+03
   -0.498244404512579564E+00    0.261076386661729964E+01   -0.261371712773886600E+00    0.114681499046038979E+03    0.515452718864862334E+02   -0.523656668634331027E+03
   -0.498244404512579564E+00    0.261076386661729964E+01   -0.261371712773886600E+00    0.114681499046038979E+03    0.515452718864862334E+02   -0.523656668634331027E+03
   -0.511726142659870931E+00    0.262991230651043484E+01   -0.243346518425610725E+00    0.116004876718518759E+03    0.513610246915906146E+02   -0.523651921941299292E+03
   -0.497132893703726708E+00    0.261955412993639625E+01   -0.272690962148953275E+00    0.115541795328352691E+03    0.525448376637676517E+02   -0.523647044969153058E+03
   -0.520115576082182507E+00    0.263420987898844849E+01   -0.225373985381406072E+00    0.114027564438071181E+03    0.530005398317176457E+02   -0.523630125732120632E+03
   -0.489608972154503164E+00    0.261481548578398781E+01   -0.284943236450578397E+00    0.115723305863471467E+03    0.518738591193740035E+02   -0.523622907408902392E+03
   -0.489608972154503164E+00    0.261481548578398781E+01   -0.284943236450578397E+00    0.115723305863471467E+03    0.518738591193740035E+02   -0.523622907408902392E+03
   -0.529733291314121502E+00    0.263210028350651060E+01   -0.206947108661823975E+00    0.115161351868408474E+03    0.527552277759855883E+02   -0.523591021995760229E+03
   -0.520013760533018399E+00    0.263684649362459611E+01   -0.232457449145936579E+00    0.115093224902931539E+03    0.515219262332472283E+02   -0.523590300962980223E+03
   -0.520013760533018399E+00    0.263684649362459611E+01   -0.232457449145936579E+00    0.115093224902931539E+03    0.515219262332472283E+02   -0.523590300962980223E+03
   -0.502617412911163797E+00    0.261163835082164253E+01   -0.253865641722745394E+00    0.114788317727330764E+03    0.530965359464956919E+02   -0.523588631534543083E+03
   -0.525589981496750625E+00    0.263848361318940361E+01   -0.222143447383047032E+00    0.115428580489226647E+03    0.525633002174844250E+02   -0.523582976510005324E+03
   -0.494774793613881769E+00    0.261223762219252542E+01   -0.269058173300956938E+00    0.114228964320951278E+03    0.521992767623018494E+02   -0.523581711256900462E+03
   -0.498408215222323037E+00    0.260949189180580854E+01   -0.258745586163293240E+00    0.115508821391022025E+03    0.525900814508661085E+02   -0.523571574039097641E+03
   -0.515880886473981448E+00    0.262796343137716093E+01   -0.229313078330386944E+00    0.114096425451086731E+03    0.533438130277863252E+02   -0.523567791532638239E+03
   -0.537004570396280023E+00    0.264996269538181028E+01   -0.200124687151845393E+00    0.115272453647859749E+03    0.527315339182643470E+02   -0.523557354733122111E+03
   -0.537004570396280023E+00    0.264996269538181028E+01   -0.200124687151845393E+00    0.115272453647859749E+03    0.527315339182643470E+02   -0.523557354733122111E+03
   -0.519950067678802696E+00    0.263474843968304340E+01   -0.231096404223853469E+00    0.115926601787103195E+03    0.524511126000805632E+02   -0.523548196708175624E+03
   -0.526838717763506992E+00    0.264536029432872688E+01   -0.219274762096713260E+00    0.115193002740218830E+03    0.528735596583465792E+02   -0.523545974191261394E+03
   -0.526838717763506992E+00    0.264536029432872688E+01   -0.219274762096713260E+00    0.115193002740218830E+03    0.528735596583465792E+02   -0.523545974191261394E+03
   -0.525810595750410670E+00    0.262460317091248196E+01   -0.208388922891964867E+00    0.114695696324060705E+03    0.524912077620648461E+02   -0.523540816482210744E+03
   -0.525810595750410670E+00    0.262460317091248196E+01   -0.208388922891964867E+00    0.114695696324060705E+03    0.524912077620648461E+02   -0.523540816482210744E+03
   -0.504685924229189453E+00    0.262336317172610789E+01   -0.251812115263760461E+00    0.115232891106124455E+03    0.529379890657552039E+02   -0.523529936271623455E+03
   -0.532085491455584148E+00    0.263441281958666540E+01   -0.200742530608476244E+00    0.115594302599537471E+03    0.518484662491414099E+02   -0.523528291462659809E+03
   -0.527882693206338516E+00    0.264755913207029536E+01   -0.218447581665579094E+00    0.115124993105388356E+03    0.527144835154917075E+02   -0.523520892434466646E+03
   -0.527882693206338516E+00    0.264755913207029536E+01   -0.218447581665579094E+00    0.115124993105388356E+03    0.527144835154917075E+02   -0.523520892434466646E+03
   -0.514406279729515248E+00    0.263241846622954334E+01   -0.233240929191095958E+00    0.114894650585354739E+03    0.521904513169182280E+02   -0.523506992035198778E+03
   -0.491021512070110688E+00    0.260993166564493073E+01   -0.271926225971116153E+00    0.114740810518139753E+03    0.524703826356854108E+02   -0.523504093752820154E+03
   -0.506356576120982282E+00    0.262750020203058021E+01   -0.248961652704442926E+00    0.114401376516445765E+03    0.528853635338722370E+02   -0.523501544375688241E+03
   -0.497725281644096462E+00    0.261649339162139016E+01   -0.262576581613704008E+00    0.115446991762735706E+03    0.520377356704069598E+02   -0.523494467952564833E+03
   -0.525450105878352502E+00    0.263386778688285172E+01   -0.216474125457924771E+00    0.114421470213023412E+03    0.529357561895622837E+02   -0.523493122835190889E+03
   -0.505540631325316347E+00    0.261260945427682634E+01   -0.242137715384803442E+00    0.114505480947991558E+03    0.520684756719264215E+02   -0.523487112000223078E+03
   -0.505540631325316347E+00    0.261260945427682634E+01   -0.242137715384803442E+00    0.114505480947991558E+03    0.520684756719264215E+02   -0.523487112000223078E+03
   -0.530758088842627984E+00    0.263484661891660465E+01   -0.204120668170038044E+00    0.114408317925978110E+03    0.528679445582265259E+02   -0.523484286092060302E+03
   -0.492234892303402560E+00    0.260990704665479267E+01   -0.278549259266853255E+00    0.115668100505606347E+03    0.519870946036681971E+02   -0.523483654169651913E+03
   -0.533266740317772658E+00    0.264075581864445175E+01   -0.196977017603309434E+00    0.114660488492224033E+03    0.526276589936647099E+02   -0.523473537667881601E+03
   -0.483033402963501501E+00    0.260187001144304997E+01   -0.289222007789160074E+00    0.114596453329501998E+03    0.525677493170028640E+02   -0.523471042520076708E+03
   -0.517136961497060454E+00    0.263641811239834789E+01   -0.230602940612623541E+00    0.114751789514063489E+03    0.528745618842049794E+02   -0.523465145967132230E+03
   -0.539375684631124841E+00    0.264577598880979270E+01   -0.191118352811631809E+00    0.114783065894368193E+03    0.528815944018890605E+02   -0.523463612361790069E+03
   -0.498818354502899020E+00    0.260625777878955178E+01   -0.259023812950159638E+00    0.115150588422522148E+03    0.517026618006837566E+02   -0.523456853679074584E+03
   -0.523078211902285872E+00    0.262614585863552907E+01   -0.213033059276130032E+00    0.115329217020078090E+03    0.523273616649604492E+02   -0.523445311740117745E+03
   -0.528062407424686242E+00    0.264217830805514486E+01   -0.217929994610546629E+00    0.115741220496992767E+03    0.513797723535066950E+02   -0.523436498033782414E+03
   -0.526384916395121749E+00    0.263945383209046813E+01   -0.212182085198623582E+00    0.114912560701765571E+03    0.517769626179862144E+02   -0.523426769458451872E+03
   -0.526384916395121749E+00    0.263945383209046813E+01   -0.212182085198623582E+00    0.114912560701765571E+03    0.517769626179862144E+02   -0.523426769458451872E+03
   -0.531957275902126270E+00    0.263885437394171163E+01   -0.206382169548589900E+00    0.114785821737929425E+03    0.521625882944871933E+02   -0.523414706421836854E+03
   -0.524302250982245255E+00    0.263818014652593247E+01   -0.217702052435949867E+00    0.115631220027119298E+03    0.522606998469214830E+02   -0.523405056457163937E+03
   -0.524302250982245255E+00    0.263818014652593247E+01   -0.217702052435949867E+00    0.115631220027119298E+03    0.522606998469214830E+02   -0.523405056457163937E+03
   -0.525640200962696369E+00    0.263230674457471325E+01   -0.211372780471579702E+00    0.114087366143488438E+03    0.525750378382009842E+02   -0.523398625826584066E+03
   -0.494797235770128907E+00    0.261628490982495432E+01   -0.274326073694190598E+00    0.115358239629286331E+03    0.513308668776258514E+02   -0.523396379641499266E+03
   -0.490844081554402401E+00    0.261404599359985212E+01   -0.283042156683084301E+00    0.115171987795348386E+03    0.521604529797955081E+02   -0.523393376159763079E+03
   -0.515886903870493185E+00    0.263604163289555649E+01   -0.232868596739358225E+00    0.114806719384024731E+03    0.525718999112610277E+02   -0.523392926744717897E+03
   -0.482566269531364611E+00    0.260474308887366668E+01   -0.291654427518016846E+00    0.115010357311552781E+03    0.519050572543192743E+02   -0.523385677459660315E+03
   -0.511517642507746118E+00    0.262256807416427540E+01   -0.239009080408621344E+00    0.115868231798899572E+03    0.523586580272056779E+02   -0.523381721522827661E+03
   -0.511517642507746118E+00    0.262256807416427540E+01   -0.239009080408621344E+00    0.115868231798899572E+03    0.523586580272056779E+02   -0.523381721522827661E+03
   -0.504997529515026855E+00    0.262519869063765254E+01   -0.255285135733540614E+00    0.115831612478627235E+03    0.523553888433783641E+02   -0.523377142668680790E+03
   -0.517193975872572764E+00    0.263352472277989991E+01   -0.237661332561554417E+00    0.115179479141849839E+03    0.525397034250181036E+02   -0.523377088312932528E+03
   -0.516477175690742030E+00    0.263442200437458229E+01   -0.236961248666599289E+00    0.115858771894919542E+03    0.524693526337777030E+02   -0.523365620582058455E+03
   -0.497449326366515621E+00    0.260976008132254478E+01   -0.259550119203682428E+00    0.115388787724592646E+03    0.520041379145441738E+02   -0.523365209384300215E+03
   -0.504701560111596059E+00    0.262113369560468756E+01   -0.258735188211069556E+00    0.115627692598728785E+03    0.522041802463371027E+02   -0.523361475076464558E+03
   -0.498734484813271095E+00    0.261936878243735682E+01   -0.264782641370036487E+00    0.114263820910932267E+03    0.524365877790273771E+02   -0.523349022029749221E+03
   -0.506242451920920544E+00    0.261365528204271325E+01   -0.248040942815544341E+00    0.115785350255076267E+03    0.516882970783746600E+02   -0.523345602121069533E+03
   -0.534956389944383659E+00    0.264199769297974907E+01   -0.197529909459662534E+00    0.114332354833752078E+03    0.525911222919486931E+02   -0.523345325030432036E+03
   -0.500962318624392111E+00    0.261198024690995378E+01   -0.258731745548939074E+00    0.115879297291580784E+03    0.520488128919747339E+02   -0.523334822536281308E+03
   -0.534662889835038513E+00    0.265076903505233608E+01   -0.206107555991744462E+00    0.115568233662760349E+03    0.517641918249595108E+02   -0.523334073871573537E+03
   -0.491833436687511671E+00    0.261108821730549723E+01   -0.277196601861696479E+00    0.115830864990414113E+03    0.516597020725749587E+02   -0.523332696293307777E+03
   -0.541062995992756868E+00    0.264436741933738784E+01   -0.185298982356242092E+00    0.114941918898592320E+03    0.522611700112845767E+02   -0.523330818886703696E+03
   -0.541062995992756868E+00    0.264436741933738784E+01   -0.185298982356242092E+00    0.114941918898592320E+03    0.522611700112845767E+02   -0.523330818886703696E+03
   -0.531333978555156961E+00    0.264680771588577590E+01   -0.212484080134171194E+00    0.115524038445963157E+03    0.524245187701964426E+02   -0.523327352884748279E+03
   -0.520794342885315231E+00    0.263624081457830561E+01   -0.231325019210297356E+00    0.115087314275826685E+03    0.521085431311092577E+02   -0.523324682423835043E+03
   -0.506292554905554582E+00    0.262077114712371140E+01   -0.248525888875722245E+00    0.115690344331657897E+03    0.525704809071699515E+02   -0.523324131885262432E+03
   -0.506187886445930602E+00    0.262973326465189627E+01   -0.258954856699656233E+00    0.115624953522841565E+03    0.516397897015907006E+02   -0.523322747272301854E+03
   -0.524548828461935734E+00    0.263893129165833518E+01   -0.224078901906516137E+00    0.115014639054974396E+03    0.520229579153389068E+02   -0.523313268756056914E+03
   -0.532363009093074879E+00    0.264879817392970240E+01   -0.206231511783332877E+00    0.115243017146681098E+03    0.523473544986642025E+02   -0.523304569844180492E+03
   -0.533944727007493292E+00    0.263915819550066066E+01   -0.202971737428370602E+00    0.115495558869659604E+03    0.521332899286943530E+02   -0.523302798516867824E+03
   -0.515156434710469568E+00    0.262311612790940796E+01   -0.230948111838904069E+00    0.115338108732306452E+03    0.529982246198407267E+02   -0.523279217546360428E+03
   -0.495930588233681746E+00    0.262113794490803853E+01   -0.272130874092885833E+00    0.114715360361331093E+03    0.520531495354118476E+02   -0.523279036258006499E+03
   -0.530386054090547177E+00    0.264738143706211027E+01   -0.211146135518074374E+00    0.114569846677653686E+03    0.525068858998023131E+02   -0.523275166087628349E+03
   -0.501523122941774702E+00    0.262010254379534979E+01   -0.255122173978568512E+00    0.115084086091324025E+03    0.523851203452651646E+02   -0.523271937562827247E+03
   -0.494727523811989478E+00    0.260347209993795792E+01   -0.263858221702031770E+00    0.115221815077013389E+03    0.519396549152380089E+02   -0.523260434547569048E+03
   -0.498525764842793428E+00    0.261759730652147837E+01   -0.265187645976739717E+00    0.115641147803726255E+03    0.512971635485437218E+02   -0.523251179409471320E+03
   -0.519074085229368265E+00    0.263587836465707426E+01   -0.232280782711045575E+00    0.114616764498855176E+03    0.527817996844920003E+02   -0.523250683769753323E+03
   -0.534135909783058693E+00    0.264777775692535045E+01   -0.205649820351922585E+00    0.115251498352084411E+03    0.516109739438415431E+02   -0.523233393895648760E+03
   -0.509995611431673268E+00    0.263133416906799944E+01   -0.247660593080151870E+00    0.114556685418959290E+03    0.519902540860508111E+02   -0.523217305378216452E+03
   -0.513164038349241736E+00    0.263002575244094894E+01   -0.245193066893186540E+00    0.115489532467000714E+03    0.522081737740280118E+02   -0.523214399787078946E+03
   -0.498944025284831838E+00    0.261245574551230098E+01   -0.255782125128511950E+00    0.114810746229213308E+03    0.525292232042367857E+02   -0.523207972661040571E+03
   -0.513013092506899859E+00    0.263099624010870725E+01   -0.240897266660699216E+00    0.114281386849986816E+03    0.525833424864760275E+02   -0.523200716873450574E+03
   -0.512730437916477655E+00    0.263051187678018250E+01   -0.242714242933004698E+00    0.114468187230714221E+03    0.526918788438220247E+02   -0.523198125681265083E+03
   -0.501150471649697948E+00    0.261219797971553547E+01   -0.252332983776682340E+00    0.114276771620483956E+03    0.522058601532077091E+02   -0.523194239768500097E+03
   -0.509550133019240903E+00    0.262731395965552039E+01   -0.244541122929414101E+00    0.114817929391500826E+03    0.532307248867186615E+02   -0.523180387176441286E+03
   -0.509140512599117301E+00    0.261778595326177443E+01   -0.237548947007784506E+00    0.114071953382042096E+03    0.527557131086211655E+02   -0.523178479548939094E+03
   -0.519748088210290504E+00    0.261989779781921550E+01   -0.219024011824762610E+00    0.115023214240281902E+03    0.523129952028742196E+02   -0.523164633254610635E+03
   -0.517478094748280881E+00    0.263843266728957371E+01   -0.233270802278861211E+00    0.114498866471450327E+03    0.526902852387036091E+02   -0.523163537069627182E+03
   -0.496405452864012275E+00    0.260764287605229272E+01   -0.266350593147139492E+00    0.114957919604021157E+03    0.524824276263764489E+02   -0.523162172501528516E+03
   -0.535478742729145196E+00    0.264224714895644475E+01   -0.200969907400953218E+00    0.115228280638402836E+03    0.520808410666758732E+02   -0.523153883688489259E+03
   -0.503292434524839294E+00    0.262502374351452961E+01   -0.257086044974769834E+00    0.114767490456407984E+03    0.530364571633441528E+02   -0.523152067967944390E+03
   -0.506060874881636202E+00    0.262371828805707219E+01   -0.253984658853479317E+00    0.115179964029546738E+03    0.529833132868053553E+02   -0.523147749345692091E+03
   -0.527218582281873793E+00    0.263475050878661987E+01   -0.208584458356034119E+00    0.114985294237213026E+03    0.517248988216097985E+02   -0.523143845653610924E+03
   -0.527195936629937023E+00    0.264064978367111713E+01   -0.219472707941115175E+00    0.115359140449170397E+03    0.517942514136062755E+02   -0.523136334963102286E+03
   -0.519109829543996426E+00    0.263797170578321172E+01   -0.227155353103114521E+00    0.114790360742052570E+03    0.523087325672905763E+02   -0.523131930833514161E+03
   -0.512732092913838144E+00    0.261815374592662131E+01   -0.235062228511411675E+00    0.115119721223799857E+03    0.529097959500887782E+02   -0.523128444748995435E+03
   -0.492443919999616675E+00    0.261782817451482064E+01   -0.279093633805262087E+00    0.115064825837401571E+03    0.518921017386633991E+02   -0.523127204197331821E+03
   -0.530914474557696359E+00    0.263309828806353208E+01   -0.199808529191210837E+00    0.114678897391648775E+03    0.523027235085372979E+02   -0.523109175196855972E+03
   -0.525570940228317518E+00    0.263400997577646079E+01   -0.212621294117209203E+00    0.114414121919755061E+03    0.531961654347089166E+02   -0.523100911698730897E+03
   -0.509814443623569424E+00    0.262125698637551485E+01   -0.238712514067186632E+00    0.114221869563613879E+03    0.532106051397018405E+02   -0.523071420703631702E+03
   -0.535162557216278145E+00    0.264430106490482553E+01   -0.197455776476482825E+00    0.114452190520362606E+03    0.526169454778012948E+02   -0.523069782851112222E+03
   -0.500002143939601851E+00    0.261323536458785277E+01   -0.255804862623580931E+00    0.115071132177025078E+03    0.517103230064141428E+02   -0.523054012623046447E+03
   -0.532720903128327983E+00    0.264410912913627261E+01   -0.204129397667410117E+00    0.115070210463161573E+03    0.516283829777337075E+02   -0.523015564763568364E+03
   -0.521036561463176895E+00    0.263373353299583091E+01   -0.222682061210672799E+00    0.115626289651983569E+03    0.522312028975316593E+02   -0.522995874410464467E+03
   -0.516123255770493117E+00    0.263640362762264324E+01   -0.237416519180664309E+00    0.114773037210330642E+03    0.528589820999003450E+02   -0.522984122257601257E+03
   -0.507304683629723918E+00    0.262867095171513254E+01   -0.250852880599936157E+00    0.114392072968506525E+03    0.525015023511934373E+02   -0.522983544697793263E+03
   -0.522948343216119049E+00    0.264370142943433395E+01   -0.226431372855643076E+00    0.114863456881800985E+03    0.521755563601144274E+02   -0.522978671158424277E+03
   -0.519569234231369137E+00    0.263315273510029968E+01   -0.225164712591872984E+00    0.115510194283973689E+03    0.524257984553377980E+02   -0.522973859068199317E+03
   -0.507867264320230660E+00    0.261555050696360825E+01   -0.242426151708253101E+00    0.115236756512616850E+03    0.528641942859841549E+02   -0.522972934499989265E+03
   -0.516684669055111456E+00    0.263094192096917245E+01   -0.236761601314167791E+00    0.115393093817455252E+03    0.514818162190698843E+02   -0.522963654749660577E+03
   -0.514114982717476465E+00    0.262932355708878562E+01   -0.234944127234316014E+00    0.114353157852005083E+03    0.520162880686966957E+02   -0.522962074929848654E+03
   -0.503739544418394303E+00    0.262580695880350001E+01   -0.259680375017218523E+00    0.114745530489034593E+03    0.526164475627565764E+02   -0.522955934562016068E+03
   -0.509280531413004667E+00    0.262043728728102066E+01   -0.243018903017219401E+00    0.114648184427064024E+03    0.516851224299944931E+02   -0.522955288849667113E+03
   -0.533013373092548370E+00    0.263986064661793396E+01   -0.200992835022530514E+00    0.114467143403788114E+03    0.524213517377237963E+02   -0.522943690079122689E+03
   -0.522834757976973208E+00    0.263573393299497072E+01   -0.219703373625462106E+00    0.114442649702505975E+03    0.519867384379686825E+02   -0.522937195274828241E+03
   -0.503057011299706147E+00    0.261168885476832502E+01   -0.247834183870219604E+00    0.114456344874540733E+03    0.529177707799121322E+02   -0.522924630105102892E+03
   -0.525560721286410626E+00    0.264357400435249845E+01   -0.222199195784888559E+00    0.115315648073669252E+03    0.525390884888544178E+02   -0.522906639547494137E+03
   -0.525184629454418683E+00    0.264046825937940621E+01   -0.219893089290012611E+00    0.114732178602236090E+03    0.518518761201099210E+02   -0.522904801040433313E+03
   -0.520431625991559343E+00    0.263109693528615107E+01   -0.219802960157380767E+00    0.114299180724277363E+03    0.525314050336065179E+02   -0.522899002977239093E+03
   -0.523172603897313238E+00    0.262563222273977814E+01   -0.212699787699110132E+00    0.114924854943090651E+03    0.525731788188477367E+02   -0.522885950730151535E+03
   -0.491225955813161974E+00    0.260484607112661637E+01   -0.274714795984122517E+00    0.115423938787547144E+03    0.520960666474967979E+02   -0.522877665138184398E+03
   -0.504133261472786032E+00    0.260985951538419814E+01   -0.246345701567987518E+00    0.114567413365162977E+03    0.526701186334756244E+02   -0.522872937606790515E+03
   -0.502269354493114051E+00    0.262006961174068209E+01   -0.258320150466094134E+00    0.114583377068901626E+03    0.530181943489995717E+02   -0.522860946567880092E+03
   -0.531587695378243907E+00    0.263378163691939537E+01   -0.202177282810708903E+00    0.115189302176710825E+03    0.523593275188126199E+02   -0.522859242432266456E+03
   -0.498575025970840358E+00    0.261798689923881600E+01   -0.262052010360788401E+00    0.115299763475292664E+03    0.521669353082899079E+02   -0.522853269720048161E+03
   -0.519366733971400762E+00    0.262557116627755960E+01   -0.224406874414249558E+00    0.115672671106217095E+03    0.523093445036238904E+02   -0.522849752547911407E+03
   -0.516115745220330879E+00    0.263751166332680675E+01   -0.235430323085331850E+00    0.114705437082845989E+03    0.524415809599414899E+02   -0.522846161572221604E+03
   -0.524943458315653366E+00    0.263016413264579851E+01   -0.216300688799229590E+00    0.115640110442916665E+03    0.517910638589710004E+02   -0.522838822769483045E+03
   -0.537576489044530703E+00    0.264529765476116507E+01   -0.193944897207966704E+00    0.114835798754556748E+03    0.525660602541861408E+02   -0.522803548504599462E+03
   -0.519656297916428755E+00    0.263871312655800194E+01   -0.228118675667293047E+00    0.114845736957924757E+03    0.527211081577264906E+02   -0.522780515096153522E+03
   -0.514695345579086805E+00    0.263689825530626054E+01   -0.242777017832182196E+00    0.115184374766041316E+03    0.521467021245204023E+02   -0.522780483050017665E+03
   -0.531051919074248424E+00    0.263338598881595098E+01   -0.201844799393157359E+00    0.115144865147730215E+03    0.522945833675205165E+02   -0.522767869909227443E+03
   -0.508799097212840223E+00    0.262992822879493326E+01   -0.251248490771903477E+00    0.115680195262114964E+03    0.515334557202565691E+02   -0.522764959863807690E+03
   -0.511291778368116567E+00    0.262033131223337712E+01   -0.238192256117013557E+00    0.114658214119537291E+03    0.531241224811456334E+02   -0.522764131000512066E+03
   -0.528383140270879181E+00    0.263389193496204532E+01   -0.205988102189783362E+00    0.114805867298616022E+03    0.528490033283056846E+02   -0.522762941574207844E+03
   -0.519755285964112801E+00    0.263877492853448947E+01   -0.232792389236154307E+00    0.115313560560055095E+03    0.525191762561992732E+02   -0.522761566732860729E+03
   -0.500169057184163712E+00    0.261649812434804208E+01   -0.259857916417669088E+00    0.114480578422409408E+03    0.530233826377095738E+02   -0.522759235193939389E+03
   -0.514813189072019561E+00    0.263319547501696150E+01   -0.241054768118475593E+00    0.114924792645824397E+03    0.521096901926435976E+02   -0.522756071167294408E+03
   -0.528960413479587110E+00    0.263896557856799285E+01   -0.208316278591379245E+00    0.114723038736967055E+03    0.529947725403053198E+02   -0.522751253560492728E+03
   -0.508118837371824839E+00    0.262047349724485645E+01   -0.249713978470969877E+00    0.115570466669934149E+03    0.522171306208386170E+02   -0.522749386774441518E+03
   -0.493360628916139632E+00    0.261374588750656489E+01   -0.271145745595742227E+00    0.114554287627746461E+03    0.525062967470099693E+02   -0.522742592689522098E+03
   -0.491474033335174809E+00    0.260547435125902016E+01   -0.271023793236457422E+00    0.114803580004124186E+03    0.526656984193367919E+02   -0.522739206173508933E+03
   -0.527305204129488558E+00    0.263832242976955067E+01   -0.210958953360510293E+00    0.115063785953386770E+03    0.517795372455479992E+02   -0.522729347759332882E+03
   -0.524889048554591398E+00    0.263908844557769218E+01   -0.220005385938403464E+00    0.115802045289416142E+03    0.518653424736498607E+02   -0.522724965685641564E+03
   -0.515643390987872152E+00    0.263348787126880568E+01   -0.236414844186462858E+00    0.115492892912713302E+03    0.514199235715517489E+02   -0.522724056868360321E+03
   -0.492607316924949856E+00    0.261550668719125312E+01   -0.277238979055017154E+00    0.115196372151959125E+03    0.524415556435153007E+02   -0.522712912476375436E+03
   -0.528267851439891523E+00    0.264317353366949837E+01   -0.212276748302253182E+00    0.115054561053646722E+03    0.518528670937153606E+02   -0.522710930985844470E+03
   -0.521977894247889651E+00    0.262465053172943685E+01   -0.215472060630236939E+00    0.114848259614705881E+03    0.521526101483740945E+02   -0.522703753925757837E+03
   -0.530495216279084580E+00    0.264427231722562661E+01   -0.211106771178942054E+00    0.115641669439728688E+03    0.518516212672643633E+02   -0.522693075614822533E+03
   -0.509843902276784888E+00    0.262447330822022540E+01   -0.247248206390436209E+00    0.114909913964086002E+03    0.519819578696211124E+02   -0.522686092635660202E+03
   -0.508607775961479547E+00    0.262725537815565602E+01   -0.246549484219569237E+00    0.114994723291415696E+03    0.516004154237934642E+02   -0.522683610332844069E+03
   -0.497413675662880195E+00    0.260619671321731738E+01   -0.259776922690067025E+00    0.114746760663352916E+03    0.524164618399412632E+02   -0.522674818687854213E+03
   -0.519585025226152908E+00    0.263548887070461646E+01   -0.229693038911779723E+00    0.114531491486374591E+03    0.523773057149345220E+02   -0.522671821692119920E+03
   -0.508303975575661759E+00    0.261940089559460088E+01   -0.241380421161483838E+00    0.114237465664971708E+03    0.523948306187858179E+02   -0.522667399150067354E+03
   -0.509299960845327249E+00    0.262313211715862060E+01   -0.244987544690284054E+00    0.115284506629750666E+03    0.513272037892467665E+02   -0.522665986766137848E+03
   -0.506331558881389476E+00    0.261519544467503540E+01   -0.244149855337505883E+00    0.114562416975222092E+03    0.520038444489862570E+02   -0.522656960242364107E+03
   -0.514454551209775346E+00    0.261879639003649878E+01   -0.227446970558645489E+00    0.114808963170739602E+03    0.523941820010145420E+02   -0.522655007764819629E+03
   -0.506579978993860536E+00    0.261162267015341731E+01   -0.243421193663179380E+00    0.115050135935374257E+03    0.524233223016449585E+02   -0.522649450216694049E+03
   -0.522378074959187089E+00    0.262586342734887213E+01   -0.214595905761559180E+00    0.114799133994848276E+03    0.526499833834086814E+02   -0.522647967326453681E+03
   -0.527604004195810106E+00    0.263860018276000474E+01   -0.215592226604320203E+00    0.115243621023815052E+03    0.516733663232009519E+02   -0.522636171669151508E+03
   -0.496228228435209751E+00    0.260675396040874219E+01   -0.263210056983972152E+00    0.114690422750662734E+03    0.525293221573444384E+02   -0.522623683872061861E+03
   -0.507816325386651002E+00    0.262219392385311245E+01   -0.247846297426828954E+00    0.115104559027008975E+03    0.518147671135093617E+02   -0.521774321012094219E+03
   -0.507816325386651002E+00    0.262219392385311245E+01   -0.247846297426828954E+00    0.115104559027008975E+03    0.518147671135093617E+02   -0.521774321012094219E+03
   -0.502981147322229205E+00    0.261278757551957286E+01   -0.252148561478058753E+00    0.115453126748396599E+03    0.522954168112368052E+02   -0.522473503706758834E+03
   -0.505471725533513272E+00    0.261939583250006924E+01   -0.249301778109527916E+00    0.115127319178534748E+03    0.522102404109676286E+02   -0.521647872434217675E+03
   -0.505471725533513272E+00    0.261939583250006924E+01   -0.249301778109527916E+00    0.115127319178534748E+03    0.522102404109676286E+02   -0.521647872434217675E+03
   -0.511969844487087933E+00    0.262957904220657523E+01   -0.244799344819654152E+00    0.115726032929065667E+03    0.517570296186192707E+02   -0.522318344153415637E+03
   -0.511969844487087933E+00    0.262957904220657523E+01   -0.244799344819654152E+00    0.115726032929065667E+03    0.517570296186192707E+02   -0.522318344153415637E+03
   -0.504858075799978323E+00    0.261812345229563936E+01   -0.252914638731063235E+00    0.115019117306933609E+03    0.519510627152466213E+02   -0.521991175227580356E+03
   -0.516528688587321483E+00    0.262645896385777222E+01   -0.231278665740589418E+00    0.114808000403486815E+03    0.517101700209548198E+02   -0.522591463751474066E+03
   -0.499008880482199046E+00    0.261806240541359436E+01   -0.265255974998037658E+00    0.115307999562752599E+03    0.516815186998142337E+02   -0.522274627037154119E+03
   -0.526064374157130032E+00    0.263518347639296735E+01   -0.216840064240825470E+00    0.115273294705756143E+03    0.520813180064049277E+02   -0.522141713618490257E+03
   -0.501929581957361037E+00    0.261813977583940671E+01   -0.256608730450894384E+00    0.114519490691128027E+03    0.521847224426441301E+02   -0.522278004580552533E+03
   -0.504350867360217947E+00    0.262207761520578808E+01   -0.252784860991214444E+00    0.114750286930548413E+03    0.520562550370351573E+02   -0.522054817325932163E+03
   -0.504350867360217947E+00    0.262207761520578808E+01   -0.252784860991214444E+00    0.114750286930548413E+03    0.520562550370351573E+02   -0.522054817325932163E+03
   -0.511851873691595571E+00    0.262544508089631456E+01   -0.240111055666719864E+00    0.114793010009300986E+03    0.523422512410332956E+02   -0.521572699904545289E+03
   -0.511851873691595571E+00    0.262544508089631456E+01   -0.240111055666719864E+00    0.114793010009300986E+03    0.523422512410332956E+02   -0.521572699904545289E+03
   -0.518325586100431224E+00    0.263227884086322250E+01   -0.232296562584910049E+00    0.115315382015541104E+03    0.516681112970535992E+02   -0.522178803878489816E+03
   -0.518325586100431224E+00    0.263227884086322250E+01   -0.232296562584910049E+00    0.115315382015541104E+03    0.516681112970535992E+02   -0.522178803878489816E+03
   -0.500555107373058306E+00    0.261238692871116118E+01   -0.256289301405219661E+00    0.114853825869864011E+03    0.526728429733790335E+02   -0.522094826010431802E+03
   -0.507112634562107090E+00    0.262366393539099718E+01   -0.250047526963832922E+00    0.114597096926949220E+03    0.524682685204158190E+02   -0.522160180948326115E+03
   -0.507112634562107090E+00    0.262366393539099718E+01   -0.250047526963832922E+00    0.114597096926949220E+03    0.524682685204158190E+02   -0.522160180948326115E+03
   -0.508548384429948541E+00    0.261793514385588910E+01   -0.241955615320897266E+00    0.114874839730729562E+03    0.521686113161050287E+02   -0.521796430701200393E+03
   -0.508548384429948541E+00    0.261793514385588910E+01   -0.241955615320897266E+00    0.114874839730729562E+03    0.521686113161050287E+02   -0.521796430701200393E+03
   -0.516666027372874481E+00    0.262851293565445232E+01   -0.232577277539123273E+00    0.114634625216415657E+03    0.527625668576432929E+02   -0.522411407190577506E+03
   -0.503199358128805230E+00    0.262091667778358284E+01   -0.256150934201803793E+00    0.115249561691457217E+03    0.523627491597306118E+02   -0.521827214711041165E+03
   -0.503199358128805230E+00    0.262091667778358284E+01   -0.256150934201803793E+00    0.115249561691457217E+03    0.523627491597306118E+02   -0.521827214711041165E+03
   -0.499584612792593141E+00    0.262129419069582914E+01   -0.265555025614915508E+00    0.115382358154006013E+03    0.520229156781569486E+02   -0.522250890431856533E+03
   -0.515773527135136689E+00    0.262331096919976359E+01   -0.229329123880383179E+00    0.114920144339789672E+03    0.517995759913546863E+02   -0.522283794621465290E+03
   -0.507214278976672261E+00    0.262057408192973496E+01   -0.251002363626595226E+00    0.115083064451048330E+03    0.522523141724228140E+02   -0.522443589417695193E+03
   -0.521491895819329088E+00    0.264035582851084882E+01   -0.227414732037678036E+00    0.115273415772422410E+03    0.522012862357360348E+02   -0.522287559785812505E+03
   -0.505662261599237439E+00    0.262458027881863476E+01   -0.252370829614090297E+00    0.114657962800112074E+03    0.519452863465674852E+02   -0.522441814665581205E+03
   -0.523802881092823469E+00    0.263600991934136131E+01   -0.221082088639750651E+00    0.115106472183636271E+03    0.519310432165507621E+02   -0.521916337386001715E+03
   -0.523802881092823469E+00    0.263600991934136131E+01   -0.221082088639750651E+00    0.115106472183636271E+03    0.519310432165507621E+02   -0.521916337386001715E+03
   -0.511761546705693959E+00    0.262804199181557907E+01   -0.242735129793702598E+00    0.115563160843235508E+03    0.525187734835730566E+02   -0.522374644767295649E+03
   -0.512934040422139859E+00    0.262138018139562101E+01   -0.235108981306982656E+00    0.114629008958452360E+03    0.522416333529367591E+02   -0.522080474107267946E+03
   -0.503234046663108003E+00    0.261732481139264106E+01   -0.252789032911524103E+00    0.115472716670769501E+03    0.522702078061435031E+02   -0.522434177492588674E+03
   -0.520028733678907784E+00    0.263598212852389313E+01   -0.227697209394545297E+00    0.114575432317279521E+03    0.520684733588078359E+02   -0.522557418965514671E+03
   -0.521522603554634756E+00    0.263580141593318107E+01   -0.224968398675891024E+00    0.115534262731069717E+03    0.523798621783375609E+02   -0.522269617979839040E+03
   -0.509999487434386722E+00    0.261852423043397975E+01   -0.241885247383319069E+00    0.115187674606372781E+03    0.524118635876041594E+02   -0.522103756278462242E+03
   -0.514141419973063840E+00    0.263228535373234518E+01   -0.237694129770087414E+00    0.115014926766311120E+03    0.520883306804323354E+02   -0.521905361249728230E+03
   -0.519917359229309817E+00    0.263602106770114775E+01   -0.228677832379117874E+00    0.114615873044588554E+03    0.522009525962465091E+02   -0.522422625664636598E+03
   -0.513959125295425423E+00    0.261917692247650802E+01   -0.232799620414441577E+00    0.115059587988141573E+03    0.524223227429854433E+02   -0.522307752723825388E+03
   -0.512323079664721348E+00    0.262701231470188334E+01   -0.241168329593415720E+00    0.115801668499470424E+03    0.520056335629837179E+02   -0.522354024345683115E+03
   -0.505162351676856858E+00    0.261964757285550220E+01   -0.253435717185196197E+00    0.114936149634551981E+03    0.524256868668642539E+02   -0.522026870481778133E+03
   -0.505162351676856858E+00    0.261964757285550220E+01   -0.253435717185196197E+00    0.114936149634551981E+03    0.524256868668642539E+02   -0.522026870481778133E+03
   -0.497539767253332599E+00    0.261244518826296446E+01   -0.263376960721409148E+00    0.115154952283752550E+03    0.527983615028611837E+02   -0.522579958866040670E+03
   -0.509581445034635649E+00    0.262133071222154124E+01   -0.243060986575438065E+00    0.114624935834570977E+03    0.519470544192555224E+02   -0.522415867497186014E+03
   -0.519696501939943545E+00    0.262611294846020105E+01   -0.224763628232077295E+00    0.114791906218368325E+03    0.523412257717416196E+02   -0.522362992915364885E+03
   -0.500278864553823865E+00    0.261026977810807770E+01   -0.257865612481044337E+00    0.115147898385836115E+03    0.518305460066264914E+02   -0.522538530246912046E+03
   -0.515633129559814662E+00    0.262742648149998814E+01   -0.233236725721200244E+00    0.115776793251699289E+03    0.520322254252649827E+02   -0.522482566048990179E+03
   -0.506436287741868441E+00    0.262524680714658487E+01   -0.249932548548231992E+00    0.115222307130376677E+03    0.521509183514388610E+02   -0.522120047587013573E+03
   -0.506436287741868441E+00    0.262524680714658487E+01   -0.249932548548231992E+00    0.115222307130376677E+03    0.521509183514388610E+02   -0.522120047587013573E+03
   -0.521894234185656281E+00    0.262670782191096652E+01   -0.215632251032143785E+00    0.114958883016086702E+03    0.524565908758638102E+02   -0.522604485007297853E+03
   -0.506327822231289915E+00    0.262335442786730288E+01   -0.255380745646800023E+00    0.115512603217027092E+03    0.520645343945725756E+02   -0.522616384408327349E+03
   -0.516058206140318276E+00    0.262217092850518707E+01   -0.225328090057310249E+00    0.114760980580334191E+03    0.523676170801047647E+02   -0.522493156142361840E+03
   -0.505885209349345999E+00    0.261408821030798366E+01   -0.246218591318458024E+00    0.114731654689048383E+03    0.520681670225138475E+02   -0.522367629971879182E+03
   -0.499056978603452883E+00    0.261242864988090506E+01   -0.261210939197919600E+00    0.114586643277062421E+03    0.525567142178254301E+02   -0.522470583155266127E+03
   -0.516217389407692018E+00    0.263064342615341751E+01   -0.231235418281412919E+00    0.115039017124997883E+03    0.516651374164601407E+02   -0.522471920384785108E+03
   -0.511301663968781739E+00    0.263100290009148496E+01   -0.243407534786280522E+00    0.115355497133302066E+03    0.521541940097799852E+02   -0.522224575858268167E+03
   -0.500939234030905567E+00    0.261615975655723609E+01   -0.259967141391712175E+00    0.115364305069415963E+03    0.526954203169020161E+02   -0.522552103747768570E+03
   -0.524013810523600299E+00    0.262979610344027881E+01   -0.217329517523145554E+00    0.114997602978272923E+03    0.519921183227396284E+02   -0.522374629935953067E+03
   -0.514951341088695003E+00    0.263023361817984336E+01   -0.233318640857199000E+00    0.115065602386401963E+03    0.520859626834415508E+02   -0.522057056651339963E+03
   -0.496912211905661039E+00    0.261447268165907643E+01   -0.268008266888790203E+00    0.115039507548505497E+03    0.520970974895865311E+02   -0.522116288090692478E+03
   -0.496912211905661039E+00    0.261447268165907643E+01   -0.268008266888790203E+00    0.115039507548505497E+03    0.520970974895865311E+02   -0.522116288090692478E+03
   -0.519710220353569952E+00    0.262810294029566416E+01   -0.221952680285767201E+00    0.114523765694674850E+03    0.521406491265756529E+02   -0.522372725771845694E+03
   -0.499956759951233565E+00    0.261543028861654614E+01   -0.262473245441043446E+00    0.114946827733863572E+03    0.519545875729512261E+02   -0.522367352501648952E+03
   -0.500608476457052198E+00    0.261981668756525865E+01   -0.261283878750738552E+00    0.115157424024703943E+03    0.517804265616404109E+02   -0.522124746078097928E+03
   -0.501793243050574489E+00    0.261612869034181283E+01   -0.257435242636219641E+00    0.114755107876011223E+03    0.526229366990227732E+02   -0.522079584441537349E+03
   -0.501793243050574489E+00    0.261612869034181283E+01   -0.257435242636219641E+00    0.114755107876011223E+03    0.526229366990227732E+02   -0.522079584441537349E+03
   -0.499883198263255224E+00    0.261904689147211034E+01   -0.265270549882515638E+00    0.115438915448800785E+03    0.519304861224748890E+02   -0.522253942917533323E+03
   -0.499883198263255224E+00    0.261904689147211034E+01   -0.265270549882515638E+00    0.115438915448800785E+03    0.519304861224748890E+02   -0.522253942917533323E+03
   -0.521553896767392722E+00    0.263749805954290428E+01   -0.227727078532559801E+00    0.115436772005598044E+03    0.525869228097631947E+02   -0.522596967679361910E+03
   -0.504518205114346863E+00    0.261933801848051706E+01   -0.253712444272890636E+00    0.115584913267405781E+03    0.523178727352615169E+02   -0.522206708936557789E+03
   -0.503141501550524950E+00    0.261455607030684645E+01   -0.250674699978596038E+00    0.114671857457838342E+03    0.520935406882630048E+02   -0.522224577410426264E+03
   -0.502928446579097965E+00    0.262034423228053770E+01   -0.254447137638116772E+00    0.114516198476521396E+03    0.528739170713483304E+02   -0.522393689247125508E+03
   -0.521822543526676341E+00    0.262782932794213941E+01   -0.219493519007787796E+00    0.115363542346663010E+03    0.519266478309184834E+02   -0.522241781017120502E+03
   -0.524390566174568917E+00    0.264035648691499780E+01   -0.219395851284431842E+00    0.115300473155279249E+03    0.520314478510192089E+02   -0.522439634379948529E+03
   -0.499665491030658160E+00    0.261910253396783510E+01   -0.261344115856271486E+00    0.115176003486684209E+03    0.519077246535556185E+02   -0.522335355119736960E+03
   -0.511634100034442874E+00    0.262743158204300853E+01   -0.243719560512078104E+00    0.115077281658841585E+03    0.526056257462356882E+02   -0.522076240635681415E+03
   -0.511634100034442874E+00    0.262743158204300853E+01   -0.243719560512078104E+00    0.115077281658841585E+03    0.526056257462356882E+02   -0.522076240635681415E+03
   -0.513319052092657380E+00    0.262469249829975304E+01   -0.235678502231310816E+00    0.115461717259282963E+03    0.519396474932880778E+02   -0.521981427245974146E+03
   -0.524284991777181020E+00    0.263829994912903532E+01   -0.220803371547646066E+00    0.114730192290278936E+03    0.524403851611483276E+02   -0.522232305286072005E+03
   -0.522140835763556410E+00    0.263983056419252771E+01   -0.224753066289460790E+00    0.114734821182559003E+03    0.523468145710544945E+02   -0.522351563321187655E+03
   -0.525817894796429819E+00    0.264002975257096439E+01   -0.217997866665038842E+00    0.114787484045937973E+03    0.523946548972559185E+02   -0.522172056720640285E+03
   -0.509376304779755706E+00    0.262742200317583086E+01   -0.244022388641607080E+00    0.114966536426936585E+03    0.523877272306883128E+02   -0.522065706250135122E+03
   -0.509376304779755706E+00    0.262742200317583086E+01   -0.244022388641607080E+00    0.114966536426936585E+03    0.523877272306883128E+02   -0.522065706250135122E+03
   -0.519619977961879087E+00    0.262978274027032288E+01   -0.224541649960006140E+00    0.114499350279774788E+03    0.527132036906172345E+02   -0.522099864677591199E+03
   -0.504123760703564017E+00    0.262238614348200239E+01   -0.255786925276245469E+00    0.115037871856595046E+03    0.519247766682693452E+02   -0.521865677785661433E+03
   -0.504123760703564017E+00    0.262238614348200239E+01   -0.255786925276245469E+00    0.115037871856595046E+03    0.519247766682693452E+02   -0.521865677785661433E+03
   -0.506371405214762760E+00    0.262491573568116765E+01   -0.254512631592149319E+00    0.115317386552074979E+03    0.526112674948565200E+02   -0.522579353699071817E+03
   -0.502920577853389617E+00    0.261258371556246738E+01   -0.253943351459728461E+00    0.115022086215103485E+03    0.519529504912018751E+02   -0.522461027985401415E+03
   -0.495612076214879238E+00    0.261062392810965704E+01   -0.264927688687285112E+00    0.114778745004190355E+03    0.520215825221744410E+02   -0.522438282806790767E+03
   -0.518097043473099816E+00    0.263411016349591565E+01   -0.232976287097331536E+00    0.114895879648122232E+03    0.526408476616887810E+02   -0.522285800603504413E+03
   -0.520466212477497692E+00    0.263427293959341302E+01   -0.224672137072705169E+00    0.115059934797802185E+03    0.519810444215757173E+02   -0.521879551961751645E+03
   -0.519020760598740694E+00    0.263565003697532108E+01   -0.227803573369127932E+00    0.115114833241177848E+03    0.522300866840863307E+02   -0.522201609389322243E+03
   -0.509934366101560954E+00    0.262698706373645585E+01   -0.246426561938999811E+00    0.115544013251561822E+03    0.516382695203264461E+02   -0.522097029607967215E+03
   -0.516752616048377078E+00    0.262693476176836116E+01   -0.230553587279564098E+00    0.115361910621463011E+03    0.525130140579477427E+02   -0.521962632816618679E+03
   -0.524664573994309436E+00    0.263416793177899189E+01   -0.218331393124824302E+00    0.114706541454285428E+03    0.523899535847307902E+02   -0.522364868335127085E+03
   -0.505050895868565775E+00    0.262321856282159427E+01   -0.254029318914144042E+00    0.114781685910524814E+03    0.522605192062726189E+02   -0.521905535626729943E+03
   -0.505050895868565775E+00    0.262321856282159427E+01   -0.254029318914144042E+00    0.114781685910524814E+03    0.522605192062726189E+02   -0.521905535626729943E+03
   -0.509863424586214364E+00    0.261880365898407241E+01   -0.236615679656615896E+00    0.114522792493842346E+03    0.526005913872848794E+02   -0.522433371750286028E+03
   -0.513788466521026166E+00    0.262822817587518953E+01   -0.240313621049706327E+00    0.115690227481543616E+03    0.518146205858656401E+02   -0.522168636836147471E+03
   -0.499509960249669760E+00    0.261463291991912605E+01   -0.259689893655545845E+00    0.114907385862001846E+03    0.527245447246970969E+02   -0.522086934779793296E+03
   -0.527008211994522746E+00    0.263419895946731009E+01   -0.213992538110421293E+00    0.115528565621688614E+03    0.522908826524104313E+02   -0.522524541535907588E+03
   -0.506261319701234669E+00    0.261593310499262888E+01   -0.246890916624412426E+00    0.115382739352778330E+03    0.519441787701179294E+02   -0.522110141138962831E+03
   -0.508227022911716730E+00    0.262568860594405962E+01   -0.249876813616921822E+00    0.115061694509375556E+03    0.516777225117659214E+02   -0.522299394320998090E+03
   -0.528547545154557596E+00    0.263617318079573337E+01   -0.210580232379394161E+00    0.115350889202792118E+03    0.516239789647951000E+02   -0.522581080956919550E+03
   -0.495561632612167458E+00    0.261151405086772703E+01   -0.267793413033400540E+00    0.114660968863313002E+03    0.525159903735854243E+02   -0.522320952429332692E+03
   -0.499892290355800739E+00    0.261999546766974145E+01   -0.261610619361979602E+00    0.114911220663709628E+03    0.522590226015353210E+02   -0.522065913884633687E+03
   -0.496493118595182636E+00    0.260897395898019946E+01   -0.264083069574823526E+00    0.114902236471537066E+03    0.524595640840185240E+02   -0.522196608891041706E+03
   -0.514130785404470103E+00    0.262754107259730629E+01   -0.236411291050211858E+00    0.114804776442544366E+03    0.523700450955183214E+02   -0.521582176930669561E+03
   -0.514130785404470103E+00    0.262754107259730629E+01   -0.236411291050211858E+00    0.114804776442544366E+03    0.523700450955183214E+02   -0.521582176930669561E+03
   -0.519221203321665215E+00    0.262473445321212973E+01   -0.224228047995628899E+00    0.115220058801624461E+03    0.517526206754517091E+02   -0.522435388985088139E+03
   -0.507562538168350841E+00    0.261440544249268703E+01   -0.241829268678609210E+00    0.115180694829039439E+03    0.522910202502362438E+02   -0.522359752103634605E+03
